<?xml version="1.0"?>
<opencv_storage>
<cascade>
  <stageType>BOOST</stageType>
  <featureType>HAAR</featureType>
  <height>20</height>
  <width>20</width>
  <stageParams>
    <boostType>GAB</boostType>
    <minHitRate>9.9500000476837158e-01</minHitRate>
    <maxFalseAlarm>5.0000000000000000e-01</maxFalseAlarm>
    <weightTrimRate>9.4999999999999996e-01</weightTrimRate>
    <maxDepth>1</maxDepth>
    <maxWeakCount>100</maxWeakCount></stageParams>
  <featureParams>
    <maxCatCount>0</maxCatCount>
    <featSize>1</featSize>
    <mode>BASIC</mode></featureParams>
  <stageNum>20</stageNum>
  <stages>
    <!-- stage 0 -->
    <_>
      <maxWeakCount>55</maxWeakCount>
      <stageThreshold>-2.1618306636810303e+00</stageThreshold>
      <weakClassifiers>
        <_>
          <internalNodes>
            0 -1 239 -3.8351096212863922e-02</internalNodes>
          <leafValues>
            -1.3850415125489235e-02 -6.4717739820480347e-01</leafValues></_>
        <_>
          <internalNodes>
            0 -1 130 -1.9181333482265472e-02</internalNodes>
          <leafValues>
            2.4955272674560547e-01 -4.4340956211090088e-01</leafValues></_>
        <_>
          <internalNodes>
            0 -1 792 -2.3806183598935604e-03</internalNodes>
          <leafValues>
            2.9560184478759766e-01 -2.2986546158790588e-01</leafValues></_>
        <_>
          <internalNodes>
            0 -1 269 -3.8451224565505981e-02</internalNodes>
          <leafValues>
            3.9945560693740845e-01 -1.6591168940067291e-01</leafValues></_>
        <_>
          <internalNodes>
            0 -1 194 9.6421828493475914e-03</internalNodes>
          <leafValues>
            -1.5665902197360992e-01 3.7297919392585754e-01</leafValues></_>
        <_>
          <internalNodes>
            0 -1 1696 -9.7697554156184196e-03</internalNodes>
          <leafValues>
            3.6989018321037292e-01 -1.7072163522243500e-01</leafValues></_>
        <_>
          <internalNodes>
            0 -1 193 -1.1009932495653629e-02</internalNodes>
          <leafValues>
            4.1872009634971619e-01 -1.4295338094234467e-01</leafValues></_>
        <_>
          <internalNodes>
            0 -1 699 -3.0051859095692635e-02</internalNodes>
          <leafValues>
            -8.4306329488754272e-01 1.0712782293558121e-01</leafValues></_>
        <_>
          <internalNodes>
            0 -1 546 -3.9573982357978821e-03</internalNodes>
          <leafValues>
            2.4498444795608521e-01 -2.3432968556880951e-01</leafValues></_>
        <_>
          <internalNodes>
            0 -1 1105 6.7602954804897308e-02</internalNodes>
          <leafValues>
            -2.7941862121224403e-02 7.0797717571258545e-01</leafValues></_>
        <_>
          <internalNodes>
            0 -1 1252 -3.2011833041906357e-02</internalNodes>
          <leafValues>
            4.0596556663513184e-01 -1.1901553720235825e-01</leafValues></_>
        <_>
          <internalNodes>
            0 -1 677 -7.9035330563783646e-03</internalNodes>
          <leafValues>
            3.1021577119827271e-01 -1.5864866971969604e-01</leafValues></_>
        <_>
          <internalNodes>
            0 -1 1393 -4.8724608495831490e-03</internalNodes>
          <leafValues>
            -6.1805558204650879e-01 8.0445908010005951e-02</leafValues></_>
        <_>
          <internalNodes>
            0 -1 342 -2.4968203157186508e-02</internalNodes>
          <leafValues>
            -7.7423912286758423e-01 4.4319260865449905e-02</leafValues></_>
        <_>
          <internalNodes>
            0 -1 694 -1.3176577165722847e-02</internalNodes>
          <leafValues>
            2.9428586363792419e-01 -1.5271431207656860e-01</leafValues></_>
        <_>
          <internalNodes>
            0 -1 198 1.1537864804267883e-02</internalNodes>
          <leafValues>
            -1.2296367436647415e-01 3.4451740980148315e-01</leafValues></_>
        <_>
          <internalNodes>
            0 -1 317 -9.5843821763992310e-03</internalNodes>
          <leafValues>
            4.4440862536430359e-01 -1.0163742303848267e-01</leafValues></_>
        <_>
          <internalNodes>
            0 -1 630 -7.3276773036923259e-05</internalNodes>
          <leafValues>
            -2.1998052299022675e-01 2.1227881312370300e-01</leafValues></_>
        <_>
          <internalNodes>
            0 -1 1711 1.0397197678685188e-02</internalNodes>
          <leafValues>
            7.4940323829650879e-02 -5.5824959278106689e-01</leafValues></_>
        <_>
          <internalNodes>
            0 -1 1028 8.0378036946058273e-03</internalNodes>
          <leafValues>
            4.9237530678510666e-02 -7.1427887678146362e-01</leafValues></_>
        <_>
          <internalNodes>
            0 -1 660 1.3553068973124027e-02</internalNodes>
          <leafValues>
            -1.5700170397758484e-01 2.7493837475776672e-01</leafValues></_>
        <_>
          <internalNodes>
            0 -1 1103 -1.0982921958202496e-04</internalNodes>
          <leafValues>
            -2.2940379381179810e-01 1.8474654853343964e-01</leafValues></_>
        <_>
          <internalNodes>
            0 -1 1034 2.0219925791025162e-02</internalNodes>
          <leafValues>
            -1.0762498527765274e-01 4.0415811538696289e-01</leafValues></_>
        <_>
          <internalNodes>
            0 -1 853 1.1395091860322282e-04</internalNodes>
          <leafValues>
            1.7202493548393250e-01 -2.4424141645431519e-01</leafValues></_>
        <_>
          <internalNodes>
            0 -1 804 -3.6915786564350128e-02</internalNodes>
          <leafValues>
            5.6812065839767456e-01 -8.0853156745433807e-02</leafValues></_>
        <_>
          <internalNodes>
            0 -1 1274 -3.8522335235029459e-03</internalNodes>
          <leafValues>
            -7.0786237716674805e-01 6.4901672303676605e-02</leafValues></_>
        <_>
          <internalNodes>
            0 -1 1391 4.1438862681388855e-02</internalNodes>
          <leafValues>
            -1.0063108056783676e-01 6.1633926630020142e-01</leafValues></_>
        <_>
          <internalNodes>
            0 -1 783 -2.0672744722105563e-04</internalNodes>
          <leafValues>
            -1.8438687920570374e-01 2.3050045967102051e-01</leafValues></_>
        <_>
          <internalNodes>
            0 -1 1691 -2.8573083691298962e-03</internalNodes>
          <leafValues>
            2.5585857033729553e-01 -1.8871799111366272e-01</leafValues></_>
        <_>
          <internalNodes>
            0 -1 403 -3.4816410392522812e-02</internalNodes>
          <leafValues>
            -8.4153699874877930e-01 4.3650880455970764e-02</leafValues></_>
        <_>
          <internalNodes>
            0 -1 372 -1.9464846700429916e-02</internalNodes>
          <leafValues>
            4.7914567589759827e-01 -1.0634664446115494e-01</leafValues></_>
        <_>
          <internalNodes>
            0 -1 1627 -2.3085711523890495e-02</internalNodes>
          <leafValues>
            6.1314153671264648e-01 -6.7719265818595886e-02</leafValues></_>
        <_>
          <internalNodes>
            0 -1 1046 -1.1038443073630333e-02</internalNodes>
          <leafValues>
            -7.2368937730789185e-01 9.5581904053688049e-02</leafValues></_>
        <_>
          <internalNodes>
            0 -1 1000 1.1719592660665512e-01</internalNodes>
          <leafValues>
            -8.5485592484474182e-02 8.4792727231979370e-01</leafValues></_>
        <_>
          <internalNodes>
            0 -1 438 -1.4923351118341088e-03</internalNodes>
          <leafValues>
            2.6609295606613159e-01 -1.4839515089988708e-01</leafValues></_>
        <_>
          <internalNodes>
            0 -1 625 9.3235690146684647e-03</internalNodes>
          <leafValues>
            1.7707176506519318e-01 -3.1062826514244080e-01</leafValues></_>
        <_>
          <internalNodes>
            0 -1 236 -4.3982911854982376e-02</internalNodes>
          <leafValues>
            3.5147085785865784e-01 -1.5094169974327087e-01</leafValues></_>
        <_>
          <internalNodes>
            0 -1 402 -1.2854787707328796e-01</internalNodes>
          <leafValues>
            -7.7269095182418823e-01 5.4346092045307159e-02</leafValues></_>
        <_>
          <internalNodes>
            0 -1 919 1.7723640799522400e-01</internalNodes>
          <leafValues>
            4.9007121473550797e-02 -6.6601741313934326e-01</leafValues></_>
        <_>
          <internalNodes>
            0 -1 396 3.5244375467300415e-03</internalNodes>
          <leafValues>
            -1.3848631083965302e-01 2.7178624272346497e-01</leafValues></_>
        <_>
          <internalNodes>
            0 -1 1043 9.4649978564120829e-05</internalNodes>
          <leafValues>
            1.6036711633205414e-01 -2.5195828080177307e-01</leafValues></_>
        <_>
          <internalNodes>
            0 -1 1088 1.8939428031444550e-02</internalNodes>
          <leafValues>
            5.0635024905204773e-02 -8.6178958415985107e-01</leafValues></_>
        <_>
          <internalNodes>
            0 -1 413 1.2255723588168621e-02</internalNodes>
          <leafValues>
            -1.0583230853080750e-01 4.2463582754135132e-01</leafValues></_>
        <_>
          <internalNodes>
            0 -1 1588 -4.0010927477851510e-04</internalNodes>
          <leafValues>
            -2.2399066388607025e-01 1.6876679658889771e-01</leafValues></_>
        <_>
          <internalNodes>
            0 -1 541 -7.1265175938606262e-03</internalNodes>
          <leafValues>
            3.8067325949668884e-01 -9.7963921725749969e-02</leafValues></_>
        <_>
          <internalNodes>
            0 -1 1653 4.5452970080077648e-03</internalNodes>
          <leafValues>
            4.6317432075738907e-02 -7.7756619453430176e-01</leafValues></_>
        <_>
          <internalNodes>
            0 -1 1719 9.8407808691263199e-03</internalNodes>
          <leafValues>
            -9.1037407517433167e-02 4.5214763283729553e-01</leafValues></_>
        <_>
          <internalNodes>
            0 -1 304 9.8904045298695564e-03</internalNodes>
          <leafValues>
            7.9501658678054810e-02 -5.3697669506072998e-01</leafValues></_>
        <_>
          <internalNodes>
            0 -1 897 -3.9646099321544170e-03</internalNodes>
          <leafValues>
            -2.8944423794746399e-01 1.3572710752487183e-01</leafValues></_>
        <_>
          <internalNodes>
            0 -1 1134 1.7976475646719337e-03</internalNodes>
          <leafValues>
            -1.3441306352615356e-01 2.9376435279846191e-01</leafValues></_>
        <_>
          <internalNodes>
            0 -1 283 1.0510688647627831e-02</internalNodes>
          <leafValues>
            9.0171873569488525e-02 -4.3172803521156311e-01</leafValues></_>
        <_>
          <internalNodes>
            0 -1 1032 -5.2950899116694927e-03</internalNodes>
          <leafValues>
            3.4343519806861877e-01 -1.2631036341190338e-01</leafValues></_>
        <_>
          <internalNodes>
            0 -1 961 1.6818864271044731e-02</internalNodes>
          <leafValues>
            5.7223822921514511e-02 -8.2853019237518311e-01</leafValues></_>
        <_>
          <internalNodes>
            0 -1 343 -3.6645054817199707e-02</internalNodes>
          <leafValues>
            -9.2133337259292603e-01 3.1118052080273628e-02</leafValues></_>
        <_>
          <internalNodes>
            0 -1 1021 4.6171990106813610e-05</internalNodes>
          <leafValues>
            1.3986943662166595e-01 -2.6486235857009888e-01</leafValues></_></weakClassifiers></_>
    <!-- stage 1 -->
    <_>
      <maxWeakCount>86</maxWeakCount>
      <stageThreshold>-2.1792221069335938e+00</stageThreshold>
      <weakClassifiers>
        <_>
          <internalNodes>
            0 -1 449 -2.1146242506802082e-03</internalNodes>
          <leafValues>
            -3.0836454033851624e-01 -7.2463768720626831e-01</leafValues></_>
        <_>
          <internalNodes>
            0 -1 1051 3.2369238324463367e-03</internalNodes>
          <leafValues>
            -2.3380473256111145e-01 2.6880493760108948e-01</leafValues></_>
        <_>
          <internalNodes>
            0 -1 1058 -3.0147663783282042e-03</internalNodes>
          <leafValues>
            2.9631373286247253e-01 -1.6345743834972382e-01</leafValues></_>
        <_>
          <internalNodes>
            0 -1 276 -5.3041413426399231e-02</internalNodes>
          <leafValues>
            2.5059673190116882e-01 -1.8884566426277161e-01</leafValues></_>
        <_>
          <internalNodes>
            0 -1 562 3.1450961250811815e-03</internalNodes>
          <leafValues>
            -1.3525353372097015e-01 3.3429530262947083e-01</leafValues></_>
        <_>
          <internalNodes>
            0 -1 559 -5.4237677250057459e-04</internalNodes>
          <leafValues>
            3.1926757097244263e-01 -1.1734649538993835e-01</leafValues></_>
        <_>
          <internalNodes>
            0 -1 1246 -5.3839199244976044e-02</internalNodes>
          <leafValues>
            4.5073929429054260e-01 -9.0269170701503754e-02</leafValues></_>
        <_>
          <internalNodes>
            0 -1 1076 4.7364667989313602e-03</internalNodes>
          <leafValues>
            5.2065156400203705e-02 -7.6922172307968140e-01</leafValues></_>
        <_>
          <internalNodes>
            0 -1 230 -9.8566487431526184e-03</internalNodes>
          <leafValues>
            3.4780386090278625e-01 -9.8124861717224121e-02</leafValues></_>
        <_>
          <internalNodes>
            0 -1 1544 -1.9370136782526970e-02</internalNodes>
          <leafValues>
            -8.1991511583328247e-01 4.0747992694377899e-02</leafValues></_>
        <_>
          <internalNodes>
            0 -1 879 2.0657811313867569e-02</internalNodes>
          <leafValues>
            -1.1430575698614120e-01 2.8778377175331116e-01</leafValues></_>
        <_>
          <internalNodes>
            0 -1 671 6.1188265681266785e-03</internalNodes>
          <leafValues>
            3.6055061966180801e-02 -8.6276489496231079e-01</leafValues></_>
        <_>
          <internalNodes>
            0 -1 1686 -1.9390922039747238e-02</internalNodes>
          <leafValues>
            3.8160806894302368e-01 -9.0276293456554413e-02</leafValues></_>
        <_>
          <internalNodes>
            0 -1 1164 6.8187539000064135e-04</internalNodes>
          <leafValues>
            1.5130072832107544e-01 -2.1982528269290924e-01</leafValues></_>
        <_>
          <internalNodes>
            0 -1 1636 -4.5375814661383629e-03</internalNodes>
          <leafValues>
            2.8936538100242615e-01 -1.1800305545330048e-01</leafValues></_>
        <_>
          <internalNodes>
            0 -1 166 7.7066855737939477e-04</internalNodes>
          <leafValues>
            1.4320164918899536e-01 -2.5456988811492920e-01</leafValues></_>
        <_>
          <internalNodes>
            0 -1 1145 -2.5552990846335888e-03</internalNodes>
          <leafValues>
            2.7774277329444885e-01 -1.3026422262191772e-01</leafValues></_>
        <_>
          <internalNodes>
            0 -1 246 1.2469847686588764e-02</internalNodes>
          <leafValues>
            1.0800775140523911e-01 -3.2865500450134277e-01</leafValues></_>
        <_>
          <internalNodes>
            0 -1 1071 -2.2473726421594620e-03</internalNodes>
          <leafValues>
            -2.0666976273059845e-01 1.6076909005641937e-01</leafValues></_>
        <_>
          <internalNodes>
            0 -1 983 -3.7893725093454123e-03</internalNodes>
          <leafValues>
            2.8419154882431030e-01 -1.6059149801731110e-01</leafValues></_>
        <_>
          <internalNodes>
            0 -1 569 -1.6717730090022087e-02</internalNodes>
          <leafValues>
            3.6957138776779175e-01 -1.0865185409784317e-01</leafValues></_>
        <_>
          <internalNodes>
            0 -1 1776 8.6828889325261116e-03</internalNodes>
          <leafValues>
            -3.1410440802574158e-02 5.7246232032775879e-01</leafValues></_>
        <_>
          <internalNodes>
            0 -1 1488 -1.6893086954951286e-02</internalNodes>
          <leafValues>
            -7.4076402187347412e-01 5.1228720694780350e-02</leafValues></_>
        <_>
          <internalNodes>
            0 -1 252 -2.1527446806430817e-02</internalNodes>
          <leafValues>
            3.5727107524871826e-01 -1.2742096185684204e-01</leafValues></_>
        <_>
          <internalNodes>
            0 -1 1328 -2.2355120629072189e-02</internalNodes>
          <leafValues>
            -7.6003068685531616e-01 7.2538748383522034e-02</leafValues></_>
        <_>
          <internalNodes>
            0 -1 354 4.4881748035550117e-03</internalNodes>
          <leafValues>
            -1.6272017359733582e-01 2.6960894465446472e-01</leafValues></_>
        <_>
          <internalNodes>
            0 -1 1669 2.6423133022035472e-05</internalNodes>
          <leafValues>
            1.9861774146556854e-01 -1.9159148633480072e-01</leafValues></_>
        <_>
          <internalNodes>
            0 -1 1341 3.9019562304019928e-02</internalNodes>
          <leafValues>
            -1.3887812197208405e-01 3.2731354236602783e-01</leafValues></_>
        <_>
          <internalNodes>
            0 -1 920 -1.4442583546042442e-02</internalNodes>
          <leafValues>
            3.9077168703079224e-01 -9.5594175159931183e-02</leafValues></_>
        <_>
          <internalNodes>
            0 -1 524 4.4948961585760117e-03</internalNodes>
          <leafValues>
            7.6596587896347046e-02 -6.3343453407287598e-01</leafValues></_>
        <_>
          <internalNodes>
            0 -1 92 1.3421606272459030e-03</internalNodes>
          <leafValues>
            -1.8282936513423920e-01 2.2324579954147339e-01</leafValues></_>
        <_>
          <internalNodes>
            0 -1 217 -3.0008852481842041e-02</internalNodes>
          <leafValues>
            -2.4994806945323944e-01 1.7081679403781891e-01</leafValues></_>
        <_>
          <internalNodes>
            0 -1 629 -2.5142744183540344e-02</internalNodes>
          <leafValues>
            3.6668017506599426e-01 -1.2287367135286331e-01</leafValues></_>
        <_>
          <internalNodes>
            0 -1 1547 5.2463484462350607e-04</internalNodes>
          <leafValues>
            -1.4341449737548828e-01 2.4557746946811676e-01</leafValues></_>
        <_>
          <internalNodes>
            0 -1 940 -2.0381006598472595e-01</internalNodes>
          <leafValues>
            -8.4421402215957642e-01 6.8906188011169434e-02</leafValues></_>
        <_>
          <internalNodes>
            0 -1 175 2.6276791468262672e-03</internalNodes>
          <leafValues>
            1.2282265722751617e-01 -2.9807984828948975e-01</leafValues></_>
        <_>
          <internalNodes>
            0 -1 1399 -1.2501266319304705e-03</internalNodes>
          <leafValues>
            2.5315994024276733e-01 -1.6384890675544739e-01</leafValues></_>
        <_>
          <internalNodes>
            0 -1 311 4.9907751381397247e-03</internalNodes>
          <leafValues>
            1.5729033946990967e-01 -3.2635754346847534e-01</leafValues></_>
        <_>
          <internalNodes>
            0 -1 943 1.7153617227450013e-03</internalNodes>
          <leafValues>
            -1.6807721555233002e-01 2.0664121210575104e-01</leafValues></_>
        <_>
          <internalNodes>
            0 -1 87 -5.5246148258447647e-02</internalNodes>
          <leafValues>
            2.6269567012786865e-01 -1.2988103926181793e-01</leafValues></_>
        <_>
          <internalNodes>
            0 -1 107 -6.1610499396920204e-03</internalNodes>
          <leafValues>
            -2.8916412591934204e-01 1.3707455992698669e-01</leafValues></_>
        <_>
          <internalNodes>
            0 -1 992 -8.1717856228351593e-03</internalNodes>
          <leafValues>
            3.2409122586250305e-01 -1.3046266138553619e-01</leafValues></_>
        <_>
          <internalNodes>
            0 -1 131 1.1799066851381212e-04</internalNodes>
          <leafValues>
            2.0706091821193695e-01 -1.8039253354072571e-01</leafValues></_>
        <_>
          <internalNodes>
            0 -1 145 9.6254777163267136e-03</internalNodes>
          <leafValues>
            -1.2807446718215942e-01 3.0323827266693115e-01</leafValues></_>
        <_>
          <internalNodes>
            0 -1 110 -2.0244371145963669e-02</internalNodes>
          <leafValues>
            3.0916088819503784e-01 -1.0225591808557510e-01</leafValues></_>
        <_>
          <internalNodes>
            0 -1 34 -3.1360980938188732e-04</internalNodes>
          <leafValues>
            -1.9772037863731384e-01 1.9340896606445312e-01</leafValues></_>
        <_>
          <internalNodes>
            0 -1 336 -1.8048455938696861e-02</internalNodes>
          <leafValues>
            2.6498255133628845e-01 -1.7693340778350830e-01</leafValues></_>
        <_>
          <internalNodes>
            0 -1 480 1.1340009223204106e-04</internalNodes>
          <leafValues>
            1.7311380803585052e-01 -1.9525608420372009e-01</leafValues></_>
        <_>
          <internalNodes>
            0 -1 33 1.6131862998008728e-02</internalNodes>
          <leafValues>
            -1.0207356512546539e-01 4.3051004409790039e-01</leafValues></_>
        <_>
          <internalNodes>
            0 -1 718 -1.0863433592021465e-02</internalNodes>
          <leafValues>
            -4.4868859648704529e-01 7.6669320464134216e-02</leafValues></_>
        <_>
          <internalNodes>
            0 -1 964 3.6742448806762695e-02</internalNodes>
          <leafValues>
            -5.7599306106567383e-02 5.4170334339141846e-01</leafValues></_>
        <_>
          <internalNodes>
            0 -1 473 9.7547778859734535e-03</internalNodes>
          <leafValues>
            -9.5827922224998474e-02 3.2285317778587341e-01</leafValues></_>
        <_>
          <internalNodes>
            0 -1 435 2.7086446061730385e-02</internalNodes>
          <leafValues>
            -7.3770381510257721e-02 4.3722754716873169e-01</leafValues></_>
        <_>
          <internalNodes>
            0 -1 238 -2.8939221054315567e-02</internalNodes>
          <leafValues>
            -8.3957087993621826e-01 3.7743948400020599e-02</leafValues></_>
        <_>
          <internalNodes>
            0 -1 1049 -5.3837099112570286e-03</internalNodes>
          <leafValues>
            -8.9136552810668945e-01 2.7737112715840340e-02</leafValues></_>
        <_>
          <internalNodes>
            0 -1 389 -1.2658713385462761e-02</internalNodes>
          <leafValues>
            5.1610946655273438e-01 -6.6683396697044373e-02</leafValues></_>
        <_>
          <internalNodes>
            0 -1 755 6.3503761775791645e-03</internalNodes>
          <leafValues>
            6.0956314206123352e-02 -4.8840719461441040e-01</leafValues></_>
        <_>
          <internalNodes>
            0 -1 128 -1.8128037452697754e-02</internalNodes>
          <leafValues>
            -8.3162993192672729e-01 3.5627488046884537e-02</leafValues></_>
        <_>
          <internalNodes>
            0 -1 1466 2.1760800853371620e-02</internalNodes>
          <leafValues>
            -7.7180847525596619e-02 4.1676330566406250e-01</leafValues></_>
        <_>
          <internalNodes>
            0 -1 1376 -3.4667395055294037e-02</internalNodes>
          <leafValues>
            -4.9686309695243835e-01 6.2360785901546478e-02</leafValues></_>
        <_>
          <internalNodes>
            0 -1 1037 4.6349816024303436e-02</internalNodes>
          <leafValues>
            7.3943853378295898e-02 -3.9225423336029053e-01</leafValues></_>
        <_>
          <internalNodes>
            0 -1 747 -5.0218410789966583e-02</internalNodes>
          <leafValues>
            -6.8970209360122681e-01 5.0013609230518341e-02</leafValues></_>
        <_>
          <internalNodes>
            0 -1 922 -5.4211784154176712e-02</internalNodes>
          <leafValues>
            4.2677649855613708e-01 -8.7020874023437500e-02</leafValues></_>
        <_>
          <internalNodes>
            0 -1 1324 -8.3917402662336826e-05</internalNodes>
          <leafValues>
            -1.8988896906375885e-01 1.6127406060695648e-01</leafValues></_>
        <_>
          <internalNodes>
            0 -1 1240 -3.2350227236747742e-02</internalNodes>
          <leafValues>
            2.6364693045616150e-01 -1.1832171678543091e-01</leafValues></_>
        <_>
          <internalNodes>
            0 -1 23 -7.0692133158445358e-03</internalNodes>
          <leafValues>
            -8.7440520524978638e-01 2.9354255646467209e-02</leafValues></_>
        <_>
          <internalNodes>
            0 -1 1116 9.1355927288532257e-03</internalNodes>
          <leafValues>
            2.4462081491947174e-02 -8.3337700366973877e-01</leafValues></_>
        <_>
          <internalNodes>
            0 -1 1226 2.1813724189996719e-02</internalNodes>
          <leafValues>
            -8.8694967329502106e-02 3.7160184979438782e-01</leafValues></_>
        <_>
          <internalNodes>
            0 -1 481 -7.1409583091735840e-02</internalNodes>
          <leafValues>
            -5.2959185838699341e-01 6.5454177558422089e-02</leafValues></_>
        <_>
          <internalNodes>
            0 -1 654 -2.3611288517713547e-02</internalNodes>
          <leafValues>
            -6.3928192853927612e-01 3.4375354647636414e-02</leafValues></_>
        <_>
          <internalNodes>
            0 -1 334 -2.3649232462048531e-03</internalNodes>
          <leafValues>
            2.6993581652641296e-01 -1.1224289238452911e-01</leafValues></_>
        <_>
          <internalNodes>
            0 -1 998 5.9909792616963387e-03</internalNodes>
          <leafValues>
            -6.4720295369625092e-02 4.6320578455924988e-01</leafValues></_>
        <_>
          <internalNodes>
            0 -1 174 4.5190141536295414e-03</internalNodes>
          <leafValues>
            1.0448273271322250e-01 -3.2577148079872131e-01</leafValues></_>
        <_>
          <internalNodes>
            0 -1 81 -7.9794013872742653e-03</internalNodes>
          <leafValues>
            -5.1259112358093262e-01 5.8616098016500473e-02</leafValues></_>
        <_>
          <internalNodes>
            0 -1 1305 5.8551710098981857e-03</internalNodes>
          <leafValues>
            -9.1611452400684357e-02 3.2400125265121460e-01</leafValues></_>
        <_>
          <internalNodes>
            0 -1 1087 1.0065141320228577e-01</internalNodes>
          <leafValues>
            3.3554926514625549e-02 -8.5525107383728027e-01</leafValues></_>
        <_>
          <internalNodes>
            0 -1 842 -6.1427347362041473e-02</internalNodes>
          <leafValues>
            5.0103551149368286e-01 -7.2693072259426117e-02</leafValues></_>
        <_>
          <internalNodes>
            0 -1 262 1.3090260326862335e-02</internalNodes>
          <leafValues>
            7.1821302175521851e-02 -4.4125047326087952e-01</leafValues></_>
        <_>
          <internalNodes>
            0 -1 1197 -1.0796863585710526e-02</internalNodes>
          <leafValues>
            4.3361732363700867e-01 -6.8129546940326691e-02</leafValues></_>
        <_>
          <internalNodes>
            0 -1 1359 -1.2087926006643102e-04</internalNodes>
          <leafValues>
            -2.1783609688282013e-01 1.4242221415042877e-01</leafValues></_>
        <_>
          <internalNodes>
            0 -1 529 -1.9834567792713642e-03</internalNodes>
          <leafValues>
            2.9410985112190247e-01 -1.0464273393154144e-01</leafValues></_>
        <_>
          <internalNodes>
            0 -1 1206 9.8921936005353928e-03</internalNodes>
          <leafValues>
            5.5608443915843964e-02 -5.3833490610122681e-01</leafValues></_>
        <_>
          <internalNodes>
            0 -1 958 3.4998778253793716e-02</internalNodes>
          <leafValues>
            -5.6918621063232422e-02 5.8263558149337769e-01</leafValues></_>
        <_>
          <internalNodes>
            0 -1 1379 -3.9094509556889534e-03</internalNodes>
          <leafValues>
            -8.3728122711181641e-01 4.2784087359905243e-02</leafValues></_>
        <_>
          <internalNodes>
            0 -1 1504 5.7425141334533691e-02</internalNodes>
          <leafValues>
            -4.0269270539283752e-02 8.9578735828399658e-01</leafValues></_>
        <_>
          <internalNodes>
            0 -1 729 3.2986565493047237e-03</internalNodes>
          <leafValues>
            1.0680028796195984e-01 -2.7860176563262939e-01</leafValues></_></weakClassifiers></_>
    <!-- stage 2 -->
    <_>
      <maxWeakCount>100</maxWeakCount>
      <stageThreshold>-2.1444127559661865e+00</stageThreshold>
      <weakClassifiers>
        <_>
          <internalNodes>
            0 -1 1319 -5.2576620131731033e-02</internalNodes>
          <leafValues>
            -1.0769230872392654e-01 -5.6633120775222778e-01</leafValues></_>
        <_>
          <internalNodes>
            0 -1 1239 -2.7995374053716660e-02</internalNodes>
          <leafValues>
            3.1324863433837891e-01 -1.9533307850360870e-01</leafValues></_>
        <_>
          <internalNodes>
            0 -1 1181 -2.2445240989327431e-02</internalNodes>
          <leafValues>
            2.2529032826423645e-01 -2.0441493391990662e-01</leafValues></_>
        <_>
          <internalNodes>
            0 -1 1619 1.0171253234148026e-03</internalNodes>
          <leafValues>
            -1.9374044239521027e-01 2.1175870299339294e-01</leafValues></_>
        <_>
          <internalNodes>
            0 -1 777 3.9107892662286758e-02</internalNodes>
          <leafValues>
            -1.2136110663414001e-01 3.4940782189369202e-01</leafValues></_>
        <_>
          <internalNodes>
            0 -1 1100 1.3958056224510074e-03</internalNodes>
          <leafValues>
            -1.1583007127046585e-01 3.3274286985397339e-01</leafValues></_>
        <_>
          <internalNodes>
            0 -1 378 -3.4551769495010376e-03</internalNodes>
          <leafValues>
            2.3609794676303864e-01 -1.8254408240318298e-01</leafValues></_>
        <_>
          <internalNodes>
            0 -1 1584 -1.2354314327239990e-02</internalNodes>
          <leafValues>
            3.4441605210304260e-01 -5.1403854042291641e-02</leafValues></_>
        <_>
          <internalNodes>
            0 -1 1453 2.3991279304027557e-02</internalNodes>
          <leafValues>
            -7.6737888157367706e-02 3.9882886409759521e-01</leafValues></_>
        <_>
          <internalNodes>
            0 -1 235 -7.0147052407264709e-02</internalNodes>
          <leafValues>
            3.6012107133865356e-01 -8.8898703455924988e-02</leafValues></_>
        <_>
          <internalNodes>
            0 -1 562 5.0544068217277527e-03</internalNodes>
          <leafValues>
            -8.0255590379238129e-02 3.7288236618041992e-01</leafValues></_>
        <_>
          <internalNodes>
            0 -1 1372 2.2719250409863889e-04</internalNodes>
          <leafValues>
            1.4471171796321869e-01 -1.9102115929126740e-01</leafValues></_>
        <_>
          <internalNodes>
            0 -1 1535 -4.4880965724587440e-03</internalNodes>
          <leafValues>
            2.3867115378379822e-01 -1.1610114574432373e-01</leafValues></_>
        <_>
          <internalNodes>
            0 -1 536 2.3647580295801163e-02</internalNodes>
          <leafValues>
            7.5669534504413605e-02 -4.4590133428573608e-01</leafValues></_>
        <_>
          <internalNodes>
            0 -1 411 1.8153487471863627e-03</internalNodes>
          <leafValues>
            -1.2465860694646835e-01 2.3924976587295532e-01</leafValues></_>
        <_>
          <internalNodes>
            0 -1 1170 -2.0402806694619358e-04</internalNodes>
          <leafValues>
            -1.8554383516311646e-01 1.4630858600139618e-01</leafValues></_>
        <_>
          <internalNodes>
            0 -1 1387 -2.0940370857715607e-02</internalNodes>
          <leafValues>
            5.2008676528930664e-01 -5.7178825139999390e-02</leafValues></_>
        <_>
          <internalNodes>
            0 -1 776 -8.1070996820926666e-03</internalNodes>
          <leafValues>
            -3.8641193509101868e-01 8.2599982619285583e-02</leafValues></_>
        <_>
          <internalNodes>
            0 -1 323 -2.9859106987714767e-02</internalNodes>
          <leafValues>
            4.5898702740669250e-01 -7.3305174708366394e-02</leafValues></_>
        <_>
          <internalNodes>
            0 -1 1260 7.4062690138816833e-02</internalNodes>
          <leafValues>
            6.5269291400909424e-02 -5.2958601713180542e-01</leafValues></_>
        <_>
          <internalNodes>
            0 -1 152 -7.5499145314097404e-03</internalNodes>
          <leafValues>
            3.1921839714050293e-01 -9.9492855370044708e-02</leafValues></_>
        <_>
          <internalNodes>
            0 -1 1430 7.3055474786087871e-05</internalNodes>
          <leafValues>
            1.3479457795619965e-01 -2.2354017198085785e-01</leafValues></_>
        <_>
          <internalNodes>
            0 -1 684 7.0661500096321106e-02</internalNodes>
          <leafValues>
            -1.0984349250793457e-01 4.5767596364021301e-01</leafValues></_>
        <_>
          <internalNodes>
            0 -1 188 -8.1863395869731903e-02</internalNodes>
          <leafValues>
            -7.8891253471374512e-01 7.0728600025177002e-02</leafValues></_>
        <_>
          <internalNodes>
            0 -1 564 2.9472615569829941e-03</internalNodes>
          <leafValues>
            -1.8570384383201599e-01 1.8854823708534241e-01</leafValues></_>
        <_>
          <internalNodes>
            0 -1 1815 5.3340038284659386e-03</internalNodes>
          <leafValues>
            -4.8159983009099960e-02 4.2502951622009277e-01</leafValues></_>
        <_>
          <internalNodes>
            0 -1 1024 8.2338671199977398e-04</internalNodes>
          <leafValues>
            1.4035351574420929e-01 -2.2059284150600433e-01</leafValues></_>
        <_>
          <internalNodes>
            0 -1 946 6.4311777241528034e-03</internalNodes>
          <leafValues>
            -1.6804702579975128e-01 2.2717283666133881e-01</leafValues></_>
        <_>
          <internalNodes>
            0 -1 1141 -5.2851364016532898e-02</internalNodes>
          <leafValues>
            -8.7108564376831055e-01 6.3220180571079254e-02</leafValues></_>
        <_>
          <internalNodes>
            0 -1 1416 2.6275345589965582e-04</internalNodes>
          <leafValues>
            1.4606513082981110e-01 -1.9667260348796844e-01</leafValues></_>
        <_>
          <internalNodes>
            0 -1 1005 -6.8522328510880470e-03</internalNodes>
          <leafValues>
            2.6109319925308228e-01 -1.4080478250980377e-01</leafValues></_>
        <_>
          <internalNodes>
            0 -1 1195 2.6013129390776157e-03</internalNodes>
          <leafValues>
            -1.5407034754753113e-01 2.3459701240062714e-01</leafValues></_>
        <_>
          <internalNodes>
            0 -1 1363 4.8509864136576653e-03</internalNodes>
          <leafValues>
            1.7152665555477142e-01 -2.0035848021507263e-01</leafValues></_>
        <_>
          <internalNodes>
            0 -1 1608 -1.5501185320317745e-02</internalNodes>
          <leafValues>
            3.1307095289230347e-01 -1.2962467968463898e-01</leafValues></_>
        <_>
          <internalNodes>
            0 -1 1562 3.9127655327320099e-02</internalNodes>
          <leafValues>
            -6.0335148125886917e-02 5.4319417476654053e-01</leafValues></_>
        <_>
          <internalNodes>
            0 -1 908 7.9944394528865814e-03</internalNodes>
          <leafValues>
            7.9907521605491638e-02 -6.1811476945877075e-01</leafValues></_>
        <_>
          <internalNodes>
            0 -1 1738 -1.5517298132181168e-02</internalNodes>
          <leafValues>
            4.8395770788192749e-01 -9.8453171551227570e-02</leafValues></_>
        <_>
          <internalNodes>
            0 -1 1545 -1.2792216613888741e-02</internalNodes>
          <leafValues>
            -4.7768852114677429e-01 1.0117855668067932e-01</leafValues></_>
        <_>
          <internalNodes>
            0 -1 1030 1.1264133267104626e-02</internalNodes>
          <leafValues>
            -1.3437664508819580e-01 2.6321926712989807e-01</leafValues></_>
        <_>
          <internalNodes>
            0 -1 1634 -1.1987814679741859e-02</internalNodes>
          <leafValues>
            -6.8105918169021606e-01 7.2649337351322174e-02</leafValues></_>
        <_>
          <internalNodes>
            0 -1 1312 3.8278149440884590e-03</internalNodes>
          <leafValues>
            -1.5041816234588623e-01 2.2529625892639160e-01</leafValues></_>
        <_>
          <internalNodes>
            0 -1 340 4.7373831272125244e-02</internalNodes>
          <leafValues>
            1.6569721698760986e-01 -2.0491297543048859e-01</leafValues></_>
        <_>
          <internalNodes>
            0 -1 954 4.3035252019762993e-03</internalNodes>
          <leafValues>
            -1.3379491865634918e-01 2.8794673085212708e-01</leafValues></_>
        <_>
          <internalNodes>
            0 -1 1819 -2.1674805320799351e-03</internalNodes>
          <leafValues>
            -4.0988123416900635e-01 1.0224432498216629e-01</leafValues></_>
        <_>
          <internalNodes>
            0 -1 682 3.3510074019432068e-02</internalNodes>
          <leafValues>
            -1.2280674278736115e-01 3.1073901057243347e-01</leafValues></_>
        <_>
          <internalNodes>
            0 -1 1330 -5.2238810807466507e-02</internalNodes>
          <leafValues>
            -5.5593127012252808e-01 6.0756169259548187e-02</leafValues></_>
        <_>
          <internalNodes>
            0 -1 310 -1.8266588449478149e-02</internalNodes>
          <leafValues>
            -8.4096008539199829e-01 2.9866952449083328e-02</leafValues></_>
        <_>
          <internalNodes>
            0 -1 1775 -1.1908860877156258e-02</internalNodes>
          <leafValues>
            4.6609371900558472e-01 -6.5775692462921143e-02</leafValues></_>
        <_>
          <internalNodes>
            0 -1 394 -6.0914590954780579e-02</internalNodes>
          <leafValues>
            -7.6760327816009521e-01 3.9668399840593338e-02</leafValues></_>
        <_>
          <internalNodes>
            0 -1 1035 1.1896048672497272e-02</internalNodes>
          <leafValues>
            -1.4691849052906036e-01 2.0737105607986450e-01</leafValues></_>
        <_>
          <internalNodes>
            0 -1 181 1.1593051254749298e-02</internalNodes>
          <leafValues>
            4.0187910199165344e-02 -6.0508573055267334e-01</leafValues></_>
        <_>
          <internalNodes>
            0 -1 1019 -1.4088673517107964e-02</internalNodes>
          <leafValues>
            -5.8547478914260864e-01 4.3805122375488281e-02</leafValues></_>
        <_>
          <internalNodes>
            0 -1 1690 -2.0243357867002487e-02</internalNodes>
          <leafValues>
            3.4861794114112854e-01 -8.4472812712192535e-02</leafValues></_>
        <_>
          <internalNodes>
            0 -1 1061 -1.7710436135530472e-02</internalNodes>
          <leafValues>
            3.8839870691299438e-01 -8.0399237573146820e-02</leafValues></_>
        <_>
          <internalNodes>
            0 -1 989 -1.0286555625498295e-02</internalNodes>
          <leafValues>
            3.3508980274200439e-01 -8.0262653529644012e-02</leafValues></_>
        <_>
          <internalNodes>
            0 -1 196 3.0581880128011107e-04</internalNodes>
          <leafValues>
            2.0248754322528839e-01 -1.9332978129386902e-01</leafValues></_>
        <_>
          <internalNodes>
            0 -1 1792 3.0996617861092091e-03</internalNodes>
          <leafValues>
            -1.7183621227741241e-01 1.7973554134368896e-01</leafValues></_>
        <_>
          <internalNodes>
            0 -1 465 2.5832909159362316e-05</internalNodes>
          <leafValues>
            2.0905739068984985e-01 -1.8581238389015198e-01</leafValues></_>
        <_>
          <internalNodes>
            0 -1 105 -6.7719206213951111e-02</internalNodes>
          <leafValues>
            6.0579693317413330e-01 -7.8987978398799896e-02</leafValues></_>
        <_>
          <internalNodes>
            0 -1 910 4.2373356409370899e-03</internalNodes>
          <leafValues>
            8.3030998706817627e-02 -3.8904854655265808e-01</leafValues></_>
        <_>
          <internalNodes>
            0 -1 862 1.5812713652849197e-02</internalNodes>
          <leafValues>
            -7.4041336774826050e-02 4.2191055417060852e-01</leafValues></_>
        <_>
          <internalNodes>
            0 -1 1402 -1.1264040134847164e-02</internalNodes>
          <leafValues>
            -5.6781613826751709e-01 4.9732271581888199e-02</leafValues></_>
        <_>
          <internalNodes>
            0 -1 102 -3.9635896682739258e-03</internalNodes>
          <leafValues>
            2.3918798565864563e-01 -1.1907678842544556e-01</leafValues></_>
        <_>
          <internalNodes>
            0 -1 1474 7.2901640087366104e-03</internalNodes>
          <leafValues>
            -1.0727734863758087e-01 2.4076324701309204e-01</leafValues></_>
        <_>
          <internalNodes>
            0 -1 959 -3.3499699085950851e-02</internalNodes>
          <leafValues>
            -5.1588398218154907e-01 5.5785201489925385e-02</leafValues></_>
        <_>
          <internalNodes>
            0 -1 735 1.0419569909572601e-02</internalNodes>
          <leafValues>
            1.2776587903499603e-01 -2.0349222421646118e-01</leafValues></_>
        <_>
          <internalNodes>
            0 -1 335 -8.7674742098897696e-04</internalNodes>
          <leafValues>
            2.2303491830825806e-01 -1.1764005571603775e-01</leafValues></_>
        <_>
          <internalNodes>
            0 -1 1592 -7.8533105552196503e-03</internalNodes>
          <leafValues>
            -5.2601474523544312e-01 4.9045518040657043e-02</leafValues></_>
        <_>
          <internalNodes>
            0 -1 647 -1.1398980394005775e-02</internalNodes>
          <leafValues>
            3.4994798898696899e-01 -8.7766997516155243e-02</leafValues></_>
        <_>
          <internalNodes>
            0 -1 1757 3.5708062350749969e-03</internalNodes>
          <leafValues>
            5.8312535285949707e-02 -4.7979718446731567e-01</leafValues></_>
        <_>
          <internalNodes>
            0 -1 1073 -1.7351834103465080e-02</internalNodes>
          <leafValues>
            5.8963048458099365e-01 -4.7883201390504837e-02</leafValues></_>
        <_>
          <internalNodes>
            0 -1 479 1.3546602427959442e-01</internalNodes>
          <leafValues>
            4.4253386557102203e-02 -6.1801493167877197e-01</leafValues></_>
        <_>
          <internalNodes>
            0 -1 1595 2.3559048771858215e-02</internalNodes>
          <leafValues>
            -6.9407783448696136e-02 3.9663502573966980e-01</leafValues></_>
        <_>
          <internalNodes>
            0 -1 1540 2.6545541913947091e-05</internalNodes>
          <leafValues>
            1.3780115544795990e-01 -2.0603936910629272e-01</leafValues></_>
        <_>
          <internalNodes>
            0 -1 1261 2.1776324138045311e-04</internalNodes>
          <leafValues>
            -1.2658967077732086e-01 1.9943538308143616e-01</leafValues></_>
        <_>
          <internalNodes>
            0 -1 669 -6.8494024162646383e-05</internalNodes>
          <leafValues>
            -1.9684356451034546e-01 1.3118059933185577e-01</leafValues></_>
        <_>
          <internalNodes>
            0 -1 649 -6.0205314308404922e-02</internalNodes>
          <leafValues>
            5.0799727439880371e-01 -5.9719394892454147e-02</leafValues></_>
        <_>
          <internalNodes>
            0 -1 322 1.6071137040853500e-02</internalNodes>
          <leafValues>
            -5.9435192495584488e-02 4.6507918834686279e-01</leafValues></_>
        <_>
          <internalNodes>
            0 -1 391 9.9116511642932892e-02</internalNodes>
          <leafValues>
            -4.6179834753274918e-02 6.1947011947631836e-01</leafValues></_>
        <_>
          <internalNodes>
            0 -1 880 -1.4102576533332467e-03</internalNodes>
          <leafValues>
            -2.0370347797870636e-01 1.4115527272224426e-01</leafValues></_>
        <_>
          <internalNodes>
            0 -1 1059 1.0620201006531715e-02</internalNodes>
          <leafValues>
            -6.6925995051860809e-02 3.8082560896873474e-01</leafValues></_>
        <_>
          <internalNodes>
            0 -1 1793 -6.4364314312115312e-04</internalNodes>
          <leafValues>
            -2.0679785311222076e-01 1.4759029448032379e-01</leafValues></_>
        <_>
          <internalNodes>
            0 -1 84 -4.2467489838600159e-02</internalNodes>
          <leafValues>
            3.5627874732017517e-01 -8.7733663618564606e-02</leafValues></_>
        <_>
          <internalNodes>
            0 -1 533 -5.8355137705802917e-02</internalNodes>
          <leafValues>
            4.5411348342895508e-01 -5.8474890887737274e-02</leafValues></_>
        <_>
          <internalNodes>
            0 -1 769 1.8687061965465546e-03</internalNodes>
          <leafValues>
            1.5531574189662933e-01 -1.8727575242519379e-01</leafValues></_>
        <_>
          <internalNodes>
            0 -1 766 3.5154195502400398e-03</internalNodes>
          <leafValues>
            5.2245557308197021e-02 -5.0730174779891968e-01</leafValues></_>
        <_>
          <internalNodes>
            0 -1 1293 8.7687058839946985e-04</internalNodes>
          <leafValues>
            -1.3462314009666443e-01 2.2821225225925446e-01</leafValues></_>
        <_>
          <internalNodes>
            0 -1 1582 -2.2425303235650063e-02</internalNodes>
          <leafValues>
            -6.3675814867019653e-01 4.0586106479167938e-02</leafValues></_>
        <_>
          <internalNodes>
            0 -1 214 -1.7141353338956833e-02</internalNodes>
          <leafValues>
            -6.4897143840789795e-01 3.8430973887443542e-02</leafValues></_>
        <_>
          <internalNodes>
            0 -1 70 2.8371908701956272e-03</internalNodes>
          <leafValues>
            -1.0804922133684158e-01 2.5076115131378174e-01</leafValues></_>
        <_>
          <internalNodes>
            0 -1 154 -1.1895918287336826e-03</internalNodes>
          <leafValues>
            -2.0678356289863586e-01 1.3331852853298187e-01</leafValues></_>
        <_>
          <internalNodes>
            0 -1 525 1.7544670263305306e-03</internalNodes>
          <leafValues>
            -8.4377758204936981e-02 3.1162279844284058e-01</leafValues></_>
        <_>
          <internalNodes>
            0 -1 1778 1.5220756176859140e-04</internalNodes>
          <leafValues>
            1.3118854165077209e-01 -2.1583332121372223e-01</leafValues></_>
        <_>
          <internalNodes>
            0 -1 1646 -1.6199097037315369e-02</internalNodes>
          <leafValues>
            4.6128091216087341e-01 -6.2168553471565247e-02</leafValues></_>
        <_>
          <internalNodes>
            0 -1 1747 4.0965201333165169e-03</internalNodes>
          <leafValues>
            4.4539257884025574e-02 -6.6219723224639893e-01</leafValues></_>
        <_>
          <internalNodes>
            0 -1 1307 -1.4002492651343346e-02</internalNodes>
          <leafValues>
            4.2404836416244507e-01 -7.1965746581554413e-02</leafValues></_>
        <_>
          <internalNodes>
            0 -1 737 1.3173967599868774e-01</internalNodes>
          <leafValues>
            4.9759890884160995e-02 -6.1964607238769531e-01</leafValues></_>
        <_>
          <internalNodes>
            0 -1 3 -1.2346524745225906e-03</internalNodes>
          <leafValues>
            2.5191459059715271e-01 -1.3036477565765381e-01</leafValues></_>
        <_>
          <internalNodes>
            0 -1 1389 -1.4844779798295349e-04</internalNodes>
          <leafValues>
            -1.9416043162345886e-01 1.6050742566585541e-01</leafValues></_>
        <_>
          <internalNodes>
            0 -1 1072 4.9450355581939220e-03</internalNodes>
          <leafValues>
            4.7668781131505966e-02 -5.8158057928085327e-01</leafValues></_></weakClassifiers></_>
    <!-- stage 3 -->
    <_>
      <maxWeakCount>100</maxWeakCount>
      <stageThreshold>-2.5291481018066406e+00</stageThreshold>
      <weakClassifiers>
        <_>
          <internalNodes>
            0 -1 288 -7.8811729326844215e-04</internalNodes>
          <leafValues>
            -2.4920128285884857e-01 -6.7537826299667358e-01</leafValues></_>
        <_>
          <internalNodes>
            0 -1 367 -1.1991512030363083e-02</internalNodes>
          <leafValues>
            1.8900386989116669e-01 -2.9348903894424438e-01</leafValues></_>
        <_>
          <internalNodes>
            0 -1 1383 -2.9844507575035095e-02</internalNodes>
          <leafValues>
            3.6942678689956665e-01 -1.2914805114269257e-01</leafValues></_>
        <_>
          <internalNodes>
            0 -1 1278 -1.8294604495167732e-02</internalNodes>
          <leafValues>
            2.3806542158126831e-01 -1.9275395572185516e-01</leafValues></_>
        <_>
          <internalNodes>
            0 -1 802 -2.1140957251191139e-03</internalNodes>
          <leafValues>
            2.4616213142871857e-01 -1.6717042028903961e-01</leafValues></_>
        <_>
          <internalNodes>
            0 -1 337 9.7344852983951569e-03</internalNodes>
          <leafValues>
            -1.3783426582813263e-01 2.8480049967765808e-01</leafValues></_>
        <_>
          <internalNodes>
            0 -1 1536 3.2415983732789755e-03</internalNodes>
          <leafValues>
            -9.7550712525844574e-02 3.9184325933456421e-01</leafValues></_>
        <_>
          <internalNodes>
            0 -1 1147 -1.6214396804571152e-02</internalNodes>
          <leafValues>
            4.1436856985092163e-01 -8.7618254125118256e-02</leafValues></_>
        <_>
          <internalNodes>
            0 -1 365 3.7781074643135071e-02</internalNodes>
          <leafValues>
            -2.3439649492502213e-02 4.5977523922920227e-01</leafValues></_>
        <_>
          <internalNodes>
            0 -1 1222 4.7761453315615654e-03</internalNodes>
          <leafValues>
            5.9423919767141342e-02 -5.6427991390228271e-01</leafValues></_>
        <_>
          <internalNodes>
            0 -1 1243 -1.3194579631090164e-02</internalNodes>
          <leafValues>
            2.9949948191642761e-01 -1.4986787736415863e-01</leafValues></_>
        <_>
          <internalNodes>
            0 -1 167 -2.5624125264585018e-03</internalNodes>
          <leafValues>
            -4.3544372916221619e-01 1.0943441838026047e-01</leafValues></_>
        <_>
          <internalNodes>
            0 -1 606 1.3518249616026878e-02</internalNodes>
          <leafValues>
            -1.6145394742488861e-01 3.0236986279487610e-01</leafValues></_>
        <_>
          <internalNodes>
            0 -1 545 -2.5858908891677856e-02</internalNodes>
          <leafValues>
            4.6731731295585632e-01 -2.1592147648334503e-02</leafValues></_>
        <_>
          <internalNodes>
            0 -1 487 -4.6629048883914948e-03</internalNodes>
          <leafValues>
            -2.3350456357002258e-01 1.3592799007892609e-01</leafValues></_>
        <_>
          <internalNodes>
            0 -1 1308 3.4764298470690846e-04</internalNodes>
          <leafValues>
            -1.9841149449348450e-01 1.8047921359539032e-01</leafValues></_>
        <_>
          <internalNodes>
            0 -1 1388 6.9542247802019119e-03</internalNodes>
          <leafValues>
            9.2106066644191742e-02 -6.0733884572982788e-01</leafValues></_>
        <_>
          <internalNodes>
            0 -1 1766 -8.4501244127750397e-03</internalNodes>
          <leafValues>
            3.5926166176795959e-01 -8.7485797703266144e-02</leafValues></_>
        <_>
          <internalNodes>
            0 -1 1736 7.6336865313351154e-03</internalNodes>
          <leafValues>
            6.7882686853408813e-02 -4.6859833598136902e-01</leafValues></_>
        <_>
          <internalNodes>
            0 -1 1066 1.3076639152131975e-04</internalNodes>
          <leafValues>
            1.5347264707088470e-01 -1.9172351062297821e-01</leafValues></_>
        <_>
          <internalNodes>
            0 -1 1552 -2.8729871846735477e-03</internalNodes>
          <leafValues>
            1.9437223672866821e-01 -2.0501753687858582e-01</leafValues></_>
        <_>
          <internalNodes>
            0 -1 1068 -9.3614496290683746e-03</internalNodes>
          <leafValues>
            -6.3885897397994995e-01 9.2345923185348511e-02</leafValues></_>
        <_>
          <internalNodes>
            0 -1 233 2.2688109427690506e-02</internalNodes>
          <leafValues>
            -1.8143038451671600e-01 2.5386771559715271e-01</leafValues></_>
        <_>
          <internalNodes>
            0 -1 466 5.1715098379645497e-05</internalNodes>
          <leafValues>
            2.2882705926895142e-01 -1.4745730161666870e-01</leafValues></_>
        <_>
          <internalNodes>
            0 -1 1146 -2.2440475877374411e-03</internalNodes>
          <leafValues>
            2.3136372864246368e-01 -1.7983749508857727e-01</leafValues></_>
        <_>
          <internalNodes>
            0 -1 348 -2.7733319438993931e-03</internalNodes>
          <leafValues>
            2.6148378849029541e-01 -1.3565854728221893e-01</leafValues></_>
        <_>
          <internalNodes>
            0 -1 1255 -1.1346996761858463e-02</internalNodes>
          <leafValues>
            -6.5939795970916748e-01 8.9272893965244293e-02</leafValues></_>
        <_>
          <internalNodes>
            0 -1 357 2.4370990693569183e-02</internalNodes>
          <leafValues>
            4.5944161713123322e-02 -5.8706545829772949e-01</leafValues></_>
        <_>
          <internalNodes>
            0 -1 1060 6.1914124526083469e-03</internalNodes>
          <leafValues>
            -1.8727564811706543e-01 1.9670808315277100e-01</leafValues></_>
        <_>
          <internalNodes>
            0 -1 937 2.3298394808080047e-04</internalNodes>
          <leafValues>
            2.1279484033584595e-01 -1.4556375145912170e-01</leafValues></_>
        <_>
          <internalNodes>
            0 -1 1108 -3.3339937217533588e-03</internalNodes>
          <leafValues>
            1.6945259273052216e-01 -2.0717112720012665e-01</leafValues></_>
        <_>
          <internalNodes>
            0 -1 141 -4.2934541124850512e-04</internalNodes>
          <leafValues>
            -1.6900055110454559e-01 2.2474035620689392e-01</leafValues></_>
        <_>
          <internalNodes>
            0 -1 412 1.1535720899701118e-02</internalNodes>
          <leafValues>
            -1.0536765307188034e-01 6.2326103448867798e-01</leafValues></_>
        <_>
          <internalNodes>
            0 -1 1213 9.9745560437440872e-03</internalNodes>
          <leafValues>
            -1.2936101853847504e-01 2.7741515636444092e-01</leafValues></_>
        <_>
          <internalNodes>
            0 -1 970 3.2262853346765041e-03</internalNodes>
          <leafValues>
            1.7203617095947266e-01 -2.0970253646373749e-01</leafValues></_>
        <_>
          <internalNodes>
            0 -1 377 1.2122580781579018e-02</internalNodes>
          <leafValues>
            -1.7503654956817627e-01 2.9013088345527649e-01</leafValues></_>
        <_>
          <internalNodes>
            0 -1 1140 1.4616668224334717e-02</internalNodes>
          <leafValues>
            1.4457044005393982e-01 -2.9840272665023804e-01</leafValues></_>
        <_>
          <internalNodes>
            0 -1 798 -2.8979247435927391e-02</internalNodes>
          <leafValues>
            3.8425168395042419e-01 -1.2681145966053009e-01</leafValues></_>
        <_>
          <internalNodes>
            0 -1 52 4.4790141284465790e-02</internalNodes>
          <leafValues>
            -1.1844974756240845e-01 2.5411346554756165e-01</leafValues></_>
        <_>
          <internalNodes>
            0 -1 1427 -2.1932358504272997e-04</internalNodes>
          <leafValues>
            -1.4837698638439178e-01 2.3331265151500702e-01</leafValues></_>
        <_>
          <internalNodes>
            0 -1 1197 1.0187344625592232e-02</internalNodes>
          <leafValues>
            -1.2549903988838196e-01 3.6239263415336609e-01</leafValues></_>
        <_>
          <internalNodes>
            0 -1 249 -1.7752347514033318e-02</internalNodes>
          <leafValues>
            2.8716051578521729e-01 -1.1103304475545883e-01</leafValues></_>
        <_>
          <internalNodes>
            0 -1 730 1.4752868562936783e-02</internalNodes>
          <leafValues>
            1.0594935715198517e-01 -5.1083278656005859e-01</leafValues></_>
        <_>
          <internalNodes>
            0 -1 854 4.6530216932296753e-03</internalNodes>
          <leafValues>
            -1.6396817564964294e-01 2.3347307741641998e-01</leafValues></_>
        <_>
          <internalNodes>
            0 -1 658 1.4551159983966500e-04</internalNodes>
          <leafValues>
            2.1734435856342316e-01 -1.5062549710273743e-01</leafValues></_>
        <_>
          <internalNodes>
            0 -1 513 -1.8365124706178904e-03</internalNodes>
          <leafValues>
            1.8903475999832153e-01 -1.7349343001842499e-01</leafValues></_>
        <_>
          <internalNodes>
            0 -1 139 -3.1914051622152328e-02</internalNodes>
          <leafValues>
            3.1031173467636108e-01 -9.2669323086738586e-02</leafValues></_>
        <_>
          <internalNodes>
            0 -1 291 -2.0713364938274026e-04</internalNodes>
          <leafValues>
            -1.7374841868877411e-01 2.1391239762306213e-01</leafValues></_>
        <_>
          <internalNodes>
            0 -1 860 -1.7394365277141333e-03</internalNodes>
          <leafValues>
            2.3683770000934601e-01 -1.6574224829673767e-01</leafValues></_>
        <_>
          <internalNodes>
            0 -1 1704 3.3826820552349091e-02</internalNodes>
          <leafValues>
            -6.4894981682300568e-02 4.7774931788444519e-01</leafValues></_>
        <_>
          <internalNodes>
            0 -1 212 -2.5516871362924576e-02</internalNodes>
          <leafValues>
            -7.1030664443969727e-01 4.7241371124982834e-02</leafValues></_>
        <_>
          <internalNodes>
            0 -1 1160 6.1530033126473427e-03</internalNodes>
          <leafValues>
            3.4390591084957123e-02 -7.2881937026977539e-01</leafValues></_>
        <_>
          <internalNodes>
            0 -1 258 -6.7754462361335754e-02</internalNodes>
          <leafValues>
            3.9186751842498779e-01 -7.7778071165084839e-02</leafValues></_>
        <_>
          <internalNodes>
            0 -1 380 2.9065527021884918e-02</internalNodes>
          <leafValues>
            -1.3220766186714172e-01 2.2140823304653168e-01</leafValues></_>
        <_>
          <internalNodes>
            0 -1 657 8.9140131603926420e-04</internalNodes>
          <leafValues>
            2.0947174727916718e-01 -1.8330873548984528e-01</leafValues></_>
        <_>
          <internalNodes>
            0 -1 1569 -5.3685687482357025e-02</internalNodes>
          <leafValues>
            2.8774428367614746e-01 -1.3744838535785675e-01</leafValues></_>
        <_>
          <internalNodes>
            0 -1 485 -1.9029110670089722e-02</internalNodes>
          <leafValues>
            -7.3604846000671387e-01 3.3453170210123062e-02</leafValues></_>
        <_>
          <internalNodes>
            0 -1 60 1.2425636872649193e-02</internalNodes>
          <leafValues>
            -7.6666250824928284e-02 3.5236614942550659e-01</leafValues></_>
        <_>
          <internalNodes>
            0 -1 1227 -1.5777003020048141e-02</internalNodes>
          <leafValues>
            -5.4602581262588501e-01 4.9062822014093399e-02</leafValues></_>
        <_>
          <internalNodes>
            0 -1 812 -5.3523894399404526e-02</internalNodes>
          <leafValues>
            4.0675839781761169e-01 -8.1249810755252838e-02</leafValues></_>
        <_>
          <internalNodes>
            0 -1 1633 -1.7270304262638092e-02</internalNodes>
          <leafValues>
            -4.0856343507766724e-01 8.4275335073471069e-02</leafValues></_>
        <_>
          <internalNodes>
            0 -1 293 -4.3308825115673244e-04</internalNodes>
          <leafValues>
            -1.9048823416233063e-01 1.3361287117004395e-01</leafValues></_>
        <_>
          <internalNodes>
            0 -1 352 -3.6384197883307934e-03</internalNodes>
          <leafValues>
            3.0586600303649902e-01 -8.9910827577114105e-02</leafValues></_>
        <_>
          <internalNodes>
            0 -1 159 1.3083739206194878e-02</internalNodes>
          <leafValues>
            5.9655550867319107e-02 -4.5429345965385437e-01</leafValues></_>
        <_>
          <internalNodes>
            0 -1 1172 -1.5226412564516068e-02</internalNodes>
          <leafValues>
            3.8214784860610962e-01 -7.4013367295265198e-02</leafValues></_>
        <_>
          <internalNodes>
            0 -1 241 -8.8943112641572952e-03</internalNodes>
          <leafValues>
            -7.9492920637130737e-01 3.3691760152578354e-02</leafValues></_>
        <_>
          <internalNodes>
            0 -1 1295 -8.3890855312347412e-03</internalNodes>
          <leafValues>
            4.5403385162353516e-01 -6.5985493361949921e-02</leafValues></_>
        <_>
          <internalNodes>
            0 -1 952 -1.6194652765989304e-02</internalNodes>
          <leafValues>
            -5.4374659061431885e-01 4.8463251441717148e-02</leafValues></_>
        <_>
          <internalNodes>
            0 -1 279 3.0125819146633148e-02</internalNodes>
          <leafValues>
            -3.0800696462392807e-02 8.8637322187423706e-01</leafValues></_>
        <_>
          <internalNodes>
            0 -1 1152 1.9567232811823487e-05</internalNodes>
          <leafValues>
            1.4644622802734375e-01 -1.8699699640274048e-01</leafValues></_>
        <_>
          <internalNodes>
            0 -1 1064 -7.5048184953629971e-03</internalNodes>
          <leafValues>
            4.2898812890052795e-01 -7.0438645780086517e-02</leafValues></_>
        <_>
          <internalNodes>
            0 -1 415 4.8378609120845795e-02</internalNodes>
          <leafValues>
            -4.1326116770505905e-02 6.9578307867050171e-01</leafValues></_>
        <_>
          <internalNodes>
            0 -1 775 -4.5207068324089050e-03</internalNodes>
          <leafValues>
            -6.3935601711273193e-01 5.1468461751937866e-02</leafValues></_>
        <_>
          <internalNodes>
            0 -1 746 -3.4604999236762524e-03</internalNodes>
          <leafValues>
            2.4332325160503387e-01 -1.0744652897119522e-01</leafValues></_>
        <_>
          <internalNodes>
            0 -1 652 1.2737028300762177e-02</internalNodes>
          <leafValues>
            -8.0711536109447479e-02 3.8588985800743103e-01</leafValues></_>
        <_>
          <internalNodes>
            0 -1 1228 9.6080941148102283e-04</internalNodes>
          <leafValues>
            1.3274000585079193e-01 -2.0207673311233521e-01</leafValues></_>
        <_>
          <internalNodes>
            0 -1 553 -2.6540271937847137e-03</internalNodes>
          <leafValues>
            -1.9783242046833038e-01 1.3338017463684082e-01</leafValues></_>
        <_>
          <internalNodes>
            0 -1 522 -5.9481292963027954e-02</internalNodes>
          <leafValues>
            5.9936964511871338e-01 -4.5411258935928345e-02</leafValues></_>
        <_>
          <internalNodes>
            0 -1 1636 -5.1645091734826565e-03</internalNodes>
          <leafValues>
            2.9558527469635010e-01 -8.9383557438850403e-02</leafValues></_>
        <_>
          <internalNodes>
            0 -1 1706 -8.6752381175756454e-03</internalNodes>
          <leafValues>
            4.4555890560150146e-01 -6.9675892591476440e-02</leafValues></_>
        <_>
          <internalNodes>
            0 -1 54 -1.5647759661078453e-02</internalNodes>
          <leafValues>
            3.8474875688552856e-01 -6.9810613989830017e-02</leafValues></_>
        <_>
          <internalNodes>
            0 -1 1715 -1.4852434396743774e-03</internalNodes>
          <leafValues>
            -2.9233080148696899e-01 1.0614591836929321e-01</leafValues></_>
        <_>
          <internalNodes>
            0 -1 456 5.5654667317867279e-02</internalNodes>
          <leafValues>
            3.8425337523221970e-02 -7.8926163911819458e-01</leafValues></_>
        <_>
          <internalNodes>
            0 -1 1351 -7.3681466281414032e-02</internalNodes>
          <leafValues>
            3.3825975656509399e-01 -8.3133727312088013e-02</leafValues></_>
        <_>
          <internalNodes>
            0 -1 543 -2.3479345254600048e-03</internalNodes>
          <leafValues>
            -2.1338976919651031e-01 1.3157853484153748e-01</leafValues></_>
        <_>
          <internalNodes>
            0 -1 1462 7.0235626772046089e-03</internalNodes>
          <leafValues>
            -6.2392063438892365e-02 3.8543555140495300e-01</leafValues></_>
        <_>
          <internalNodes>
            0 -1 1168 -4.0969647670863196e-05</internalNodes>
          <leafValues>
            -1.9819934666156769e-01 1.2538535892963409e-01</leafValues></_>
        <_>
          <internalNodes>
            0 -1 877 1.0918457061052322e-02</internalNodes>
          <leafValues>
            -1.0902640968561172e-01 2.9253298044204712e-01</leafValues></_>
        <_>
          <internalNodes>
            0 -1 739 1.5062955021858215e-01</internalNodes>
          <leafValues>
            2.8660185635089874e-02 -9.5045131444931030e-01</leafValues></_>
        <_>
          <internalNodes>
            0 -1 36 1.7813920974731445e-02</internalNodes>
          <leafValues>
            3.2705016434192657e-02 -6.0398864746093750e-01</leafValues></_>
        <_>
          <internalNodes>
            0 -1 925 -9.9342809990048409e-03</internalNodes>
          <leafValues>
            3.3590069413185120e-01 -7.9661034047603607e-02</leafValues></_>
        <_>
          <internalNodes>
            0 -1 399 -4.6852726489305496e-02</internalNodes>
          <leafValues>
            -6.8240618705749512e-01 3.1730692833662033e-02</leafValues></_>
        <_>
          <internalNodes>
            0 -1 818 -2.8294749557971954e-02</internalNodes>
          <leafValues>
            6.1373245716094971e-01 -4.4865902513265610e-02</leafValues></_>
        <_>
          <internalNodes>
            0 -1 251 -1.6170380637049675e-02</internalNodes>
          <leafValues>
            -5.5992347002029419e-01 4.7049261629581451e-02</leafValues></_>
        <_>
          <internalNodes>
            0 -1 761 8.5737183690071106e-03</internalNodes>
          <leafValues>
            -5.4334055632352829e-02 4.2752957344055176e-01</leafValues></_>
        <_>
          <internalNodes>
            0 -1 268 1.4000272378325462e-02</internalNodes>
          <leafValues>
            4.2898379266262054e-02 -5.8340179920196533e-01</leafValues></_>
        <_>
          <internalNodes>
            0 -1 73 3.1564962118864059e-02</internalNodes>
          <leafValues>
            -7.8184664249420166e-02 4.1887772083282471e-01</leafValues></_>
        <_>
          <internalNodes>
            0 -1 263 -8.2489792257547379e-03</internalNodes>
          <leafValues>
            -5.6320530176162720e-01 4.2274393141269684e-02</leafValues></_>
        <_>
          <internalNodes>
            0 -1 253 4.2425647377967834e-02</internalNodes>
          <leafValues>
            -6.0329094529151917e-02 4.7725239396095276e-01</leafValues></_>
        <_>
          <internalNodes>
            0 -1 303 1.5772685408592224e-02</internalNodes>
          <leafValues>
            3.1449954956769943e-02 -8.0035364627838135e-01</leafValues></_></weakClassifiers></_>
    <!-- stage 4 -->
    <_>
      <maxWeakCount>100</maxWeakCount>
      <stageThreshold>-2.6135220527648926e+00</stageThreshold>
      <weakClassifiers>
        <_>
          <internalNodes>
            0 -1 644 1.8897128757089376e-03</internalNodes>
          <leafValues>
            -6.0788381099700928e-01 -1.5681234002113342e-01</leafValues></_>
        <_>
          <internalNodes>
            0 -1 350 -4.0663719119038433e-05</internalNodes>
          <leafValues>
            1.1939334869384766e-01 -4.1793385148048401e-01</leafValues></_>
        <_>
          <internalNodes>
            0 -1 850 9.6973497420549393e-03</internalNodes>
          <leafValues>
            -1.4401286840438843e-01 3.6699563264846802e-01</leafValues></_>
        <_>
          <internalNodes>
            0 -1 12 1.3108510524034500e-02</internalNodes>
          <leafValues>
            -2.0133042335510254e-01 2.4831596016883850e-01</leafValues></_>
        <_>
          <internalNodes>
            0 -1 477 -1.4751128852367401e-02</internalNodes>
          <leafValues>
            3.2664090394973755e-01 -1.3054846227169037e-01</leafValues></_>
        <_>
          <internalNodes>
            0 -1 830 -3.9318529888987541e-03</internalNodes>
          <leafValues>
            2.8853118419647217e-01 -1.4443387091159821e-01</leafValues></_>
        <_>
          <internalNodes>
            0 -1 600 3.3515002578496933e-02</internalNodes>
          <leafValues>
            -1.3425950706005096e-01 2.9901328682899475e-01</leafValues></_>
        <_>
          <internalNodes>
            0 -1 177 -6.3609639182686806e-03</internalNodes>
          <leafValues>
            -5.9081608057022095e-01 9.7284637391567230e-02</leafValues></_>
        <_>
          <internalNodes>
            0 -1 1458 1.2581722810864449e-02</internalNodes>
          <leafValues>
            -1.6112722456455231e-01 3.1961259245872498e-01</leafValues></_>
        <_>
          <internalNodes>
            0 -1 1601 6.3275159336626530e-03</internalNodes>
          <leafValues>
            9.6128195524215698e-02 -6.3866132497787476e-01</leafValues></_>
        <_>
          <internalNodes>
            0 -1 41 5.3322212770581245e-03</internalNodes>
          <leafValues>
            -1.7718598246574402e-01 2.3026224970817566e-01</leafValues></_>
        <_>
          <internalNodes>
            0 -1 1628 -2.0291088731028140e-05</internalNodes>
          <leafValues>
            -1.2207585573196411e-01 2.1591484546661377e-01</leafValues></_>
        <_>
          <internalNodes>
            0 -1 921 -3.0303313396871090e-03</internalNodes>
          <leafValues>
            2.0329831540584564e-01 -1.9416286051273346e-01</leafValues></_>
        <_>
          <internalNodes>
            0 -1 994 4.7898869961500168e-02</internalNodes>
          <leafValues>
            -1.4851220883429050e-02 5.0028514862060547e-01</leafValues></_>
        <_>
          <internalNodes>
            0 -1 148 -1.1308468878269196e-02</internalNodes>
          <leafValues>
            -4.6817997097969055e-01 6.2686823308467865e-02</leafValues></_>
        <_>
          <internalNodes>
            0 -1 1784 -9.2784622684121132e-03</internalNodes>
          <leafValues>
            3.8275036215782166e-01 -1.3281728327274323e-01</leafValues></_>
        <_>
          <internalNodes>
            0 -1 1702 5.0140242092311382e-03</internalNodes>
          <leafValues>
            1.0630472749471664e-01 -4.9659365415573120e-01</leafValues></_>
        <_>
          <internalNodes>
            0 -1 1348 -3.1664788722991943e-02</internalNodes>
          <leafValues>
            1.9859948754310608e-01 -2.0147755742073059e-01</leafValues></_>
        <_>
          <internalNodes>
            0 -1 1570 3.1218642368912697e-02</internalNodes>
          <leafValues>
            7.6954737305641174e-02 -8.5039836168289185e-01</leafValues></_>
        <_>
          <internalNodes>
            0 -1 1771 -1.7658687429502606e-03</internalNodes>
          <leafValues>
            2.9901200532913208e-01 -1.0203232616186142e-01</leafValues></_>
        <_>
          <internalNodes>
            0 -1 114 1.2578821182250977e-01</internalNodes>
          <leafValues>
            -3.4688159823417664e-02 6.7014127969741821e-01</leafValues></_>
        <_>
          <internalNodes>
            0 -1 418 1.2311653699725866e-03</internalNodes>
          <leafValues>
            1.5987858176231384e-01 -1.7697492241859436e-01</leafValues></_>
        <_>
          <internalNodes>
            0 -1 1167 1.1290074326097965e-03</internalNodes>
          <leafValues>
            -1.9690603017807007e-01 1.9706016778945923e-01</leafValues></_>
        <_>
          <internalNodes>
            0 -1 873 1.4148456975817680e-03</internalNodes>
          <leafValues>
            1.3760693371295929e-01 -2.5891664624214172e-01</leafValues></_>
        <_>
          <internalNodes>
            0 -1 667 2.4941647425293922e-03</internalNodes>
          <leafValues>
            -1.5067604184150696e-01 2.7381011843681335e-01</leafValues></_>
        <_>
          <internalNodes>
            0 -1 1041 6.6397492773830891e-03</internalNodes>
          <leafValues>
            9.4415836036205292e-02 -5.9927558898925781e-01</leafValues></_>
        <_>
          <internalNodes>
            0 -1 1229 -1.0850654914975166e-02</internalNodes>
          <leafValues>
            -4.6758633852005005e-01 4.6046044677495956e-02</leafValues></_>
        <_>
          <internalNodes>
            0 -1 1216 1.1821985244750977e-02</internalNodes>
          <leafValues>
            -1.6575746238231659e-01 2.5982797145843506e-01</leafValues></_>
        <_>
          <internalNodes>
            0 -1 1331 9.4962995499372482e-03</internalNodes>
          <leafValues>
            1.1339645832777023e-01 -4.1526451706886292e-01</leafValues></_>
        <_>
          <internalNodes>
            0 -1 1412 1.3187855482101440e-02</internalNodes>
          <leafValues>
            -1.3733124732971191e-01 3.2165211439132690e-01</leafValues></_>
        <_>
          <internalNodes>
            0 -1 1210 4.5686224475502968e-03</internalNodes>
          <leafValues>
            8.5704170167446136e-02 -7.1231472492218018e-01</leafValues></_>
        <_>
          <internalNodes>
            0 -1 1128 2.3750755935907364e-03</internalNodes>
          <leafValues>
            -1.9381240010261536e-01 1.9221320748329163e-01</leafValues></_>
        <_>
          <internalNodes>
            0 -1 585 3.5624846816062927e-02</internalNodes>
          <leafValues>
            7.0140093564987183e-02 -1.</leafValues></_>
        <_>
          <internalNodes>
            0 -1 1689 -2.0924668759107590e-02</internalNodes>
          <leafValues>
            8.0781865119934082e-01 -4.6429503709077835e-02</leafValues></_>
        <_>
          <internalNodes>
            0 -1 1709 -3.0484471935778856e-03</internalNodes>
          <leafValues>
            -1.8717396259307861e-01 1.6362591087818146e-01</leafValues></_>
        <_>
          <internalNodes>
            0 -1 318 8.4374528378248215e-03</internalNodes>
          <leafValues>
            -1.4516870677471161e-01 2.9153347015380859e-01</leafValues></_>
        <_>
          <internalNodes>
            0 -1 500 8.9657202363014221e-02</internalNodes>
          <leafValues>
            8.0914177000522614e-02 -8.0176663398742676e-01</leafValues></_>
        <_>
          <internalNodes>
            0 -1 1724 -6.4449212513864040e-03</internalNodes>
          <leafValues>
            2.8331470489501953e-01 -1.4892587065696716e-01</leafValues></_>
        <_>
          <internalNodes>
            0 -1 1276 6.2956623733043671e-03</internalNodes>
          <leafValues>
            1.1166994273662567e-01 -3.9077422022819519e-01</leafValues></_>
        <_>
          <internalNodes>
            0 -1 1360 8.6948287207633257e-04</internalNodes>
          <leafValues>
            -1.6235195100307465e-01 2.2076830267906189e-01</leafValues></_>
        <_>
          <internalNodes>
            0 -1 1053 1.5605065226554871e-01</internalNodes>
          <leafValues>
            7.8589722514152527e-02 -8.9503967761993408e-01</leafValues></_>
        <_>
          <internalNodes>
            0 -1 371 1.3313127681612968e-02</internalNodes>
          <leafValues>
            -1.5415345132350922e-01 2.2053544223308563e-01</leafValues></_>
        <_>
          <internalNodes>
            0 -1 1302 3.7522186175920069e-05</internalNodes>
          <leafValues>
            1.7978067696094513e-01 -1.8156124651432037e-01</leafValues></_>
        <_>
          <internalNodes>
            0 -1 161 -2.0133336074650288e-03</internalNodes>
          <leafValues>
            2.9483896493911743e-01 -1.3549737632274628e-01</leafValues></_>
        <_>
          <internalNodes>
            0 -1 1798 -4.1953064501285553e-03</internalNodes>
          <leafValues>
            -7.7580279111862183e-01 8.4274679422378540e-02</leafValues></_>
        <_>
          <internalNodes>
            0 -1 319 3.0084367841482162e-02</internalNodes>
          <leafValues>
            -1.0770056396722794e-01 5.0269919633865356e-01</leafValues></_>
        <_>
          <internalNodes>
            0 -1 1123 -2.3940906976349652e-04</internalNodes>
          <leafValues>
            -1.8740683794021606e-01 1.9869691133499146e-01</leafValues></_>
        <_>
          <internalNodes>
            0 -1 1115 -1.5922645106911659e-03</internalNodes>
          <leafValues>
            1.6859585046768188e-01 -1.7667144536972046e-01</leafValues></_>
        <_>
          <internalNodes>
            0 -1 1375 3.2702878117561340e-02</internalNodes>
          <leafValues>
            -4.5135263353586197e-02 6.3976281881332397e-01</leafValues></_>
        <_>
          <internalNodes>
            0 -1 1192 -4.7840941697359085e-03</internalNodes>
          <leafValues>
            -2.3210388422012329e-01 1.1339423805475235e-01</leafValues></_>
        <_>
          <internalNodes>
            0 -1 754 -2.6415012776851654e-02</internalNodes>
          <leafValues>
            4.7061860561370850e-01 -5.1489237695932388e-02</leafValues></_>
        <_>
          <internalNodes>
            0 -1 687 2.7423391118645668e-02</internalNodes>
          <leafValues>
            4.0169809013605118e-02 -6.2456226348876953e-01</leafValues></_>
        <_>
          <internalNodes>
            0 -1 193 -1.1868735775351524e-02</internalNodes>
          <leafValues>
            2.8004693984985352e-01 -9.4779007136821747e-02</leafValues></_>
        <_>
          <internalNodes>
            0 -1 192 -1.4884350821375847e-02</internalNodes>
          <leafValues>
            4.6928304433822632e-01 -6.0272816568613052e-02</leafValues></_>
        <_>
          <internalNodes>
            0 -1 1152 -3.5433960147202015e-03</internalNodes>
          <leafValues>
            -4.1847914457321167e-01 7.0317029953002930e-02</leafValues></_>
        <_>
          <internalNodes>
            0 -1 1639 7.3796892538666725e-03</internalNodes>
          <leafValues>
            3.8791276514530182e-02 -6.5123450756072998e-01</leafValues></_>
        <_>
          <internalNodes>
            0 -1 103 1.4355429448187351e-03</internalNodes>
          <leafValues>
            -1.2384511530399323e-01 1.9924981892108917e-01</leafValues></_>
        <_>
          <internalNodes>
            0 -1 93 -2.6398766785860062e-02</internalNodes>
          <leafValues>
            -9.0738677978515625e-01 2.1867306903004646e-02</leafValues></_>
        <_>
          <internalNodes>
            0 -1 1688 -4.7737490385770798e-03</internalNodes>
          <leafValues>
            2.3721817135810852e-01 -1.0521207749843597e-01</leafValues></_>
        <_>
          <internalNodes>
            0 -1 614 -2.3472275584936142e-02</internalNodes>
          <leafValues>
            -9.1477429866790771e-01 2.6444755494594574e-02</leafValues></_>
        <_>
          <internalNodes>
            0 -1 1813 7.6164975762367249e-03</internalNodes>
          <leafValues>
            2.3639313876628876e-02 -8.0085295438766479e-01</leafValues></_>
        <_>
          <internalNodes>
            0 -1 1707 -3.0414931476116180e-02</internalNodes>
          <leafValues>
            -6.5765494108200073e-01 3.1073013320565224e-02</leafValues></_>
        <_>
          <internalNodes>
            0 -1 1723 1.6278009861707687e-02</internalNodes>
          <leafValues>
            2.6970067992806435e-02 -7.7646428346633911e-01</leafValues></_>
        <_>
          <internalNodes>
            0 -1 1183 -6.0557741671800613e-03</internalNodes>
          <leafValues>
            -5.8138865232467651e-01 3.7632592022418976e-02</leafValues></_>
        <_>
          <internalNodes>
            0 -1 1730 6.0989325866103172e-03</internalNodes>
          <leafValues>
            -8.7972156703472137e-02 3.1557914614677429e-01</leafValues></_>
        <_>
          <internalNodes>
            0 -1 1446 2.1802056580781937e-02</internalNodes>
          <leafValues>
            2.7597250416874886e-02 -8.8902896642684937e-01</leafValues></_>
        <_>
          <internalNodes>
            0 -1 1082 -2.0914794877171516e-02</internalNodes>
          <leafValues>
            6.5733903646469116e-01 -4.5678030699491501e-02</leafValues></_>
        <_>
          <internalNodes>
            0 -1 972 -2.9715644195675850e-03</internalNodes>
          <leafValues>
            -2.0688383281230927e-01 1.3958619534969330e-01</leafValues></_>
        <_>
          <internalNodes>
            0 -1 1143 -2.2343888878822327e-02</internalNodes>
          <leafValues>
            2.8141939640045166e-01 -9.4223804771900177e-02</leafValues></_>
        <_>
          <internalNodes>
            0 -1 1407 -1.0573952458798885e-03</internalNodes>
          <leafValues>
            2.4107535183429718e-01 -1.0819096863269806e-01</leafValues></_>
        <_>
          <internalNodes>
            0 -1 867 1.2502904981374741e-02</internalNodes>
          <leafValues>
            1.1620709300041199e-01 -2.3837497830390930e-01</leafValues></_>
        <_>
          <internalNodes>
            0 -1 1157 -6.5352218225598335e-03</internalNodes>
          <leafValues>
            -5.1636558771133423e-01 5.3255420178174973e-02</leafValues></_>
        <_>
          <internalNodes>
            0 -1 1408 5.9838900342583656e-03</internalNodes>
          <leafValues>
            -5.3605213761329651e-02 5.1651835441589355e-01</leafValues></_>
        <_>
          <internalNodes>
            0 -1 1800 -1.2590126134455204e-02</internalNodes>
          <leafValues>
            3.7148377299308777e-01 -6.4790278673171997e-02</leafValues></_>
        <_>
          <internalNodes>
            0 -1 1518 1.3481400674208999e-04</internalNodes>
          <leafValues>
            1.2533591687679291e-01 -2.1198232471942902e-01</leafValues></_>
        <_>
          <internalNodes>
            0 -1 1002 2.5410531088709831e-03</internalNodes>
          <leafValues>
            -8.7103016674518585e-02 2.9530560970306396e-01</leafValues></_>
        <_>
          <internalNodes>
            0 -1 475 7.5813896954059601e-02</internalNodes>
          <leafValues>
            3.1994052231311798e-02 -7.4738591909408569e-01</leafValues></_>
        <_>
          <internalNodes>
            0 -1 57 9.3570481985807419e-03</internalNodes>
          <leafValues>
            7.6791375875473022e-02 -3.3069634437561035e-01</leafValues></_>
        <_>
          <internalNodes>
            0 -1 566 -5.6302538141608238e-03</internalNodes>
          <leafValues>
            2.4812093377113342e-01 -1.0919526219367981e-01</leafValues></_>
        <_>
          <internalNodes>
            0 -1 119 -1.1168584227561951e-02</internalNodes>
          <leafValues>
            -7.5375002622604370e-01 3.2621379941701889e-02</leafValues></_>
        <_>
          <internalNodes>
            0 -1 1 -1.0409557726234198e-03</internalNodes>
          <leafValues>
            2.3727077245712280e-01 -1.0778206586837769e-01</leafValues></_>
        <_>
          <internalNodes>
            0 -1 1663 1.3177405344322324e-04</internalNodes>
          <leafValues>
            1.4032141864299774e-01 -2.0289807021617889e-01</leafValues></_>
        <_>
          <internalNodes>
            0 -1 855 -2.0828336477279663e-02</internalNodes>
          <leafValues>
            5.1192790269851685e-01 -4.6480670571327209e-02</leafValues></_>
        <_>
          <internalNodes>
            0 -1 458 9.3484064564108849e-03</internalNodes>
          <leafValues>
            6.2065474689006805e-02 -4.4087034463882446e-01</leafValues></_>
        <_>
          <internalNodes>
            0 -1 16 4.3157245963811874e-02</internalNodes>
          <leafValues>
            -7.5823366641998291e-02 3.6213836073875427e-01</leafValues></_>
        <_>
          <internalNodes>
            0 -1 280 -1.4150312636047602e-03</internalNodes>
          <leafValues>
            -2.0561937987804413e-01 1.3021595776081085e-01</leafValues></_>
        <_>
          <internalNodes>
            0 -1 205 -3.2510226592421532e-03</internalNodes>
          <leafValues>
            3.7557214498519897e-01 -8.1427581608295441e-02</leafValues></_>
        <_>
          <internalNodes>
            0 -1 1741 8.9951080735772848e-04</internalNodes>
          <leafValues>
            -1.1376728862524033e-01 2.2449657320976257e-01</leafValues></_>
        <_>
          <internalNodes>
            0 -1 1130 1.4549048617482185e-02</internalNodes>
          <leafValues>
            3.2739769667387009e-02 -7.5650382041931152e-01</leafValues></_>
        <_>
          <internalNodes>
            0 -1 189 3.3347763121128082e-02</internalNodes>
          <leafValues>
            2.2635916247963905e-02 -9.3100380897521973e-01</leafValues></_>
        <_>
          <internalNodes>
            0 -1 1714 3.4502735361456871e-03</internalNodes>
          <leafValues>
            -8.7830148637294769e-02 3.0682969093322754e-01</leafValues></_>
        <_>
          <internalNodes>
            0 -1 1306 7.4002577457576990e-04</internalNodes>
          <leafValues>
            9.6114717423915863e-02 -2.5751075148582458e-01</leafValues></_>
        <_>
          <internalNodes>
            0 -1 113 7.6476112008094788e-02</internalNodes>
          <leafValues>
            5.1777336746454239e-02 -5.2648860216140747e-01</leafValues></_>
        <_>
          <internalNodes>
            0 -1 227 2.9271548555698246e-05</internalNodes>
          <leafValues>
            1.3001963496208191e-01 -2.0725400745868683e-01</leafValues></_>
        <_>
          <internalNodes>
            0 -1 439 -2.1916190162301064e-02</internalNodes>
          <leafValues>
            5.0616395473480225e-01 -4.5619662851095200e-02</leafValues></_>
        <_>
          <internalNodes>
            0 -1 1470 -2.0672003738582134e-03</internalNodes>
          <leafValues>
            3.4954777359962463e-01 -7.4892058968544006e-02</leafValues></_>
        <_>
          <internalNodes>
            0 -1 621 1.1214044876396656e-02</internalNodes>
          <leafValues>
            3.1569611281156540e-02 -7.6037698984146118e-01</leafValues></_>
        <_>
          <internalNodes>
            0 -1 1370 2.1167807281017303e-02</internalNodes>
          <leafValues>
            2.8438361361622810e-02 -7.9754179716110229e-01</leafValues></_>
        <_>
          <internalNodes>
            0 -1 1475 9.5354132354259491e-03</internalNodes>
          <leafValues>
            -7.4630066752433777e-02 3.8133534789085388e-01</leafValues></_>
        <_>
          <internalNodes>
            0 -1 1438 -3.5879276692867279e-02</internalNodes>
          <leafValues>
            3.9929610490798950e-01 -7.3249921202659607e-02</leafValues></_></weakClassifiers></_>
    <!-- stage 5 -->
    <_>
      <maxWeakCount>100</maxWeakCount>
      <stageThreshold>-2.7233667373657227e+00</stageThreshold>
      <weakClassifiers>
        <_>
          <internalNodes>
            0 -1 1155 -3.6175688728690147e-03</internalNodes>
          <leafValues>
            -1.2721416354179382e-01 -7.7595627307891846e-01</leafValues></_>
        <_>
          <internalNodes>
            0 -1 1510 3.8082366809248924e-03</internalNodes>
          <leafValues>
            -3.3277210593223572e-01 2.8085651993751526e-01</leafValues></_>
        <_>
          <internalNodes>
            0 -1 743 4.9681859090924263e-03</internalNodes>
          <leafValues>
            -2.8891029953956604e-01 3.2403016090393066e-01</leafValues></_>
        <_>
          <internalNodes>
            0 -1 43 -1.1385964899091050e-04</internalNodes>
          <leafValues>
            2.5924918055534363e-01 -2.1130377054214478e-01</leafValues></_>
        <_>
          <internalNodes>
            0 -1 865 -3.1574994325637817e-02</internalNodes>
          <leafValues>
            3.2791671156883240e-01 -1.4744096994400024e-01</leafValues></_>
        <_>
          <internalNodes>
            0 -1 14 -1.3756923377513885e-02</internalNodes>
          <leafValues>
            2.8135243058204651e-01 -1.5527826547622681e-01</leafValues></_>
        <_>
          <internalNodes>
            0 -1 1662 -3.0606496147811413e-03</internalNodes>
          <leafValues>
            2.6060715317726135e-01 -1.5626160800457001e-01</leafValues></_>
        <_>
          <internalNodes>
            0 -1 5 -5.6230025365948677e-03</internalNodes>
          <leafValues>
            3.8053995370864868e-01 -1.0653811693191528e-01</leafValues></_>
        <_>
          <internalNodes>
            0 -1 1459 -1.3448856770992279e-02</internalNodes>
          <leafValues>
            2.7628716826438904e-01 -1.2796318531036377e-01</leafValues></_>
        <_>
          <internalNodes>
            0 -1 616 -1.1355653405189514e-01</internalNodes>
          <leafValues>
            3.9473649859428406e-01 -8.5311613976955414e-02</leafValues></_>
        <_>
          <internalNodes>
            0 -1 843 1.0320363566279411e-02</internalNodes>
          <leafValues>
            1.1141129583120346e-01 -5.6301510334014893e-01</leafValues></_>
        <_>
          <internalNodes>
            0 -1 416 1.0198485106229782e-02</internalNodes>
          <leafValues>
            -1.8203344941139221e-01 2.3610173165798187e-01</leafValues></_>
        <_>
          <internalNodes>
            0 -1 1632 -3.1246973201632500e-02</internalNodes>
          <leafValues>
            -8.4549111127853394e-01 8.9854307472705841e-02</leafValues></_>
        <_>
          <internalNodes>
            0 -1 1514 9.3606754671782255e-04</internalNodes>
          <leafValues>
            -1.8564231693744659e-01 2.2148753702640533e-01</leafValues></_>
        <_>
          <internalNodes>
            0 -1 405 -3.6083249142393470e-05</internalNodes>
          <leafValues>
            -1.4983327686786652e-01 2.1937984228134155e-01</leafValues></_>
        <_>
          <internalNodes>
            0 -1 264 1.5755746513605118e-02</internalNodes>
          <leafValues>
            -1.7541809380054474e-01 2.4842779338359833e-01</leafValues></_>
        <_>
          <internalNodes>
            0 -1 448 -3.6752116866409779e-03</internalNodes>
          <leafValues>
            -1.8544916808605194e-01 2.0314085483551025e-01</leafValues></_>
        <_>
          <internalNodes>
            0 -1 78 -5.6729078292846680e-02</internalNodes>
          <leafValues>
            2.1247296035289764e-01 -2.0598264038562775e-01</leafValues></_>
        <_>
          <internalNodes>
            0 -1 1364 -8.3471368998289108e-03</internalNodes>
          <leafValues>
            -5.5515122413635254e-01 1.1251852661371231e-01</leafValues></_>
        <_>
          <internalNodes>
            0 -1 1408 4.3205237016081810e-03</internalNodes>
          <leafValues>
            -1.4844505488872528e-01 4.0669825673103333e-01</leafValues></_>
        <_>
          <internalNodes>
            0 -1 1698 -4.5874153147451580e-04</internalNodes>
          <leafValues>
            -1.2556464970111847e-01 2.4425968527793884e-01</leafValues></_>
        <_>
          <internalNodes>
            0 -1 83 2.9487432911992073e-02</internalNodes>
          <leafValues>
            -1.2671218812465668e-01 5.0517368316650391e-01</leafValues></_>
        <_>
          <internalNodes>
            0 -1 1538 -3.3529125154018402e-02</internalNodes>
          <leafValues>
            5.3791385889053345e-01 -6.2742985785007477e-02</leafValues></_>
        <_>
          <internalNodes>
            0 -1 1675 4.1305264458060265e-03</internalNodes>
          <leafValues>
            -1.2690080702304840e-01 2.5737801194190979e-01</leafValues></_>
        <_>
          <internalNodes>
            0 -1 1361 4.2698462493717670e-04</internalNodes>
          <leafValues>
            1.9462381303310394e-01 -1.9449113309383392e-01</leafValues></_>
        <_>
          <internalNodes>
            0 -1 1751 9.5979057252407074e-02</internalNodes>
          <leafValues>
            -1.0671114176511765e-01 7.1378111839294434e-01</leafValues></_>
        <_>
          <internalNodes>
            0 -1 1726 -2.5698646903038025e-02</internalNodes>
          <leafValues>
            5.3358590602874756e-01 -5.9438146650791168e-02</leafValues></_>
        <_>
          <internalNodes>
            0 -1 106 -2.3020538501441479e-03</internalNodes>
          <leafValues>
            2.4000340700149536e-01 -1.2602317333221436e-01</leafValues></_>
        <_>
          <internalNodes>
            0 -1 608 3.3077015541493893e-04</internalNodes>
          <leafValues>
            2.5061923265457153e-01 -1.4033603668212891e-01</leafValues></_>
        <_>
          <internalNodes>
            0 -1 693 6.0824844986200333e-03</internalNodes>
          <leafValues>
            -1.4869391918182373e-01 3.3950507640838623e-01</leafValues></_>
        <_>
          <internalNodes>
            0 -1 1218 -1.1920768022537231e-01</internalNodes>
          <leafValues>
            3.0817559361457825e-01 -9.6025429666042328e-02</leafValues></_>
        <_>
          <internalNodes>
            0 -1 1630 -5.0087217241525650e-03</internalNodes>
          <leafValues>
            -6.5918964147567749e-01 4.8618566244840622e-02</leafValues></_>
        <_>
          <internalNodes>
            0 -1 1257 -2.2729304619133472e-03</internalNodes>
          <leafValues>
            2.5213983654975891e-01 -1.2858510017395020e-01</leafValues></_>
        <_>
          <internalNodes>
            0 -1 554 5.3707417100667953e-04</internalNodes>
          <leafValues>
            1.9410742819309235e-01 -2.3570701479911804e-01</leafValues></_>
        <_>
          <internalNodes>
            0 -1 1196 -1.1779717169702053e-02</internalNodes>
          <leafValues>
            6.1100029945373535e-01 -1.0337529331445694e-01</leafValues></_>
        <_>
          <internalNodes>
            0 -1 642 -2.4062734097242355e-02</internalNodes>
          <leafValues>
            2.6458904147148132e-01 -1.1530584841966629e-01</leafValues></_>
        <_>
          <internalNodes>
            0 -1 122 -2.4248700588941574e-02</internalNodes>
          <leafValues>
            -3.1186297535896301e-01 1.8498827517032623e-01</leafValues></_>
        <_>
          <internalNodes>
            0 -1 1332 1.7846763134002686e-02</internalNodes>
          <leafValues>
            -1.6679623723030090e-01 2.2423450648784637e-01</leafValues></_>
        <_>
          <internalNodes>
            0 -1 1596 8.0548617988824844e-03</internalNodes>
          <leafValues>
            3.2352920621633530e-02 -8.5480612516403198e-01</leafValues></_>
        <_>
          <internalNodes>
            0 -1 678 -6.1169765889644623e-02</internalNodes>
          <leafValues>
            2.5893479585647583e-01 -1.1701167374849319e-01</leafValues></_>
        <_>
          <internalNodes>
            0 -1 1078 -7.3041510768234730e-03</internalNodes>
          <leafValues>
            -2.3585578799247742e-01 2.2498254477977753e-01</leafValues></_>
        <_>
          <internalNodes>
            0 -1 484 -3.0410941690206528e-03</internalNodes>
          <leafValues>
            2.1921873092651367e-01 -1.6976818442344666e-01</leafValues></_>
        <_>
          <internalNodes>
            0 -1 1163 -6.5057333558797836e-03</internalNodes>
          <leafValues>
            -5.1072603464126587e-01 5.8377582579851151e-02</leafValues></_>
        <_>
          <internalNodes>
            0 -1 1247 -2.0395725965499878e-01</internalNodes>
          <leafValues>
            -7.5562852621078491e-01 3.4689471125602722e-02</leafValues></_>
        <_>
          <internalNodes>
            0 -1 1329 1.1520147323608398e-02</internalNodes>
          <leafValues>
            -6.8833731114864349e-02 4.4870549440383911e-01</leafValues></_>
        <_>
          <internalNodes>
            0 -1 1426 9.0022273361682892e-03</internalNodes>
          <leafValues>
            4.4087696820497513e-02 -7.0142877101898193e-01</leafValues></_>
        <_>
          <internalNodes>
            0 -1 696 -6.2849327921867371e-02</internalNodes>
          <leafValues>
            4.1816085577011108e-01 -7.3580615222454071e-02</leafValues></_>
        <_>
          <internalNodes>
            0 -1 1561 2.0653577521443367e-02</internalNodes>
          <leafValues>
            7.5001962482929230e-02 -4.1953194141387939e-01</leafValues></_>
        <_>
          <internalNodes>
            0 -1 863 -3.0215501319617033e-03</internalNodes>
          <leafValues>
            2.3886342346668243e-01 -1.1859647184610367e-01</leafValues></_>
        <_>
          <internalNodes>
            0 -1 535 6.5162559039890766e-03</internalNodes>
          <leafValues>
            1.2503568828105927e-01 -2.2405929863452911e-01</leafValues></_>
        <_>
          <internalNodes>
            0 -1 398 5.1271822303533554e-03</internalNodes>
          <leafValues>
            -1.1101165413856506e-01 2.6369744539260864e-01</leafValues></_>
        <_>
          <internalNodes>
            0 -1 1117 -3.6066144704818726e-02</internalNodes>
          <leafValues>
            -9.7892212867736816e-01 2.6619339361786842e-02</leafValues></_>
        <_>
          <internalNodes>
            0 -1 720 -1.0411165654659271e-02</internalNodes>
          <leafValues>
            -5.6824117898941040e-01 3.6855708807706833e-02</leafValues></_>
        <_>
          <internalNodes>
            0 -1 447 2.3798823356628418e-01</internalNodes>
          <leafValues>
            3.3528715372085571e-02 -7.4889194965362549e-01</leafValues></_>
        <_>
          <internalNodes>
            0 -1 168 3.4934666473418474e-03</internalNodes>
          <leafValues>
            4.2726967483758926e-02 -5.7304871082305908e-01</leafValues></_>
        <_>
          <internalNodes>
            0 -1 1258 -2.7176668867468834e-02</internalNodes>
          <leafValues>
            -5.4643392562866211e-01 4.5584261417388916e-02</leafValues></_>
