<?xml version="1.0"?>
<opencv_storage>
<stage3>
  <maxWeakCount>100</maxWeakCount>
  <stageThreshold>-2.5291481018066406e+00</stageThreshold>
  <weakClassifiers>
    <_>
      <internalNodes>
        0 -1 13955 -7.8811729326844215e-04</internalNodes>
      <leafValues>
        -2.4920128285884857e-01 -6.7537826299667358e-01</leafValues></_>
    <_>
      <internalNodes>
        0 -1 17977 -1.1991512030363083e-02</internalNodes>
      <leafValues>
        1.8900386989116669e-01 -2.9348903894424438e-01</leafValues></_>
    <_>
      <internalNodes>
        0 -1 65144 -2.9844507575035095e-02</internalNodes>
      <leafValues>
        3.6942678689956665e-01 -1.2914805114269257e-01</leafValues></_>
    <_>
      <internalNodes>
        0 -1 61555 -1.8294604495167732e-02</internalNodes>
      <leafValues>
        2.3806542158126831e-01 -1.9275395572185516e-01</leafValues></_>
    <_>
      <internalNodes>
        0 -1 40437 -2.1140957251191139e-03</internalNodes>
      <leafValues>
        2.4616213142871857e-01 -1.6717042028903961e-01</leafValues></_>
    <_>
      <internalNodes>
        0 -1 15701 9.7344852983951569e-03</internalNodes>
      <leafValues>
        -1.3783426582813263e-01 2.8480049967765808e-01</leafValues></_>
    <_>
      <internalNodes>
        0 -1 71046 3.2415983732789755e-03</internalNodes>
      <leafValues>
        -9.7550712525844574e-02 3.9184325933456421e-01</leafValues></_>
    <_>
      <internalNodes>
        0 -1 55747 -1.6214396804571152e-02</internalNodes>
      <leafValues>
        4.1436856985092163e-01 -8.7618254125118256e-02</leafValues></_>
    <_>
      <internalNodes>
        0 -1 17798 3.7781074643135071e-02</internalNodes>
      <leafValues>
        -2.3439649492502213e-02 4.5977523922920227e-01</leafValues></_>
    <_>
      <internalNodes>
        0 -1 58968 4.7761453315615654e-03</internalNodes>
      <leafValues>
        5.9423919767141342e-02 -5.6427991390228271e-01</leafValues></_>
    <_>
      <internalNodes>
        0 -1 59999 -1.3194579631090164e-02</internalNodes>
      <leafValues>
        2.9949948191642761e-01 -1.4986787736415863e-01</leafValues></_>
    <_>
      <internalNodes>
        0 -1 7444 -2.5624125264585018e-03</internalNodes>
      <leafValues>
        -4.3544372916221619e-01 1.0943441838026047e-01</leafValues></_>
    <_>
      <internalNodes>
        0 -1 30770 1.3518249616026878e-02</internalNodes>
      <leafValues>
        -1.6145394742488861e-01 3.0236986279487610e-01</leafValues></_>
    <_>
      <internalNodes>
        0 -1 27813 -2.5858908891677856e-02</internalNodes>
      <leafValues>
        4.6731731295585632e-01 -2.1592147648334503e-02</leafValues></_>
    <_>
      <internalNodes>
        0 -1 24173 -4.6629048883914948e-03</internalNodes>
      <leafValues>
        -2.3350456357002258e-01 1.3592799007892609e-01</leafValues></_>
    <_>
      <internalNodes>
        0 -1 62405 3.4764298470690846e-04</internalNodes>
      <leafValues>
        -1.9841149449348450e-01 1.8047921359539032e-01</leafValues></_>
    <_>
      <internalNodes>
        0 -1 65227 6.9542247802019119e-03</internalNodes>
      <leafValues>
        9.2106066644191742e-02 -6.0733884572982788e-01</leafValues></_>
    <_>
      <internalNodes>
        0 -1 77256 -8.4501244127750397e-03</internalNodes>
      <leafValues>
        3.5926166176795959e-01 -8.7485797703266144e-02</leafValues></_>
    <_>
      <internalNodes>
        0 -1 76613 7.6336865313351154e-03</internalNodes>
      <leafValues>
        6.7882686853408813e-02 -4.6859833598136902e-01</leafValues></_>
    <_>
      <internalNodes>
        0 -1 51790 1.3076639152131975e-04</internalNodes>
      <leafValues>
        1.5347264707088470e-01 -1.9172351062297821e-01</leafValues></_>
    <_>
      <internalNodes>
        0 -1 71336 -2.8729871846735477e-03</internalNodes>
      <leafValues>
        1.9437223672866821e-01 -2.0501753687858582e-01</leafValues></_>
    <_>
      <internalNodes>
        0 -1 51843 -9.3614496290683746e-03</internalNodes>
      <leafValues>
        -6.3885897397994995e-01 9.2345923185348511e-02</leafValues></_>
    <_>
      <internalNodes>
        0 -1 10272 2.2688109427690506e-02</internalNodes>
      <leafValues>
        -1.8143038451671600e-01 2.5386771559715271e-01</leafValues></_>
    <_>
      <internalNodes>
        0 -1 22969 5.1715098379645497e-05</internalNodes>
      <leafValues>
        2.2882705926895142e-01 -1.4745730161666870e-01</leafValues></_>
    <_>
      <internalNodes>
        0 -1 55734 -2.2440475877374411e-03</internalNodes>
      <leafValues>
        2.3136372864246368e-01 -1.7983749508857727e-01</leafValues></_>
    <_>
      <internalNodes>
        0 -1 16261 -2.7733319438993931e-03</internalNodes>
      <leafValues>
        2.6148378849029541e-01 -1.3565854728221893e-01</leafValues></_>
    <_>
      <internalNodes>
        0 -1 60625 -1.1346996761858463e-02</internalNodes>
      <leafValues>
        -6.5939795970916748e-01 8.9272893965244293e-02</leafValues></_>
    <_>
      <internalNodes>
        0 -1 16876 2.4370990693569183e-02</internalNodes>
      <leafValues>
        4.5944161713123322e-02 -5.8706545829772949e-01</leafValues></_>
    <_>
      <internalNodes>
        0 -1 51336 6.1914124526083469e-03</internalNodes>
      <leafValues>
        -1.8727564811706543e-01 1.9670808315277100e-01</leafValues></_>
    <_>
      <internalNodes>
        0 -1 46542 2.3298394808080047e-04</internalNodes>
      <leafValues>
        2.1279484033584595e-01 -1.4556375145912170e-01</leafValues></_>
    <_>
      <internalNodes>
        0 -1 54024 -3.3339937217533588e-03</internalNodes>
      <leafValues>
        1.6945259273052216e-01 -2.0717112720012665e-01</leafValues></_>
    <_>
      <internalNodes>
        0 -1 6643 -4.2934541124850512e-04</internalNodes>
      <leafValues>
        -1.6900055110454559e-01 2.2474035620689392e-01</leafValues></_>
    <_>
      <internalNodes>
        0 -1 20909 1.1535720899701118e-02</internalNodes>
      <leafValues>
        -1.0536765307188034e-01 6.2326103448867798e-01</leafValues></_>
    <_>
      <internalNodes>
        0 -1 58685 9.9745560437440872e-03</internalNodes>
      <leafValues>
        -1.2936101853847504e-01 2.7741515636444092e-01</leafValues></_>
    <_>
      <internalNodes>
        0 -1 47970 3.2262853346765041e-03</internalNodes>
      <leafValues>
        1.7203617095947266e-01 -2.0970253646373749e-01</leafValues></_>
    <_>
      <internalNodes>
        0 -1 18960 1.2122580781579018e-02</internalNodes>
      <leafValues>
        -1.7503654956817627e-01 2.9013088345527649e-01</leafValues></_>
    <_>
      <internalNodes>
        0 -1 55561 1.4616668224334717e-02</internalNodes>
      <leafValues>
        1.4457044005393982e-01 -2.9840272665023804e-01</leafValues></_>
    <_>
      <internalNodes>
        0 -1 40339 -2.8979247435927391e-02</internalNodes>
      <leafValues>
        3.8425168395042419e-01 -1.2681145966053009e-01</leafValues></_>
    <_>
      <internalNodes>
        0 -1 1751 4.4790141284465790e-02</internalNodes>
      <leafValues>
        -1.1844974756240845e-01 2.5411346554756165e-01</leafValues></_>
    <_>
      <internalNodes>
        0 -1 66817 -2.1932358504272997e-04</internalNodes>
      <leafValues>
        -1.4837698638439178e-01 2.3331265151500702e-01</leafValues></_>
    <_>
      <internalNodes>
        0 -1 58243 1.0187344625592232e-02</internalNodes>
      <leafValues>
        -1.2549903988838196e-01 3.6239263415336609e-01</leafValues></_>
    <_>
      <internalNodes>
        0 -1 11595 -1.7752347514033318e-02</internalNodes>
      <leafValues>
        2.8716051578521729e-01 -1.1103304475545883e-01</leafValues></_>
    <_>
      <internalNodes>
        0 -1 37691 1.4752868562936783e-02</internalNodes>
      <leafValues>
        1.0594935715198517e-01 -5.1083278656005859e-01</leafValues></_>
    <_>
      <internalNodes>
        0 -1 43242 4.6530216932296753e-03</internalNodes>
      <leafValues>
        -1.6396817564964294e-01 2.3347307741641998e-01</leafValues></_>
    <_>
      <internalNodes>
        0 -1 33822 1.4551159983966500e-04</internalNodes>
      <leafValues>
        2.1734435856342316e-01 -1.5062549710273743e-01</leafValues></_>
    <_>
      <internalNodes>
        0 -1 26466 -1.8365124706178904e-03</internalNodes>
      <leafValues>
        1.8903475999832153e-01 -1.7349343001842499e-01</leafValues></_>
    <_>
      <internalNodes>
        0 -1 6549 -3.1914051622152328e-02</internalNodes>
      <leafValues>
        3.1031173467636108e-01 -9.2669323086738586e-02</leafValues></_>
    <_>
      <internalNodes>
        0 -1 14133 -2.0713364938274026e-04</internalNodes>
      <leafValues>
        -1.7374841868877411e-01 2.1391239762306213e-01</leafValues></_>
    <_>
      <internalNodes>
        0 -1 43541 -1.7394365277141333e-03</internalNodes>
      <leafValues>
        2.3683770000934601e-01 -1.6574224829673767e-01</leafValues></_>
    <_>
      <internalNodes>
        0 -1 75775 3.3826820552349091e-02</internalNodes>
      <leafValues>
        -6.4894981682300568e-02 4.7774931788444519e-01</leafValues></_>
    <_>
      <internalNodes>
        0 -1 9587 -2.5516871362924576e-02</internalNodes>
      <leafValues>
        -7.1030664443969727e-01 4.7241371124982834e-02</leafValues></_>
    <_>
      <internalNodes>
        0 -1 56644 6.1530033126473427e-03</internalNodes>
      <leafValues>
        3.4390591084957123e-02 -7.2881937026977539e-01</leafValues></_>
    <_>
      <internalNodes>
        0 -1 12027 -6.7754462361335754e-02</internalNodes>
      <leafValues>
        3.9186751842498779e-01 -7.7778071165084839e-02</leafValues></_>
    <_>
      <internalNodes>
        0 -1 19200 2.9065527021884918e-02</internalNodes>
      <leafValues>
        -1.3220766186714172e-01 2.2140823304653168e-01</leafValues></_>
    <_>
      <internalNodes>
        0 -1 33769 8.9140131603926420e-04</internalNodes>
      <leafValues>
        2.0947174727916718e-01 -1.8330873548984528e-01</leafValues></_>
    <_>
      <internalNodes>
        0 -1 72024 -5.3685687482357025e-02</internalNodes>
      <leafValues>
        2.8774428367614746e-01 -1.3744838535785675e-01</leafValues></_>
    <_>
      <internalNodes>
        0 -1 24020 -1.9029110670089722e-02</internalNodes>
      <leafValues>
        -7.3604846000671387e-01 3.3453170210123062e-02</leafValues></_>
    <_>
      <internalNodes>
        0 -1 2174 1.2425636872649193e-02</internalNodes>
      <leafValues>
        -7.6666250824928284e-02 3.5236614942550659e-01</leafValues></_>
    <_>
      <internalNodes>
        0 -1 59095 -1.5777003020048141e-02</internalNodes>
      <leafValues>
        -5.4602581262588501e-01 4.9062822014093399e-02</leafValues></_>
    <_>
      <internalNodes>
        0 -1 40810 -5.3523894399404526e-02</internalNodes>
      <leafValues>
        4.0675839781761169e-01 -8.1249810755252838e-02</leafValues></_>
    <_>
      <internalNodes>
        0 -1 73908 -1.7270304262638092e-02</internalNodes>
      <leafValues>
        -4.0856343507766724e-01 8.4275335073471069e-02</leafValues></_>
    <_>
      <internalNodes>
        0 -1 14227 -4.3308825115673244e-04</internalNodes>
      <leafValues>
        -1.9048823416233063e-01 1.3361287117004395e-01</leafValues></_>
    <_>
      <internalNodes>
        0 -1 16709 -3.6384197883307934e-03</internalNodes>
      <leafValues>
        3.0586600303649902e-01 -8.9910827577114105e-02</leafValues></_>
    <_>
      <internalNodes>
        0 -1 7172 1.3083739206194878e-02</internalNodes>
      <leafValues>
        5.9655550867319107e-02 -4.5429345965385437e-01</leafValues></_>
    <_>
      <internalNodes>
        0 -1 57190 -1.5226412564516068e-02</internalNodes>
      <leafValues>
        3.8214784860610962e-01 -7.4013367295265198e-02</leafValues></_>
    <_>
      <internalNodes>
        0 -1 10787 -8.8943112641572952e-03</internalNodes>
      <leafValues>
        -7.9492920637130737e-01 3.3691760152578354e-02</leafValues></_>
    <_>
      <internalNodes>
        0 -1 62175 -8.3890855312347412e-03</internalNodes>
      <leafValues>
        4.5403385162353516e-01 -6.5985493361949921e-02</leafValues></_>
    <_>
      <internalNodes>
        0 -1 47170 -1.6194652765989304e-02</internalNodes>
      <leafValues>
        -5.4374659061431885e-01 4.8463251441717148e-02</leafValues></_>
    <_>
      <internalNodes>
        0 -1 13420 3.0125819146633148e-02</internalNodes>
      <leafValues>
        -3.0800696462392807e-02 8.8637322187423706e-01</leafValues></_>
    <_>
      <internalNodes>
        0 -1 56097 1.9567232811823487e-05</internalNodes>
      <leafValues>
        1.4644622802734375e-01 -1.8699699640274048e-01</leafValues></_>
    <_>
      <internalNodes>
        0 -1 51685 -7.5048184953629971e-03</internalNodes>
      <leafValues>
        4.2898812890052795e-01 -7.0438645780086517e-02</leafValues></_>
    <_>
      <internalNodes>
        0 -1 21035 4.8378609120845795e-02</internalNodes>
      <leafValues>
        -4.1326116770505905e-02 6.9578307867050171e-01</leafValues></_>
    <_>
      <internalNodes>
        0 -1 39620 -4.5207068324089050e-03</internalNodes>
      <leafValues>
        -6.3935601711273193e-01 5.1468461751937866e-02</leafValues></_>
    <_>
      <internalNodes>
        0 -1 38714 -3.4604999236762524e-03</internalNodes>
      <leafValues>
        2.4332325160503387e-01 -1.0744652897119522e-01</leafValues></_>
    <_>
      <internalNodes>
        0 -1 33455 1.2737028300762177e-02</internalNodes>
      <leafValues>
        -8.0711536109447479e-02 3.8588985800743103e-01</leafValues></_>
    <_>
      <internalNodes>
        0 -1 59184 9.6080941148102283e-04</internalNodes>
      <leafValues>
        1.3274000585079193e-01 -2.0207673311233521e-01</leafValues></_>
    <_>
      <internalNodes>
        0 -1 27964 -2.6540271937847137e-03</internalNodes>
      <leafValues>
        -1.9783242046833038e-01 1.3338017463684082e-01</leafValues></_>
    <_>
      <internalNodes>
        0 -1 26959 -5.9481292963027954e-02</internalNodes>
      <leafValues>
        5.9936964511871338e-01 -4.5411258935928345e-02</leafValues></_>
    <_>
      <internalNodes>
        0 -1 74136 -5.1645091734826565e-03</internalNodes>
      <leafValues>
        2.9558527469635010e-01 -8.9383557438850403e-02</leafValues></_>
    <_>
      <internalNodes>
        0 -1 75836 -8.6752381175756454e-03</internalNodes>
      <leafValues>
        4.4555890560150146e-01 -6.9675892591476440e-02</leafValues></_>
    <_>
      <internalNodes>
        0 -1 1794 -1.5647759661078453e-02</internalNodes>
      <leafValues>
        3.8474875688552856e-01 -6.9810613989830017e-02</leafValues></_>
    <_>
      <internalNodes>
        0 -1 76205 -1.4852434396743774e-03</internalNodes>
      <leafValues>
        -2.9233080148696899e-01 1.0614591836929321e-01</leafValues></_>
    <_>
      <internalNodes>
        0 -1 22466 5.5654667317867279e-02</internalNodes>
      <leafValues>
        3.8425337523221970e-02 -7.8926163911819458e-01</leafValues></_>
    <_>
      <internalNodes>
        0 -1 63828 -7.3681466281414032e-02</internalNodes>
      <leafValues>
        3.3825975656509399e-01 -8.3133727312088013e-02</leafValues></_>
    <_>
      <internalNodes>
        0 -1 27751 -2.3479345254600048e-03</internalNodes>
      <leafValues>
        -2.1338976919651031e-01 1.3157853484153748e-01</leafValues></_>
    <_>
      <internalNodes>
        0 -1 68234 7.0235626772046089e-03</internalNodes>
      <leafValues>
        -6.2392063438892365e-02 3.8543555140495300e-01</leafValues></_>
    <_>
      <internalNodes>
        0 -1 56944 -4.0969647670863196e-05</internalNodes>
      <leafValues>
        -1.9819934666156769e-01 1.2538535892963409e-01</leafValues></_>
    <_>
      <internalNodes>
        0 -1 44336 1.0918457061052322e-02</internalNodes>
      <leafValues>
        -1.0902640968561172e-01 2.9253298044204712e-01</leafValues></_>
    <_>
      <internalNodes>
        0 -1 38235 1.5062955021858215e-01</internalNodes>
      <leafValues>
        2.8660185635089874e-02 -9.5045131444931030e-01</leafValues></_>
    <_>
      <internalNodes>
        0 -1 1114 1.7813920974731445e-02</internalNodes>
      <leafValues>
        3.2705016434192657e-02 -6.0398864746093750e-01</leafValues></_>
    <_>
      <internalNodes>
        0 -1 46086 -9.9342809990048409e-03</internalNodes>
      <leafValues>
        3.3590069413185120e-01 -7.9661034047603607e-02</leafValues></_>
    <_>
      <internalNodes>
        0 -1 20371 -4.6852726489305496e-02</internalNodes>
      <leafValues>
        -6.8240618705749512e-01 3.1730692833662033e-02</leafValues></_>
    <_>
      <internalNodes>
        0 -1 41040 -2.8294749557971954e-02</internalNodes>
      <leafValues>
        6.1373245716094971e-01 -4.4865902513265610e-02</leafValues></_>
    <_>
      <internalNodes>
        0 -1 11754 -1.6170380637049675e-02</internalNodes>
      <leafValues>
        -5.5992347002029419e-01 4.7049261629581451e-02</leafValues></_>
    <_>
      <internalNodes>
        0 -1 39162 8.5737183690071106e-03</internalNodes>
      <leafValues>
        -5.4334055632352829e-02 4.2752957344055176e-01</leafValues></_>
    <_>
      <internalNodes>
        0 -1 12624 1.4000272378325462e-02</internalNodes>
      <leafValues>
        4.2898379266262054e-02 -5.8340179920196533e-01</leafValues></_>
    <_>
      <internalNodes>
        0 -1 2828 3.1564962118864059e-02</internalNodes>
      <leafValues>
        -7.8184664249420166e-02 4.1887772083282471e-01</leafValues></_>
    <_>
      <internalNodes>
        0 -1 12214 -8.2489792257547379e-03</internalNodes>
      <leafValues>
        -5.6320530176162720e-01 4.2274393141269684e-02</leafValues></_>
    <_>
      <internalNodes>
        0 -1 11834 4.2425647377967834e-02</internalNodes>
      <leafValues>
        -6.0329094529151917e-02 4.7725239396095276e-01</leafValues></_>
    <_>
      <internalNodes>
        0 -1 14509 1.5772685408592224e-02</internalNodes>
      <leafValues>
        3.1449954956769943e-02 -8.0035364627838135e-01</leafValues></_></weakClassifiers></stage3>
</opencv_storage>
