<?xml version="1.0"?>
<opencv_storage>
<stage4>
  <maxWeakCount>100</maxWeakCount>
  <stageThreshold>-2.6135220527648926e+00</stageThreshold>
  <weakClassifiers>
    <_>
      <internalNodes>
        0 -1 33201 1.8897128757089376e-03</internalNodes>
      <leafValues>
        -6.0788381099700928e-01 -1.5681234002113342e-01</leafValues></_>
    <_>
      <internalNodes>
        0 -1 16611 -4.0663719119038433e-05</internalNodes>
      <leafValues>
        1.1939334869384766e-01 -4.1793385148048401e-01</leafValues></_>
    <_>
      <internalNodes>
        0 -1 43135 9.6973497420549393e-03</internalNodes>
      <leafValues>
        -1.4401286840438843e-01 3.6699563264846802e-01</leafValues></_>
    <_>
      <internalNodes>
        0 -1 302 1.3108510524034500e-02</internalNodes>
      <leafValues>
        -2.0133042335510254e-01 2.4831596016883850e-01</leafValues></_>
    <_>
      <internalNodes>
        0 -1 23620 -1.4751128852367401e-02</internalNodes>
      <leafValues>
        3.2664090394973755e-01 -1.3054846227169037e-01</leafValues></_>
    <_>
      <internalNodes>
        0 -1 41855 -3.9318529888987541e-03</internalNodes>
      <leafValues>
        2.8853118419647217e-01 -1.4443387091159821e-01</leafValues></_>
    <_>
      <internalNodes>
        0 -1 30432 3.3515002578496933e-02</internalNodes>
      <leafValues>
        -1.3425950706005096e-01 2.9901328682899475e-01</leafValues></_>
    <_>
      <internalNodes>
        0 -1 7623 -6.3609639182686806e-03</internalNodes>
      <leafValues>
        -5.9081608057022095e-01 9.7284637391567230e-02</leafValues></_>
    <_>
      <internalNodes>
        0 -1 68012 1.2581722810864449e-02</internalNodes>
      <leafValues>
        -1.6112722456455231e-01 3.1961259245872498e-01</leafValues></_>
    <_>
      <internalNodes>
        0 -1 73258 6.3275159336626530e-03</internalNodes>
      <leafValues>
        9.6128195524215698e-02 -6.3866132497787476e-01</leafValues></_>
    <_>
      <internalNodes>
        0 -1 1464 5.3322212770581245e-03</internalNodes>
      <leafValues>
        -1.7718598246574402e-01 2.3026224970817566e-01</leafValues></_>
    <_>
      <internalNodes>
        0 -1 73766 -2.0291088731028140e-05</internalNodes>
      <leafValues>
        -1.2207585573196411e-01 2.1591484546661377e-01</leafValues></_>
    <_>
      <internalNodes>
        0 -1 45687 -3.0303313396871090e-03</internalNodes>
      <leafValues>
        2.0329831540584564e-01 -1.9416286051273346e-01</leafValues></_>
    <_>
      <internalNodes>
        0 -1 48619 4.7898869961500168e-02</internalNodes>
      <leafValues>
        -1.4851220883429050e-02 5.0028514862060547e-01</leafValues></_>
    <_>
      <internalNodes>
        0 -1 6763 -1.1308468878269196e-02</internalNodes>
      <leafValues>
        -4.6817997097969055e-01 6.2686823308467865e-02</leafValues></_>
    <_>
      <internalNodes>
        0 -1 77610 -9.2784622684121132e-03</internalNodes>
      <leafValues>
        3.8275036215782166e-01 -1.3281728327274323e-01</leafValues></_>
    <_>
      <internalNodes>
        0 -1 75703 5.0140242092311382e-03</internalNodes>
      <leafValues>
        1.0630472749471664e-01 -4.9659365415573120e-01</leafValues></_>
    <_>
      <internalNodes>
        0 -1 63802 -3.1664788722991943e-02</internalNodes>
      <leafValues>
        1.9859948754310608e-01 -2.0147755742073059e-01</leafValues></_>
    <_>
      <internalNodes>
        0 -1 72067 3.1218642368912697e-02</internalNodes>
      <leafValues>
        7.6954737305641174e-02 -8.5039836168289185e-01</leafValues></_>
    <_>
      <internalNodes>
        0 -1 77359 -1.7658687429502606e-03</internalNodes>
      <leafValues>
        2.9901200532913208e-01 -1.0203232616186142e-01</leafValues></_>
    <_>
      <internalNodes>
        0 -1 5219 1.2578821182250977e-01</internalNodes>
      <leafValues>
        -3.4688159823417664e-02 6.7014127969741821e-01</leafValues></_>
    <_>
      <internalNodes>
        0 -1 21254 1.2311653699725866e-03</internalNodes>
      <leafValues>
        1.5987858176231384e-01 -1.7697492241859436e-01</leafValues></_>
    <_>
      <internalNodes>
        0 -1 56911 1.1290074326097965e-03</internalNodes>
      <leafValues>
        -1.9690603017807007e-01 1.9706016778945923e-01</leafValues></_>
    <_>
      <internalNodes>
        0 -1 44293 1.4148456975817680e-03</internalNodes>
      <leafValues>
        1.3760693371295929e-01 -2.5891664624214172e-01</leafValues></_>
    <_>
      <internalNodes>
        0 -1 34050 2.4941647425293922e-03</internalNodes>
      <leafValues>
        -1.5067604184150696e-01 2.7381011843681335e-01</leafValues></_>
    <_>
      <internalNodes>
        0 -1 50420 6.6397492773830891e-03</internalNodes>
      <leafValues>
        9.4415836036205292e-02 -5.9927558898925781e-01</leafValues></_>
    <_>
      <internalNodes>
        0 -1 59197 -1.0850654914975166e-02</internalNodes>
      <leafValues>
        -4.6758633852005005e-01 4.6046044677495956e-02</leafValues></_>
    <_>
      <internalNodes>
        0 -1 58799 1.1821985244750977e-02</internalNodes>
      <leafValues>
        -1.6575746238231659e-01 2.5982797145843506e-01</leafValues></_>
    <_>
      <internalNodes>
        0 -1 63215 9.4962995499372482e-03</internalNodes>
      <leafValues>
        1.1339645832777023e-01 -4.1526451706886292e-01</leafValues></_>
    <_>
      <internalNodes>
        0 -1 66201 1.3187855482101440e-02</internalNodes>
      <leafValues>
        -1.3733124732971191e-01 3.2165211439132690e-01</leafValues></_>
    <_>
      <internalNodes>
        0 -1 58595 4.5686224475502968e-03</internalNodes>
      <leafValues>
        8.5704170167446136e-02 -7.1231472492218018e-01</leafValues></_>
    <_>
      <internalNodes>
        0 -1 54690 2.3750755935907364e-03</internalNodes>
      <leafValues>
        -1.9381240010261536e-01 1.9221320748329163e-01</leafValues></_>
    <_>
      <internalNodes>
        0 -1 29225 3.5624846816062927e-02</internalNodes>
      <leafValues>
        7.0140093564987183e-02 -1.</leafValues></_>
    <_>
      <internalNodes>
        0 -1 75513 -2.0924668759107590e-02</internalNodes>
      <leafValues>
        8.0781865119934082e-01 -4.6429503709077835e-02</leafValues></_>
    <_>
      <internalNodes>
        0 -1 75896 -3.0484471935778856e-03</internalNodes>
      <leafValues>
        -1.8717396259307861e-01 1.6362591087818146e-01</leafValues></_>
    <_>
      <internalNodes>
        0 -1 14791 8.4374528378248215e-03</internalNodes>
      <leafValues>
        -1.4516870677471161e-01 2.9153347015380859e-01</leafValues></_>
    <_>
      <internalNodes>
        0 -1 25568 8.9657202363014221e-02</internalNodes>
      <leafValues>
        8.0914177000522614e-02 -8.0176663398742676e-01</leafValues></_>
    <_>
      <internalNodes>
        0 -1 76434 -6.4449212513864040e-03</internalNodes>
      <leafValues>
        2.8331470489501953e-01 -1.4892587065696716e-01</leafValues></_>
    <_>
      <internalNodes>
        0 -1 61510 6.2956623733043671e-03</internalNodes>
      <leafValues>
        1.1166994273662567e-01 -3.9077422022819519e-01</leafValues></_>
    <_>
      <internalNodes>
        0 -1 64100 8.6948287207633257e-04</internalNodes>
      <leafValues>
        -1.6235195100307465e-01 2.2076830267906189e-01</leafValues></_>
    <_>
      <internalNodes>
        0 -1 51009 1.5605065226554871e-01</internalNodes>
      <leafValues>
        7.8589722514152527e-02 -8.9503967761993408e-01</leafValues></_>
    <_>
      <internalNodes>
        0 -1 18376 1.3313127681612968e-02</internalNodes>
      <leafValues>
        -1.5415345132350922e-01 2.2053544223308563e-01</leafValues></_>
    <_>
      <internalNodes>
        0 -1 62302 3.7522186175920069e-05</internalNodes>
      <leafValues>
        1.7978067696094513e-01 -1.8156124651432037e-01</leafValues></_>
    <_>
      <internalNodes>
        0 -1 7301 -2.0133336074650288e-03</internalNodes>
      <leafValues>
        2.9483896493911743e-01 -1.3549737632274628e-01</leafValues></_>
    <_>
      <internalNodes>
        0 -1 77841 -4.1953064501285553e-03</internalNodes>
      <leafValues>
        -7.7580279111862183e-01 8.4274679422378540e-02</leafValues></_>
    <_>
      <internalNodes>
        0 -1 14824 3.0084367841482162e-02</internalNodes>
      <leafValues>
        -1.0770056396722794e-01 5.0269919633865356e-01</leafValues></_>
    <_>
      <internalNodes>
        0 -1 54577 -2.3940906976349652e-04</internalNodes>
      <leafValues>
        -1.8740683794021606e-01 1.9869691133499146e-01</leafValues></_>
    <_>
      <internalNodes>
        0 -1 54438 -1.5922645106911659e-03</internalNodes>
      <leafValues>
        1.6859585046768188e-01 -1.7667144536972046e-01</leafValues></_>
    <_>
      <internalNodes>
        0 -1 64806 3.2702878117561340e-02</internalNodes>
      <leafValues>
        -4.5135263353586197e-02 6.3976281881332397e-01</leafValues></_>
    <_>
      <internalNodes>
        0 -1 58208 -4.7840941697359085e-03</internalNodes>
      <leafValues>
        -2.3210388422012329e-01 1.1339423805475235e-01</leafValues></_>
    <_>
      <internalNodes>
        0 -1 39001 -2.6415012776851654e-02</internalNodes>
      <leafValues>
        4.7061860561370850e-01 -5.1489237695932388e-02</leafValues></_>
    <_>
      <internalNodes>
        0 -1 35197 2.7423391118645668e-02</internalNodes>
      <leafValues>
        4.0169809013605118e-02 -6.2456226348876953e-01</leafValues></_>
    <_>
      <internalNodes>
        0 -1 8395 -1.1868735775351524e-02</internalNodes>
      <leafValues>
        2.8004693984985352e-01 -9.4779007136821747e-02</leafValues></_>
    <_>
      <internalNodes>
        0 -1 8386 -1.4884350821375847e-02</internalNodes>
      <leafValues>
        4.6928304433822632e-01 -6.0272816568613052e-02</leafValues></_>
    <_>
      <internalNodes>
        0 -1 56097 -3.5433960147202015e-03</internalNodes>
      <leafValues>
        -4.1847914457321167e-01 7.0317029953002930e-02</leafValues></_>
    <_>
      <internalNodes>
        0 -1 74246 7.3796892538666725e-03</internalNodes>
      <leafValues>
        3.8791276514530182e-02 -6.5123450756072998e-01</leafValues></_>
    <_>
      <internalNodes>
        0 -1 4472 1.4355429448187351e-03</internalNodes>
      <leafValues>
        -1.2384511530399323e-01 1.9924981892108917e-01</leafValues></_>
    <_>
      <internalNodes>
        0 -1 3964 -2.6398766785860062e-02</internalNodes>
      <leafValues>
        -9.0738677978515625e-01 2.1867306903004646e-02</leafValues></_>
    <_>
      <internalNodes>
        0 -1 75483 -4.7737490385770798e-03</internalNodes>
      <leafValues>
        2.3721817135810852e-01 -1.0521207749843597e-01</leafValues></_>
    <_>
      <internalNodes>
        0 -1 31225 -2.3472275584936142e-02</internalNodes>
      <leafValues>
        -9.1477429866790771e-01 2.6444755494594574e-02</leafValues></_>
    <_>
      <internalNodes>
        0 -1 78241 7.6164975762367249e-03</internalNodes>
      <leafValues>
        2.3639313876628876e-02 -8.0085295438766479e-01</leafValues></_>
    <_>
      <internalNodes>
        0 -1 75842 -3.0414931476116180e-02</internalNodes>
      <leafValues>
        -6.5765494108200073e-01 3.1073013320565224e-02</leafValues></_>
    <_>
      <internalNodes>
        0 -1 76429 1.6278009861707687e-02</internalNodes>
      <leafValues>
        2.6970067992806435e-02 -7.7646428346633911e-01</leafValues></_>
    <_>
      <internalNodes>
        0 -1 57592 -6.0557741671800613e-03</internalNodes>
      <leafValues>
        -5.8138865232467651e-01 3.7632592022418976e-02</leafValues></_>
    <_>
      <internalNodes>
        0 -1 76539 6.0989325866103172e-03</internalNodes>
      <leafValues>
        -8.7972156703472137e-02 3.1557914614677429e-01</leafValues></_>
    <_>
      <internalNodes>
        0 -1 67715 2.1802056580781937e-02</internalNodes>
      <leafValues>
        2.7597250416874886e-02 -8.8902896642684937e-01</leafValues></_>
    <_>
      <internalNodes>
        0 -1 52657 -2.0914794877171516e-02</internalNodes>
      <leafValues>
        6.5733903646469116e-01 -4.5678030699491501e-02</leafValues></_>
    <_>
      <internalNodes>
        0 -1 48127 -2.9715644195675850e-03</internalNodes>
      <leafValues>
        -2.0688383281230927e-01 1.3958619534969330e-01</leafValues></_>
    <_>
      <internalNodes>
        0 -1 55638 -2.2343888878822327e-02</internalNodes>
      <leafValues>
        2.8141939640045166e-01 -9.4223804771900177e-02</leafValues></_>
    <_>
      <internalNodes>
        0 -1 66032 -1.0573952458798885e-03</internalNodes>
      <leafValues>
        2.4107535183429718e-01 -1.0819096863269806e-01</leafValues></_>
    <_>
      <internalNodes>
        0 -1 43762 1.2502904981374741e-02</internalNodes>
      <leafValues>
        1.1620709300041199e-01 -2.3837497830390930e-01</leafValues></_>
    <_>
      <internalNodes>
        0 -1 56406 -6.5352218225598335e-03</internalNodes>
      <leafValues>
        -5.1636558771133423e-01 5.3255420178174973e-02</leafValues></_>
    <_>
      <internalNodes>
        0 -1 66035 5.9838900342583656e-03</internalNodes>
      <leafValues>
        -5.3605213761329651e-02 5.1651835441589355e-01</leafValues></_>
    <_>
      <internalNodes>
        0 -1 77870 -1.2590126134455204e-02</internalNodes>
      <leafValues>
        3.7148377299308777e-01 -6.4790278673171997e-02</leafValues></_>
    <_>
      <internalNodes>
        0 -1 70694 1.3481400674208999e-04</internalNodes>
      <leafValues>
        1.2533591687679291e-01 -2.1198232471942902e-01</leafValues></_>
    <_>
      <internalNodes>
        0 -1 49039 2.5410531088709831e-03</internalNodes>
      <leafValues>
        -8.7103016674518585e-02 2.9530560970306396e-01</leafValues></_>
    <_>
      <internalNodes>
        0 -1 23591 7.5813896954059601e-02</internalNodes>
      <leafValues>
        3.1994052231311798e-02 -7.4738591909408569e-01</leafValues></_>
    <_>
      <internalNodes>
        0 -1 1922 9.3570481985807419e-03</internalNodes>
      <leafValues>
        7.6791375875473022e-02 -3.3069634437561035e-01</leafValues></_>
    <_>
      <internalNodes>
        0 -1 28089 -5.6302538141608238e-03</internalNodes>
      <leafValues>
        2.4812093377113342e-01 -1.0919526219367981e-01</leafValues></_>
    <_>
      <internalNodes>
        0 -1 5378 -1.1168584227561951e-02</internalNodes>
      <leafValues>
        -7.5375002622604370e-01 3.2621379941701889e-02</leafValues></_>
    <_>
      <internalNodes>
        0 -1 2 -1.0409557726234198e-03</internalNodes>
      <leafValues>
        2.3727077245712280e-01 -1.0778206586837769e-01</leafValues></_>
    <_>
      <internalNodes>
        0 -1 74872 1.3177405344322324e-04</internalNodes>
      <leafValues>
        1.4032141864299774e-01 -2.0289807021617889e-01</leafValues></_>
    <_>
      <internalNodes>
        0 -1 43260 -2.0828336477279663e-02</internalNodes>
      <leafValues>
        5.1192790269851685e-01 -4.6480670571327209e-02</leafValues></_>
    <_>
      <internalNodes>
        0 -1 22553 9.3484064564108849e-03</internalNodes>
      <leafValues>
        6.2065474689006805e-02 -4.4087034463882446e-01</leafValues></_>
    <_>
      <internalNodes>
        0 -1 616 4.3157245963811874e-02</internalNodes>
      <leafValues>
        -7.5823366641998291e-02 3.6213836073875427e-01</leafValues></_>
    <_>
      <internalNodes>
        0 -1 13643 -1.4150312636047602e-03</internalNodes>
      <leafValues>
        -2.0561937987804413e-01 1.3021595776081085e-01</leafValues></_>
    <_>
      <internalNodes>
        0 -1 9086 -3.2510226592421532e-03</internalNodes>
      <leafValues>
        3.7557214498519897e-01 -8.1427581608295441e-02</leafValues></_>
    <_>
      <internalNodes>
        0 -1 76655 8.9951080735772848e-04</internalNodes>
      <leafValues>
        -1.1376728862524033e-01 2.2449657320976257e-01</leafValues></_>
    <_>
      <internalNodes>
        0 -1 54822 1.4549048617482185e-02</internalNodes>
      <leafValues>
        3.2739769667387009e-02 -7.5650382041931152e-01</leafValues></_>
    <_>
      <internalNodes>
        0 -1 8357 3.3347763121128082e-02</internalNodes>
      <leafValues>
        2.2635916247963905e-02 -9.3100380897521973e-01</leafValues></_>
    <_>
      <internalNodes>
        0 -1 76192 3.4502735361456871e-03</internalNodes>
      <leafValues>
        -8.7830148637294769e-02 3.0682969093322754e-01</leafValues></_>
    <_>
      <internalNodes>
        0 -1 62369 7.4002577457576990e-04</internalNodes>
      <leafValues>
        9.6114717423915863e-02 -2.5751075148582458e-01</leafValues></_>
    <_>
      <internalNodes>
        0 -1 5184 7.6476112008094788e-02</internalNodes>
      <leafValues>
        5.1777336746454239e-02 -5.2648860216140747e-01</leafValues></_>
    <_>
      <internalNodes>
        0 -1 10181 2.9271548555698246e-05</internalNodes>
      <leafValues>
        1.3001963496208191e-01 -2.0725400745868683e-01</leafValues></_>
    <_>
      <internalNodes>
        0 -1 21836 -2.1916190162301064e-02</internalNodes>
      <leafValues>
        5.0616395473480225e-01 -4.5619662851095200e-02</leafValues></_>
    <_>
      <internalNodes>
        0 -1 68676 -2.0672003738582134e-03</internalNodes>
      <leafValues>
        3.4954777359962463e-01 -7.4892058968544006e-02</leafValues></_>
    <_>
      <internalNodes>
        0 -1 31710 1.1214044876396656e-02</internalNodes>
      <leafValues>
        3.1569611281156540e-02 -7.6037698984146118e-01</leafValues></_>
    <_>
      <internalNodes>
        0 -1 64411 2.1167807281017303e-02</internalNodes>
      <leafValues>
        2.8438361361622810e-02 -7.9754179716110229e-01</leafValues></_>
    <_>
      <internalNodes>
        0 -1 68758 9.5354132354259491e-03</internalNodes>
      <leafValues>
        -7.4630066752433777e-02 3.8133534789085388e-01</leafValues></_>
    <_>
      <internalNodes>
        0 -1 67319 -3.5879276692867279e-02</internalNodes>
      <leafValues>
        3.9929610490798950e-01 -7.3249921202659607e-02</leafValues></_></weakClassifiers></stage4>
</opencv_storage>
