<?xml version="1.0"?>
<opencv_storage>
<stage6>
  <maxWeakCount>100</maxWeakCount>
  <stageThreshold>-2.5546243190765381e+00</stageThreshold>
  <weakClassifiers>
    <_>
      <internalNodes>
        0 -1 9244 -5.0970661686733365e-04</internalNodes>
      <leafValues>
        -2.5681492686271667e-01 -7.1341460943222046e-01</leafValues></_>
    <_>
      <internalNodes>
        0 -1 58830 -5.4888403974473476e-04</internalNodes>
      <leafValues>
        1.6525770723819733e-01 -3.2588016986846924e-01</leafValues></_>
    <_>
      <internalNodes>
        0 -1 56551 4.0000136941671371e-03</internalNodes>
      <leafValues>
        -2.0976094901561737e-01 3.2683065533638000e-01</leafValues></_>
    <_>
      <internalNodes>
        0 -1 8967 8.8368006981909275e-04</internalNodes>
      <leafValues>
        -1.6106721758842468e-01 3.0167111754417419e-01</leafValues></_>
    <_>
      <internalNodes>
        0 -1 58135 -5.8411257341504097e-03</internalNodes>
      <leafValues>
        2.6188516616821289e-01 -1.6227245330810547e-01</leafValues></_>
    <_>
      <internalNodes>
        0 -1 2226 -2.1832077763974667e-03</internalNodes>
      <leafValues>
        2.8051978349685669e-01 -1.4257149398326874e-01</leafValues></_>
    <_>
      <internalNodes>
        0 -1 38966 -1.0034905280917883e-03</internalNodes>
      <leafValues>
        2.3741844296455383e-01 -1.6666224598884583e-01</leafValues></_>
    <_>
      <internalNodes>
        0 -1 52921 3.3834323287010193e-02</internalNodes>
      <leafValues>
        8.7117478251457214e-02 -8.2983601093292236e-01</leafValues></_>
    <_>
      <internalNodes>
        0 -1 66098 -2.1351119503378868e-03</internalNodes>
      <leafValues>
        1.8233656883239746e-01 -2.0825567841529846e-01</leafValues></_>
    <_>
      <internalNodes>
        0 -1 12451 -6.2380671501159668e-02</internalNodes>
      <leafValues>
        -3.7891748547554016e-01 1.1997145414352417e-01</leafValues></_>
    <_>
      <internalNodes>
        0 -1 76367 4.6083331108093262e-03</internalNodes>
      <leafValues>
        -1.6420720517635345e-01 2.7361705899238586e-01</leafValues></_>
    <_>
      <internalNodes>
        0 -1 38553 -1.2827273458242416e-02</internalNodes>
      <leafValues>
        -7.2069561481475830e-01 9.0102270245552063e-02</leafValues></_>
    <_>
      <internalNodes>
        0 -1 50476 -2.7630772441625595e-02</internalNodes>
      <leafValues>
        7.1437448263168335e-01 -5.4260913282632828e-02</leafValues></_>
    <_>
      <internalNodes>
        0 -1 40749 -1.8319960683584213e-02</internalNodes>
      <leafValues>
        -3.0368515849113464e-01 1.0485573112964630e-01</leafValues></_>
    <_>
      <internalNodes>
        0 -1 55385 -2.6746243238449097e-03</internalNodes>
      <leafValues>
        2.2041179239749908e-01 -1.8932467699050903e-01</leafValues></_>
    <_>
      <internalNodes>
        0 -1 44768 2.4406980723142624e-02</internalNodes>
      <leafValues>
        7.7937081456184387e-02 -1.</leafValues></_>
    <_>
      <internalNodes>
        0 -1 54578 4.9185724928975105e-03</internalNodes>
      <leafValues>
        -1.2485422194004059e-01 4.7769728302955627e-01</leafValues></_>
    <_>
      <internalNodes>
        0 -1 10244 -3.7686504423618317e-02</internalNodes>
      <leafValues>
        -7.4957716464996338e-01 8.9264191687107086e-02</leafValues></_>
    <_>
      <internalNodes>
        0 -1 76370 8.5357455536723137e-03</internalNodes>
      <leafValues>
        -1.3854086399078369e-01 3.8402736186981201e-01</leafValues></_>
    <_>
      <internalNodes>
        0 -1 62503 4.1355744004249573e-02</internalNodes>
      <leafValues>
        -4.8165298067033291e-03 5.6458485126495361e-01</leafValues></_>
    <_>
      <internalNodes>
        0 -1 74970 6.1821928247809410e-03</internalNodes>
      <leafValues>
        5.3228795528411865e-02 -5.8493590354919434e-01</leafValues></_>
    <_>
      <internalNodes>
        0 -1 77785 -7.4150273576378822e-04</internalNodes>
      <leafValues>
        1.9081963598728180e-01 -1.5134245157241821e-01</leafValues></_>
    <_>
      <internalNodes>
        0 -1 24540 2.7400738326832652e-04</internalNodes>
      <leafValues>
        1.7738726735115051e-01 -1.6593146324157715e-01</leafValues></_>
    <_>
      <internalNodes>
        0 -1 45026 -9.0446922695264220e-04</internalNodes>
      <leafValues>
        2.1049450337886810e-01 -1.8130002915859222e-01</leafValues></_>
    <_>
      <internalNodes>
        0 -1 74363 -4.3138898909091949e-03</internalNodes>
      <leafValues>
        -6.3233011960983276e-01 9.1338731348514557e-02</leafValues></_>
    <_>
      <internalNodes>
        0 -1 75029 6.6256052814424038e-03</internalNodes>
      <leafValues>
        -7.8365482389926910e-02 4.4009697437286377e-01</leafValues></_>
    <_>
      <internalNodes>
        0 -1 74362 2.9137008823454380e-03</internalNodes>
      <leafValues>
        6.6744633018970490e-02 -5.0128692388534546e-01</leafValues></_>
    <_>
      <internalNodes>
        0 -1 22030 -8.7773449718952179e-02</internalNodes>
      <leafValues>
        -9.7007495164871216e-01 2.1164484322071075e-02</leafValues></_>
    <_>
      <internalNodes>
        0 -1 65203 1.5095286071300507e-03</internalNodes>
      <leafValues>
        -1.6771353781223297e-01 2.4769526720046997e-01</leafValues></_>
    <_>
      <internalNodes>
        0 -1 74271 1.3763754395768046e-04</internalNodes>
      <leafValues>
        2.1872782707214355e-01 -1.4685519039630890e-01</leafValues></_>
    <_>
      <internalNodes>
        0 -1 46175 -7.6801935210824013e-04</internalNodes>
      <leafValues>
        1.5813191235065460e-01 -2.0528869330883026e-01</leafValues></_>
    <_>
      <internalNodes>
        0 -1 14263 1.3011857867240906e-02</internalNodes>
      <leafValues>
        1.8416635692119598e-01 -1.8376323580741882e-01</leafValues></_>
    <_>
      <internalNodes>
        0 -1 14015 -1.3201571069657803e-02</internalNodes>
      <leafValues>
        2.5279173254966736e-01 -1.6279487311840057e-01</leafValues></_>
    <_>
      <internalNodes>
        0 -1 70669 -4.1887894272804260e-02</internalNodes>
      <leafValues>
        4.1357615590095520e-01 -7.5544141232967377e-02</leafValues></_>
    <_>
      <internalNodes>
        0 -1 46632 1.6133822500705719e-02</internalNodes>
      <leafValues>
        1.8635874986648560e-01 -1.8688340485095978e-01</leafValues></_>
    <_>
      <internalNodes>
        0 -1 36469 3.8203246891498566e-02</internalNodes>
      <leafValues>
        -2.0052570104598999e-01 1.6531613469123840e-01</leafValues></_>
    <_>
      <internalNodes>
        0 -1 17531 -2.0854683592915535e-02</internalNodes>
      <leafValues>
        -8.1071132421493530e-01 7.8611604869365692e-02</leafValues></_>
    <_>
      <internalNodes>
        0 -1 62417 8.4158480167388916e-03</internalNodes>
      <leafValues>
        -1.2798446416854858e-01 3.8863945007324219e-01</leafValues></_>
    <_>
      <internalNodes>
        0 -1 64361 1.4029821613803506e-04</internalNodes>
      <leafValues>
        2.0396783947944641e-01 -1.4923381805419922e-01</leafValues></_>
    <_>
      <internalNodes>
        0 -1 62252 -2.0649624057114124e-03</internalNodes>
      <leafValues>
        2.1847549080848694e-01 -1.8263515830039978e-01</leafValues></_>
    <_>
      <internalNodes>
        0 -1 74473 1.0965235996991396e-03</internalNodes>
      <leafValues>
        -1.0172721743583679e-01 3.0006414651870728e-01</leafValues></_>
    <_>
      <internalNodes>
        0 -1 49227 9.0528017608448863e-04</internalNodes>
      <leafValues>
        2.5162428617477417e-01 -1.6479583084583282e-01</leafValues></_>
    <_>
      <internalNodes>
        0 -1 39150 -9.8190328571945429e-04</internalNodes>
      <leafValues>
        2.0933865010738373e-01 -1.8255780637264252e-01</leafValues></_>
    <_>
      <internalNodes>
        0 -1 18416 -1.2384531088173389e-02</internalNodes>
      <leafValues>
        2.8759855031967163e-01 -1.1410806328058243e-01</leafValues></_>
    <_>
      <internalNodes>
        0 -1 71310 2.8020692989230156e-03</internalNodes>
      <leafValues>
        2.2033432126045227e-01 -1.7124019563198090e-01</leafValues></_>
    <_>
      <internalNodes>
        0 -1 13864 8.7776422500610352e-02</internalNodes>
      <leafValues>
        -9.3818627297878265e-02 7.6410341262817383e-01</leafValues></_>
    <_>
      <internalNodes>
        0 -1 35254 1.9427821040153503e-01</internalNodes>
      <leafValues>
        -4.8143621534109116e-02 5.7213270664215088e-01</leafValues></_>
    <_>
      <internalNodes>
        0 -1 72126 4.2152740061283112e-02</internalNodes>
      <leafValues>
        -7.2043284773826599e-02 4.1732203960418701e-01</leafValues></_>
    <_>
      <internalNodes>
        0 -1 61254 2.3159596821642481e-05</internalNodes>
      <leafValues>
        2.2403213381767273e-01 -1.5460850298404694e-01</leafValues></_>
    <_>
      <internalNodes>
        0 -1 72954 -5.2955187857151031e-03</internalNodes>
      <leafValues>
        2.9123264551162720e-01 -1.2997223436832428e-01</leafValues></_>
    <_>
      <internalNodes>
        0 -1 65535 -5.5255331099033356e-03</internalNodes>
      <leafValues>
        -6.7474269866943359e-01 3.9815261960029602e-02</leafValues></_>
    <_>
      <internalNodes>
        0 -1 62588 -1.2373104691505432e-01</internalNodes>
      <leafValues>
        -7.0685416460037231e-01 3.1933855265378952e-02</leafValues></_>
    <_>
      <internalNodes>
        0 -1 76851 2.3728292435407639e-03</internalNodes>
      <leafValues>
        -1.0674194991588593e-01 2.6179513335227966e-01</leafValues></_>
    <_>
      <internalNodes>
        0 -1 78370 -5.1858481019735336e-03</internalNodes>
      <leafValues>
        -6.6086512804031372e-01 3.8901861757040024e-02</leafValues></_>
    <_>
      <internalNodes>
        0 -1 71944 2.9173862189054489e-02</internalNodes>
      <leafValues>
        -7.3854364454746246e-02 3.6504718661308289e-01</leafValues></_>
    <_>
      <internalNodes>
        0 -1 11946 1.3302927836775780e-02</internalNodes>
      <leafValues>
        4.8118907958269119e-02 -5.2999198436737061e-01</leafValues></_>
    <_>
      <internalNodes>
        0 -1 23695 -1.0458719730377197e-01</internalNodes>
      <leafValues>
        -7.2227305173873901e-01 3.2351601868867874e-02</leafValues></_>
    <_>
      <internalNodes>
        0 -1 39972 3.7334796041250229e-02</internalNodes>
      <leafValues>
        -8.1458680331707001e-02 3.6589106917381287e-01</leafValues></_>
    <_>
      <internalNodes>
        0 -1 14743 1.3158224523067474e-02</internalNodes>
      <leafValues>
        4.6734455972909927e-02 -5.8560985326766968e-01</leafValues></_>
    <_>
      <internalNodes>
        0 -1 46483 -1.9012615084648132e-03</internalNodes>
      <leafValues>
        3.2317957282066345e-01 -8.4060221910476685e-02</leafValues></_>
    <_>
      <internalNodes>
        0 -1 21674 5.9505261015146971e-04</internalNodes>
      <leafValues>
        1.4377348124980927e-01 -1.7572380602359772e-01</leafValues></_>
    <_>
      <internalNodes>
        0 -1 10232 1.4316313900053501e-03</internalNodes>
      <leafValues>
        -1.0791023075580597e-01 2.4148115515708923e-01</leafValues></_>
    <_>
      <internalNodes>
        0 -1 58359 1.0413166135549545e-02</internalNodes>
      <leafValues>
        -5.6758686900138855e-02 4.3907424807548523e-01</leafValues></_>
    <_>
      <internalNodes>
        0 -1 9878 -6.8478784523904324e-03</internalNodes>
      <leafValues>
        -2.4359937012195587e-01 1.0535274446010590e-01</leafValues></_>
    <_>
      <internalNodes>
        0 -1 44294 -1.9859978929162025e-03</internalNodes>
      <leafValues>
        2.7970531582832336e-01 -8.8427752256393433e-02</leafValues></_>
    <_>
      <internalNodes>
        0 -1 51188 -1.2553951144218445e-01</internalNodes>
      <leafValues>
        6.6898375749588013e-01 -3.8523908704519272e-02</leafValues></_>
    <_>
      <internalNodes>
        0 -1 45412 1.4304261421784759e-03</internalNodes>
      <leafValues>
        1.1384248733520508e-01 -2.1771118044853210e-01</leafValues></_>
    <_>
      <internalNodes>
        0 -1 61042 -9.9861547350883484e-03</internalNodes>
      <leafValues>
        2.6275473833084106e-01 -1.0495276004076004e-01</leafValues></_>
    <_>
      <internalNodes>
        0 -1 30545 1.9850540161132812e-01</internalNodes>
      <leafValues>
        3.5276591777801514e-02 -6.8154054880142212e-01</leafValues></_>
    <_>
      <internalNodes>
        0 -1 44489 2.7854680083692074e-03</internalNodes>
      <leafValues>
        -6.7049995064735413e-02 4.0649011731147766e-01</leafValues></_>
    <_>
      <internalNodes>
        0 -1 13878 -3.8077153731137514e-03</internalNodes>
      <leafValues>
        -5.3050732612609863e-01 4.5557722449302673e-02</leafValues></_>
    <_>
      <internalNodes>
        0 -1 64349 -1.9507527351379395e-02</internalNodes>
      <leafValues>
        -8.8635933399200439e-01 2.3542882874608040e-02</leafValues></_>
    <_>
      <internalNodes>
        0 -1 46905 -7.2528831660747528e-03</internalNodes>
      <leafValues>
        2.4886934459209442e-01 -9.7079895436763763e-02</leafValues></_>
    <_>
      <internalNodes>
        0 -1 54577 -1.1104140139650553e-04</internalNodes>
      <leafValues>
        -2.0352914929389954e-01 1.1996466666460037e-01</leafValues></_>
    <_>
      <internalNodes>
        0 -1 65980 -1.8248090147972107e-01</internalNodes>
      <leafValues>
        4.6904197335243225e-01 -4.5847248286008835e-02</leafValues></_>
    <_>
      <internalNodes>
        0 -1 59004 -3.1566046178340912e-02</internalNodes>
      <leafValues>
        -3.7855085730552673e-01 7.4906602501869202e-02</leafValues></_>
    <_>
      <internalNodes>
        0 -1 19161 -1.4358878135681152e-01</internalNodes>
      <leafValues>
        3.8237982988357544e-01 -6.3370667397975922e-02</leafValues></_>
    <_>
      <internalNodes>
        0 -1 66279 1.7780840396881104e-01</internalNodes>
      <leafValues>
        3.4121830016374588e-02 -7.6405370235443115e-01</leafValues></_>
    <_>
      <internalNodes>
        0 -1 19256 3.1670723110437393e-03</internalNodes>
      <leafValues>
        -9.2775627970695496e-02 2.7662038803100586e-01</leafValues></_>
    <_>
      <internalNodes>
        0 -1 10193 6.5098702907562256e-03</internalNodes>
      <leafValues>
        9.1413952410221100e-02 -2.5160732865333557e-01</leafValues></_>
    <_>
      <internalNodes>
        0 -1 3354 -2.9797526076436043e-03</internalNodes>
      <leafValues>
        -2.2725614905357361e-01 1.0891525447368622e-01</leafValues></_>
    <_>
      <internalNodes>
        0 -1 48521 6.3386233523488045e-03</internalNodes>
      <leafValues>
        -6.9158241152763367e-02 3.6831089854240417e-01</leafValues></_>
    <_>
      <internalNodes>
        0 -1 46511 -3.2854308374226093e-03</internalNodes>
      <leafValues>
        2.3014657199382782e-01 -1.2697939574718475e-01</leafValues></_>
    <_>
      <internalNodes>
        0 -1 78298 4.8371478915214539e-03</internalNodes>
      <leafValues>
        4.3642926961183548e-02 -5.4966479539871216e-01</leafValues></_>
    <_>
      <internalNodes>
        0 -1 40559 1.2913713231682777e-02</internalNodes>
      <leafValues>
        3.2685313373804092e-02 -6.4114177227020264e-01</leafValues></_>
    <_>
      <internalNodes>
        0 -1 71913 -3.5395763814449310e-02</internalNodes>
      <leafValues>
        -7.7952134609222412e-01 2.5033514946699142e-02</leafValues></_>
    <_>
      <internalNodes>
        0 -1 6739 -8.0744149163365364e-03</internalNodes>
      <leafValues>
        4.9673643708229065e-01 -4.8323798924684525e-02</leafValues></_>
    <_>
      <internalNodes>
        0 -1 12965 1.1213283985853195e-02</internalNodes>
      <leafValues>
        4.8108011484146118e-02 -6.3488125801086426e-01</leafValues></_>
    <_>
      <internalNodes>
        0 -1 17747 7.1657538414001465e-02</internalNodes>
      <leafValues>
        -4.6483442187309265e-02 5.3300154209136963e-01</leafValues></_>
    <_>
      <internalNodes>
        0 -1 47939 1.3859890401363373e-02</internalNodes>
      <leafValues>
        3.9650768041610718e-02 -6.8601083755493164e-01</leafValues></_>
    <_>
      <internalNodes>
        0 -1 12613 -5.3880964405834675e-03</internalNodes>
      <leafValues>
        2.7494680881500244e-01 -9.0106822550296783e-02</leafValues></_>
    <_>
      <internalNodes>
        0 -1 68900 -2.2479081526398659e-03</internalNodes>
      <leafValues>
        -2.6137301325798035e-01 8.9697986841201782e-02</leafValues></_>
    <_>
      <internalNodes>
        0 -1 62736 4.8066494055092335e-03</internalNodes>
      <leafValues>
        -6.4062505960464478e-02 3.5015052556991577e-01</leafValues></_>
    <_>
      <internalNodes>
        0 -1 67296 -1.5087241306900978e-02</internalNodes>
      <leafValues>
        -9.1708058118820190e-01 2.7544965967535973e-02</leafValues></_>
    <_>
      <internalNodes>
        0 -1 12832 2.6842229068279266e-02</internalNodes>
      <leafValues>
        2.2072594612836838e-02 -8.1527101993560791e-01</leafValues></_>
    <_>
      <internalNodes>
        0 -1 55136 1.1775381863117218e-02</internalNodes>
      <leafValues>
        -3.0527286231517792e-02 8.5557830333709717e-01</leafValues></_>
    <_>
      <internalNodes>
        0 -1 14339 -3.0624354258179665e-03</internalNodes>
      <leafValues>
        -2.1669080853462219e-01 1.0362771153450012e-01</leafValues></_>
    <_>
      <internalNodes>
        0 -1 58998 1.1983012780547142e-02</internalNodes>
      <leafValues>
        -5.8295011520385742e-02 3.7967082858085632e-01</leafValues></_>
    <_>
      <internalNodes>
        0 -1 60801 -1.9977530464529991e-03</internalNodes>
      <leafValues>
        2.3376207053661346e-01 -1.1528955399990082e-01</leafValues></_>
    <_>
      <internalNodes>
        0 -1 70882 -3.2816911698319018e-04</internalNodes>
      <leafValues>
        -1.8034383654594421e-01 1.3164521753787994e-01</leafValues></_></weakClassifiers></stage6>
</opencv_storage>
