<?xml version="1.0"?>
<opencv_storage>
<stage8>
  <maxWeakCount>100</maxWeakCount>
  <stageThreshold>-2.5100901126861572e+00</stageThreshold>
  <weakClassifiers>
    <_>
      <internalNodes>
        0 -1 6925 -7.9656904563307762e-04</internalNodes>
      <leafValues>
        -2.3743501305580139e-01 -6.5721648931503296e-01</leafValues></_>
    <_>
      <internalNodes>
        0 -1 72002 -8.7973705376498401e-05</internalNodes>
      <leafValues>
        1.1740311980247498e-01 -3.6861056089401245e-01</leafValues></_>
    <_>
      <internalNodes>
        0 -1 63804 2.0333565771579742e-02</internalNodes>
      <leafValues>
        -1.2988176941871643e-01 4.1693779826164246e-01</leafValues></_>
    <_>
      <internalNodes>
        0 -1 66951 3.0287848785519600e-03</internalNodes>
      <leafValues>
        -1.7365688085556030e-01 2.5052446126937866e-01</leafValues></_>
    <_>
      <internalNodes>
        0 -1 67084 -1.2147577945142984e-03</internalNodes>
      <leafValues>
        2.8999850153923035e-01 -1.6168771684169769e-01</leafValues></_>
    <_>
      <internalNodes>
        0 -1 10171 8.7187755852937698e-03</internalNodes>
      <leafValues>
        -1.8808165192604065e-01 1.9815461337566376e-01</leafValues></_>
    <_>
      <internalNodes>
        0 -1 28061 -2.0397650077939034e-03</internalNodes>
      <leafValues>
        2.8784942626953125e-01 -1.3100935518741608e-01</leafValues></_>
    <_>
      <internalNodes>
        0 -1 78437 3.3538411371409893e-03</internalNodes>
      <leafValues>
        -2.8761100023984909e-02 3.7305971980094910e-01</leafValues></_>
    <_>
      <internalNodes>
        0 -1 63287 -1.6929309815168381e-02</internalNodes>
      <leafValues>
        2.7732902765274048e-01 -8.9247629046440125e-02</leafValues></_>
    <_>
      <internalNodes>
        0 -1 66007 4.1532933712005615e-02</internalNodes>
      <leafValues>
        -1.2379738688468933e-01 2.1633993089199066e-01</leafValues></_>
    <_>
      <internalNodes>
        0 -1 68935 -3.9529584348201752e-02</internalNodes>
      <leafValues>
        -6.2375760078430176e-01 4.5700669288635254e-02</leafValues></_>
    <_>
      <internalNodes>
        0 -1 49781 8.4888525307178497e-03</internalNodes>
      <leafValues>
        2.4104656651616096e-02 -7.5964176654815674e-01</leafValues></_>
    <_>
      <internalNodes>
        0 -1 77311 4.8493240028619766e-03</internalNodes>
      <leafValues>
        -9.0326897799968719e-02 2.7495720982551575e-01</leafValues></_>
    <_>
      <internalNodes>
        0 -1 49697 7.9643707722425461e-03</internalNodes>
      <leafValues>
        5.6328814476728439e-02 -4.4525575637817383e-01</leafValues></_>
    <_>
      <internalNodes>
        0 -1 39159 -3.3622700721025467e-03</internalNodes>
      <leafValues>
        2.6790192723274231e-01 -1.0265032202005386e-01</leafValues></_>
    <_>
      <internalNodes>
        0 -1 21225 -3.2063475373433903e-05</internalNodes>
      <leafValues>
        -1.6880306601524353e-01 1.6111122071743011e-01</leafValues></_>
    <_>
      <internalNodes>
        0 -1 9605 -5.2273587789386511e-04</internalNodes>
      <leafValues>
        1.8235725164413452e-01 -1.3899542391300201e-01</leafValues></_>
    <_>
      <internalNodes>
        0 -1 45779 -6.8092539906501770e-02</internalNodes>
      <leafValues>
        -4.2308494448661804e-01 6.2762700021266937e-02</leafValues></_>
    <_>
      <internalNodes>
        0 -1 59682 2.7807932347059250e-02</internalNodes>
      <leafValues>
        2.4878099560737610e-02 -8.1102526187896729e-01</leafValues></_>
    <_>
      <internalNodes>
        0 -1 6 -3.9618983864784241e-03</internalNodes>
      <leafValues>
        3.2450532913208008e-01 -7.6970174908638000e-02</leafValues></_>
    <_>
      <internalNodes>
        0 -1 680 7.9752631485462189e-02</internalNodes>
      <leafValues>
        -5.7790707796812057e-02 4.1270124912261963e-01</leafValues></_>
    <_>
      <internalNodes>
        0 -1 69528 1.7717335373163223e-02</internalNodes>
      <leafValues>
        7.7888131141662598e-02 -3.1346103549003601e-01</leafValues></_>
    <_>
      <internalNodes>
        0 -1 47910 1.1382794473320246e-03</internalNodes>
      <leafValues>
        1.3963004946708679e-01 -1.8726174533367157e-01</leafValues></_>
    <_>
      <internalNodes>
        0 -1 52934 4.7095154877752066e-04</internalNodes>
      <leafValues>
        -1.9120638072490692e-01 1.7763192951679230e-01</leafValues></_>
    <_>
      <internalNodes>
        0 -1 27207 4.2349699884653091e-02</internalNodes>
      <leafValues>
        -2.3030573502182961e-02 4.0722730755805969e-01</leafValues></_>
    <_>
      <internalNodes>
        0 -1 73243 9.9789611995220184e-03</internalNodes>
      <leafValues>
        5.9202611446380615e-02 -4.7779971361160278e-01</leafValues></_>
    <_>
      <internalNodes>
        0 -1 54330 -6.8989917635917664e-03</internalNodes>
      <leafValues>
        5.9990561008453369e-01 -5.0911702215671539e-02</leafValues></_>
    <_>
      <internalNodes>
        0 -1 77883 6.0096986591815948e-02</internalNodes>
      <leafValues>
        -2.7706654742360115e-02 7.6278424263000488e-01</leafValues></_>
    <_>
      <internalNodes>
        0 -1 15196 -2.3455163836479187e-01</internalNodes>
      <leafValues>
        -8.8766670227050781e-01 3.5233434289693832e-02</leafValues></_>
    <_>
      <internalNodes>
        0 -1 38966 1.4972270000725985e-03</internalNodes>
      <leafValues>
        8.8960856199264526e-02 -2.5347334146499634e-01</leafValues></_>
    <_>
      <internalNodes>
        0 -1 72430 3.5325791686773300e-03</internalNodes>
      <leafValues>
        -1.5480378270149231e-01 2.3840884864330292e-01</leafValues></_>
    <_>
      <internalNodes>
        0 -1 63721 -4.0588304400444031e-02</internalNodes>
      <leafValues>
        -4.2126578092575073e-01 1.1057397723197937e-01</leafValues></_>
    <_>
      <internalNodes>
        0 -1 76964 -1.2527314014732838e-02</internalNodes>
      <leafValues>
        3.4647974371910095e-01 -1.2928332388401031e-01</leafValues></_>
    <_>
      <internalNodes>
        0 -1 75327 1.9796723790932447e-05</internalNodes>
      <leafValues>
        1.9647404551506042e-01 -1.2053715437650681e-01</leafValues></_>
    <_>
      <internalNodes>
        0 -1 54352 -7.0566842332482338e-03</internalNodes>
      <leafValues>
        2.7226150035858154e-01 -1.6188676655292511e-01</leafValues></_>
    <_>
      <internalNodes>
        0 -1 10755 -7.8244376927614212e-03</internalNodes>
      <leafValues>
        2.4099306762218475e-01 -1.2088935822248459e-01</leafValues></_>
    <_>
      <internalNodes>
        0 -1 21592 -1.0609821765683591e-04</internalNodes>
      <leafValues>
        -1.4303940534591675e-01 1.9409132003784180e-01</leafValues></_>
    <_>
      <internalNodes>
        0 -1 50753 -3.1943190842866898e-03</internalNodes>
      <leafValues>
        2.1800954639911652e-01 -1.7256079614162445e-01</leafValues></_>
    <_>
      <internalNodes>
        0 -1 59046 -2.2443304769694805e-03</internalNodes>
      <leafValues>
        -1.5163010358810425e-01 1.8949513137340546e-01</leafValues></_>
    <_>
      <internalNodes>
        0 -1 65969 2.4609971791505814e-02</internalNodes>
      <leafValues>
        -1.3142675161361694e-01 3.7221792340278625e-01</leafValues></_>
    <_>
      <internalNodes>
        0 -1 9174 -2.6657067239284515e-02</internalNodes>
      <leafValues>
        2.6995894312858582e-01 -1.1747506260871887e-01</leafValues></_>
    <_>
      <internalNodes>
        0 -1 27878 -8.0869402736425400e-03</internalNodes>
      <leafValues>
        -1.4400321245193481e-01 1.8017278611660004e-01</leafValues></_>
    <_>
      <internalNodes>
        0 -1 6575 -5.8466587215662003e-02</internalNodes>
      <leafValues>
        2.2961230576038361e-01 -1.6405072808265686e-01</leafValues></_>
    <_>
      <internalNodes>
        0 -1 10485 -3.2016607001423836e-03</internalNodes>
      <leafValues>
        -1.6524535417556763e-01 1.9426368176937103e-01</leafValues></_>
    <_>
      <internalNodes>
        0 -1 15455 -2.3623155429959297e-03</internalNodes>
      <leafValues>
        2.1268853545188904e-01 -1.7852626740932465e-01</leafValues></_>
    <_>
      <internalNodes>
        0 -1 57419 1.6520060598850250e-02</internalNodes>
      <leafValues>
        -7.6837874948978424e-02 3.7456953525543213e-01</leafValues></_>
    <_>
      <internalNodes>
        0 -1 75386 2.5684349238872528e-02</internalNodes>
      <leafValues>
        -5.5474553257226944e-02 4.6411722898483276e-01</leafValues></_>
    <_>
      <internalNodes>
        0 -1 9333 4.3882685713469982e-04</internalNodes>
      <leafValues>
        2.2254492342472076e-01 -1.3964493572711945e-01</leafValues></_>
    <_>
      <internalNodes>
        0 -1 72582 1.2638319749385118e-03</internalNodes>
      <leafValues>
        -1.7870768904685974e-01 1.8075512349605560e-01</leafValues></_>
    <_>
      <internalNodes>
        0 -1 34050 1.6388522926717997e-03</internalNodes>
      <leafValues>
        -1.0826048254966736e-01 2.4056121706962585e-01</leafValues></_>
    <_>
      <internalNodes>
        0 -1 27683 8.0953366705216467e-05</internalNodes>
      <leafValues>
        2.2736379504203796e-01 -1.7117694020271301e-01</leafValues></_>
    <_>
      <internalNodes>
        0 -1 5411 4.2134704999625683e-03</internalNodes>
      <leafValues>
        -1.8715919554233551e-01 1.4754731953144073e-01</leafValues></_>
    <_>
      <internalNodes>
        0 -1 65622 1.4632221311330795e-02</internalNodes>
      <leafValues>
        -6.6321067512035370e-02 4.2555847764015198e-01</leafValues></_>
    <_>
      <internalNodes>
        0 -1 63349 -5.1915897056460381e-03</internalNodes>
      <leafValues>
        -2.6342913508415222e-01 1.4807350933551788e-01</leafValues></_>
    <_>
      <internalNodes>
        0 -1 58626 2.4929501116275787e-02</internalNodes>
      <leafValues>
        -9.5265269279479980e-02 4.8739913105964661e-01</leafValues></_>
    <_>
      <internalNodes>
        0 -1 37374 -9.8420940339565277e-03</internalNodes>
      <leafValues>
        2.1030589938163757e-01 -1.3941192626953125e-01</leafValues></_>
    <_>
      <internalNodes>
        0 -1 64106 -7.2067007422447205e-03</internalNodes>
      <leafValues>
        -5.6603449583053589e-01 1.0676307976245880e-01</leafValues></_>
    <_>
      <internalNodes>
        0 -1 19431 4.9227718263864517e-02</internalNodes>
      <leafValues>
        -1.2877251207828522e-01 2.6853886246681213e-01</leafValues></_>
    <_>
      <internalNodes>
        0 -1 74175 -2.0023676916025579e-04</internalNodes>
      <leafValues>
        -1.4723375439643860e-01 2.1930377185344696e-01</leafValues></_>
    <_>
      <internalNodes>
        0 -1 65718 -1.7569050192832947e-02</internalNodes>
      <leafValues>
        6.9327074289321899e-01 -8.4121257066726685e-02</leafValues></_>
    <_>
      <internalNodes>
        0 -1 71779 -7.4314055964350700e-03</internalNodes>
      <leafValues>
        1.8211419880390167e-01 -1.3675589859485626e-01</leafValues></_>
    <_>
      <internalNodes>
        0 -1 34246 -4.4586489821085706e-05</internalNodes>
      <leafValues>
        -1.4846220612525940e-01 2.2578291594982147e-01</leafValues></_>
    <_>
      <internalNodes>
        0 -1 63386 -1.9676620140671730e-03</internalNodes>
      <leafValues>
        1.9211421906948090e-01 -1.4704512059688568e-01</leafValues></_>
    <_>
      <internalNodes>
        0 -1 74386 -1.1190053075551987e-02</internalNodes>
      <leafValues>
        -5.1596719026565552e-01 4.6552646905183792e-02</leafValues></_>
    <_>
      <internalNodes>
        0 -1 37895 -6.6482588648796082e-02</internalNodes>
      <leafValues>
        5.8788943290710449e-01 -4.1663251817226410e-02</leafValues></_>
    <_>
      <internalNodes>
        0 -1 9080 -7.4853248894214630e-02</internalNodes>
      <leafValues>
        -5.3510034084320068e-01 4.6027690172195435e-02</leafValues></_>
    <_>
      <internalNodes>
        0 -1 45282 1.8560546450316906e-03</internalNodes>
      <leafValues>
        -1.0261674225330353e-01 2.2416490316390991e-01</leafValues></_>
    <_>
      <internalNodes>
        0 -1 35877 3.9763130247592926e-02</internalNodes>
      <leafValues>
        3.3927127718925476e-02 -6.3849711418151855e-01</leafValues></_>
    <_>
      <internalNodes>
        0 -1 26499 1.4111422933638096e-03</internalNodes>
      <leafValues>
        -1.2015068531036377e-01 1.9110150635242462e-01</leafValues></_>
    <_>
      <internalNodes>
        0 -1 48229 2.0435962826013565e-02</internalNodes>
      <leafValues>
        3.0242124572396278e-02 -6.7094349861145020e-01</leafValues></_>
    <_>
      <internalNodes>
        0 -1 47490 3.8383461534976959e-02</internalNodes>
      <leafValues>
        -5.6859582662582397e-02 4.3904867768287659e-01</leafValues></_>
    <_>
      <internalNodes>
        0 -1 42232 -2.2464254871010780e-03</internalNodes>
      <leafValues>
        -2.0120504498481750e-01 1.3556237518787384e-01</leafValues></_>
    <_>
      <internalNodes>
        0 -1 26466 -1.8115721177309752e-03</internalNodes>
      <leafValues>
        2.2556677460670471e-01 -1.0837880522012711e-01</leafValues></_>
    <_>
      <internalNodes>
        0 -1 56442 -4.8817591741681099e-03</internalNodes>
      <leafValues>
        -2.1103960275650024e-01 1.2823854386806488e-01</leafValues></_>
    <_>
      <internalNodes>
        0 -1 22392 -4.9363747239112854e-03</internalNodes>
      <leafValues>
        2.1882674098014832e-01 -1.0188855975866318e-01</leafValues></_>
    <_>
      <internalNodes>
        0 -1 39024 1.3391975313425064e-02</internalNodes>
      <leafValues>
        1.0030613839626312e-01 -2.4555034935474396e-01</leafValues></_>
    <_>
      <internalNodes>
        0 -1 38998 -2.0493293181061745e-02</internalNodes>
      <leafValues>
        -4.5993527770042419e-01 6.0601383447647095e-02</leafValues></_>
    <_>
      <internalNodes>
        0 -1 48247 -2.0414115861058235e-02</internalNodes>
      <leafValues>
        4.4698044657707214e-01 -5.6615132838487625e-02</leafValues></_>
    <_>
      <internalNodes>
        0 -1 22400 -2.3520104587078094e-02</internalNodes>
      <leafValues>
        -6.4258652925491333e-01 4.7655005007982254e-02</leafValues></_>
    <_>
      <internalNodes>
        0 -1 7534 -3.4341126680374146e-02</internalNodes>
      <leafValues>
        -9.4964069128036499e-01 1.8722860142588615e-02</leafValues></_>
    <_>
      <internalNodes>
        0 -1 28088 7.0771533064544201e-03</internalNodes>
      <leafValues>
        -1.0433444380760193e-01 2.2371254861354828e-01</leafValues></_>
    <_>
      <internalNodes>
        0 -1 77623 -2.3913206532597542e-03</internalNodes>
      <leafValues>
        -3.4880092740058899e-01 6.1550840735435486e-02</leafValues></_>
    <_>
      <internalNodes>
        0 -1 77804 -2.1877959370613098e-02</internalNodes>
      <leafValues>
        -7.1411079168319702e-01 3.0246069654822350e-02</leafValues></_>
    <_>
      <internalNodes>
        0 -1 11253 -5.0707766786217690e-03</internalNodes>
      <leafValues>
        -6.0088729858398438e-01 3.3966343849897385e-02</leafValues></_>
    <_>
      <internalNodes>
        0 -1 2745 1.3110632076859474e-02</internalNodes>
      <leafValues>
        -5.5105186998844147e-02 4.3986645340919495e-01</leafValues></_>
    <_>
      <internalNodes>
        0 -1 70692 -6.0593837406486273e-04</internalNodes>
      <leafValues>
        2.1880859136581421e-01 -1.1193107813596725e-01</leafValues></_>
    <_>
      <internalNodes>
        0 -1 31173 -5.3027230314910412e-03</internalNodes>
      <leafValues>
        -8.5884559154510498e-01 2.7369361370801926e-02</leafValues></_>
    <_>
      <internalNodes>
        0 -1 49806 -1.5214147977530956e-02</internalNodes>
      <leafValues>
        -8.4032160043716431e-01 1.9569555297493935e-02</leafValues></_>
    <_>
      <internalNodes>
        0 -1 7650 1.3582915067672729e-02</internalNodes>
      <leafValues>
        3.8422040641307831e-02 -5.0533550977706909e-01</leafValues></_>
    <_>
      <internalNodes>
        0 -1 40162 1.9818748533725739e-01</internalNodes>
      <leafValues>
        2.8027765452861786e-02 -7.5504362583160400e-01</leafValues></_>
    <_>
      <internalNodes>
        0 -1 26417 -1.7440646886825562e-02</internalNodes>
      <leafValues>
        -4.8468896746635437e-01 3.9406705647706985e-02</leafValues></_>
    <_>
      <internalNodes>
        0 -1 21464 2.6651623193174601e-03</internalNodes>
      <leafValues>
        -8.7988398969173431e-02 2.7347263693809509e-01</leafValues></_>
    <_>
      <internalNodes>
        0 -1 66566 -6.7148087546229362e-03</internalNodes>
      <leafValues>
        -6.6806429624557495e-01 3.6744065582752228e-02</leafValues></_>
    <_>
      <internalNodes>
        0 -1 32594 -1.7111235857009888e-01</internalNodes>
      <leafValues>
        -5.8978056907653809e-01 3.3644504845142365e-02</leafValues></_>
    <_>
      <internalNodes>
        0 -1 13303 -1.4694592356681824e-01</internalNodes>
      <leafValues>
        2.9064992070198059e-01 -8.5117422044277191e-02</leafValues></_>
    <_>
      <internalNodes>
        0 -1 36069 7.5665012001991272e-02</internalNodes>
      <leafValues>
        -8.2527935504913330e-02 2.9008606076240540e-01</leafValues></_>
    <_>
      <internalNodes>
        0 -1 60199 8.9081581681966782e-03</internalNodes>
      <leafValues>
        1.2892486155033112e-01 -2.0407928526401520e-01</leafValues></_>
    <_>
      <internalNodes>
        0 -1 14315 -8.2164496183395386e-02</internalNodes>
      <leafValues>
        7.0657253265380859e-01 -2.8065102174878120e-02</leafValues></_>
    <_>
      <internalNodes>
        0 -1 33759 -7.6184757053852081e-02</internalNodes>
      <leafValues>
        -6.5111392736434937e-01 3.8794070482254028e-02</leafValues></_>
    <_>
      <internalNodes>
        0 -1 71150 8.5142403841018677e-03</internalNodes>
      <leafValues>
        2.4520991370081902e-02 -8.3413296937942505e-01</leafValues></_></weakClassifiers></stage8>
</opencv_storage>
