<?xml version="1.0"?>
<opencv_storage>
<stage15>
  <maxWeakCount>100</maxWeakCount>
  <stageThreshold>-2.8693730831146240e+00</stageThreshold>
  <weakClassifiers>
    <_>
      <internalNodes>
        0 -1 31538 -1.7513406055513769e-04</internalNodes>
      <leafValues>
        -7.1186438202857971e-02 -7.9292267560958862e-01</leafValues></_>
    <_>
      <internalNodes>
        0 -1 37746 2.6910256128758192e-03</internalNodes>
      <leafValues>
        -3.1659543514251709e-01 4.8612445592880249e-01</leafValues></_>
    <_>
      <internalNodes>
        0 -1 43164 -1.0134678450413048e-04</internalNodes>
      <leafValues>
        2.9721909761428833e-01 -4.1926676034927368e-01</leafValues></_>
    <_>
      <internalNodes>
        0 -1 34050 1.5619659097865224e-03</internalNodes>
      <leafValues>
        -1.6807828843593597e-01 4.0722340345382690e-01</leafValues></_>
    <_>
      <internalNodes>
        0 -1 63885 2.3341039195656776e-04</internalNodes>
      <leafValues>
        -1.7560687661170959e-01 3.4014439582824707e-01</leafValues></_>
    <_>
      <internalNodes>
        0 -1 37460 -8.1298861186951399e-04</internalNodes>
      <leafValues>
        2.4158111214637756e-01 -2.0712177455425262e-01</leafValues></_>
    <_>
      <internalNodes>
        0 -1 29946 -8.2720303907990456e-04</internalNodes>
      <leafValues>
        2.4949176609516144e-01 -1.9879247248172760e-01</leafValues></_>
    <_>
      <internalNodes>
        0 -1 35257 -1.4939457178115845e-03</internalNodes>
      <leafValues>
        3.6713173985481262e-01 -9.5749005675315857e-02</leafValues></_>
    <_>
      <internalNodes>
        0 -1 49746 9.4814058393239975e-03</internalNodes>
      <leafValues>
        -6.2016416341066360e-02 5.3629475831985474e-01</leafValues></_>
    <_>
      <internalNodes>
        0 -1 70974 -2.2500874474644661e-03</internalNodes>
      <leafValues>
        2.9474020004272461e-01 -1.1257147043943405e-01</leafValues></_>
    <_>
      <internalNodes>
        0 -1 14609 3.2787951640784740e-03</internalNodes>
      <leafValues>
        -9.5639586448669434e-02 3.3849793672561646e-01</leafValues></_>
    <_>
      <internalNodes>
        0 -1 27929 1.1103549972176552e-02</internalNodes>
      <leafValues>
        5.0325907766819000e-02 -7.1174710988998413e-01</leafValues></_>
    <_>
      <internalNodes>
        0 -1 74980 6.5481220372021198e-03</internalNodes>
      <leafValues>
        -9.1984115540981293e-02 4.3554246425628662e-01</leafValues></_>
    <_>
      <internalNodes>
        0 -1 44057 -4.6772556379437447e-03</internalNodes>
      <leafValues>
        2.6826861500740051e-01 -1.2338299304246902e-01</leafValues></_>
    <_>
      <internalNodes>
        0 -1 46487 -3.7789223715662956e-03</internalNodes>
      <leafValues>
        -5.2362126111984253e-01 1.2794795632362366e-01</leafValues></_>
    <_>
      <internalNodes>
        0 -1 1447 1.5148529782891273e-02</internalNodes>
      <leafValues>
        -1.2456633895635605e-01 4.4603431224822998e-01</leafValues></_>
    <_>
      <internalNodes>
        0 -1 66303 -6.0674296692013741e-03</internalNodes>
      <leafValues>
        -7.3179751634597778e-01 1.1026013642549515e-01</leafValues></_>
    <_>
      <internalNodes>
        0 -1 53506 -1.5621833503246307e-02</internalNodes>
      <leafValues>
        2.9482379555702209e-01 -1.6119952499866486e-01</leafValues></_>
    <_>
      <internalNodes>
        0 -1 44350 1.5369072556495667e-02</internalNodes>
      <leafValues>
        1.2700374424457550e-01 -4.7969928383827209e-01</leafValues></_>
    <_>
      <internalNodes>
        0 -1 33943 -7.8352950513362885e-03</internalNodes>
      <leafValues>
        4.8834955692291260e-01 -1.1885793507099152e-01</leafValues></_>
    <_>
      <internalNodes>
        0 -1 739 -3.4207629505544901e-04</internalNodes>
      <leafValues>
        -7.0015758275985718e-02 3.7867814302444458e-01</leafValues></_>
    <_>
      <internalNodes>
        0 -1 41826 -4.5198488980531693e-02</internalNodes>
      <leafValues>
        4.5952272415161133e-01 -1.4068126678466797e-01</leafValues></_>
    <_>
      <internalNodes>
        0 -1 61061 9.9565507844090462e-04</internalNodes>
      <leafValues>
        -1.3859000802040100e-01 2.3517905175685883e-01</leafValues></_>
    <_>
      <internalNodes>
        0 -1 28101 2.4716023355722427e-02</internalNodes>
      <leafValues>
        -5.3928397595882416e-02 5.7096678018569946e-01</leafValues></_>
    <_>
      <internalNodes>
        0 -1 73585 -1.7444200813770294e-02</internalNodes>
      <leafValues>
        4.7945642471313477e-01 -5.9782691299915314e-02</leafValues></_>
    <_>
      <internalNodes>
        0 -1 6698 -5.1055904477834702e-03</internalNodes>
      <leafValues>
        -4.4024720788002014e-01 7.3314480483531952e-02</leafValues></_>
    <_>
      <internalNodes>
        0 -1 45017 -2.0454511046409607e-02</internalNodes>
      <leafValues>
        6.0427004098892212e-01 -5.6044705212116241e-02</leafValues></_>
    <_>
      <internalNodes>
        0 -1 41329 9.5940623432397842e-03</internalNodes>
      <leafValues>
        6.3243016600608826e-02 -5.4219019412994385e-01</leafValues></_>
    <_>
      <internalNodes>
        0 -1 25185 -1.4610428363084793e-02</internalNodes>
      <leafValues>
        6.6021424531936646e-01 -5.2569162100553513e-02</leafValues></_>
    <_>
      <internalNodes>
        0 -1 67965 6.7973583936691284e-03</internalNodes>
      <leafValues>
        6.3339121639728546e-02 -5.0748932361602783e-01</leafValues></_>
    <_>
      <internalNodes>
        0 -1 32961 1.8892336636781693e-02</internalNodes>
      <leafValues>
        -6.3202098011970520e-02 5.2782827615737915e-01</leafValues></_>
    <_>
      <internalNodes>
        0 -1 4429 -7.1815913543105125e-03</internalNodes>
      <leafValues>
        -4.6554312109947205e-01 6.5166398882865906e-02</leafValues></_>
    <_>
      <internalNodes>
        0 -1 62414 -2.1120319142937660e-03</internalNodes>
      <leafValues>
        2.6254847645759583e-01 -1.2248200178146362e-01</leafValues></_>
    <_>
      <internalNodes>
        0 -1 77017 -2.5431436952203512e-03</internalNodes>
      <leafValues>
        -4.5963969826698303e-01 6.8260930478572845e-02</leafValues></_>
    <_>
      <internalNodes>
        0 -1 44698 -5.4911631159484386e-03</internalNodes>
      <leafValues>
        4.1956984996795654e-01 -7.1997389197349548e-02</leafValues></_>
    <_>
      <internalNodes>
        0 -1 20972 1.4750534668564796e-02</internalNodes>
      <leafValues>
        6.0831863433122635e-02 -5.9595143795013428e-01</leafValues></_>
    <_>
      <internalNodes>
        0 -1 78273 -3.0740695074200630e-03</internalNodes>
      <leafValues>
        -3.9087039232254028e-01 7.3371551930904388e-02</leafValues></_>
    <_>
      <internalNodes>
        0 -1 27300 -1.2383143417537212e-02</internalNodes>
      <leafValues>
        5.3396725654602051e-01 -6.1214122921228409e-02</leafValues></_>
    <_>
      <internalNodes>
        0 -1 68676 -6.8790405057370663e-03</internalNodes>
      <leafValues>
        -1. 3.3090237528085709e-02</leafValues></_>
    <_>
      <internalNodes>
        0 -1 44772 -4.4164694845676422e-02</internalNodes>
      <leafValues>
        7.2520810365676880e-01 -4.8069078475236893e-02</leafValues></_>
    <_>
      <internalNodes>
        0 -1 66755 -2.5345932692289352e-02</internalNodes>
      <leafValues>
        -3.5526102781295776e-01 8.6816832423210144e-02</leafValues></_>
    <_>
      <internalNodes>
        0 -1 40385 -2.4586757645010948e-03</internalNodes>
      <leafValues>
        2.0596839487552643e-01 -1.4227800071239471e-01</leafValues></_>
    <_>
      <internalNodes>
        0 -1 34942 5.2755557000637054e-02</internalNodes>
      <leafValues>
        -4.6072721481323242e-02 6.6386228799819946e-01</leafValues></_>
    <_>
      <internalNodes>
        0 -1 19827 -3.2783143222332001e-02</internalNodes>
      <leafValues>
        -2.9109016060829163e-01 1.1167500168085098e-01</leafValues></_>
    <_>
      <internalNodes>
        0 -1 67880 1.8610946834087372e-02</internalNodes>
      <leafValues>
        -4.8687215894460678e-02 6.2177675962448120e-01</leafValues></_>
    <_>
      <internalNodes>
        0 -1 59654 -6.1762249097228050e-03</internalNodes>
      <leafValues>
        -6.4635986089706421e-01 5.0047520548105240e-02</leafValues></_>
    <_>
      <internalNodes>
        0 -1 27754 1.7440300434827805e-02</internalNodes>
      <leafValues>
        -4.8495378345251083e-02 6.1747837066650391e-01</leafValues></_>
    <_>
      <internalNodes>
        0 -1 30042 -6.7006513476371765e-02</internalNodes>
      <leafValues>
        -4.9516001343727112e-01 6.5594218671321869e-02</leafValues></_>
    <_>
      <internalNodes>
        0 -1 62977 -2.9112875461578369e-02</internalNodes>
      <leafValues>
        3.3162644505500793e-01 -8.9101970195770264e-02</leafValues></_>
    <_>
      <internalNodes>
        0 -1 48731 -1.5922676771879196e-02</internalNodes>
      <leafValues>
        4.5931792259216309e-01 -5.8374084532260895e-02</leafValues></_>
    <_>
      <internalNodes>
        0 -1 67452 3.1732073985040188e-03</internalNodes>
      <leafValues>
        6.8924710154533386e-02 -4.9918001890182495e-01</leafValues></_>
    <_>
      <internalNodes>
        0 -1 70681 -7.2882194072008133e-03</internalNodes>
      <leafValues>
        3.5198974609375000e-01 -8.0820739269256592e-02</leafValues></_>
    <_>
      <internalNodes>
        0 -1 14703 -3.5459329374134541e-03</internalNodes>
      <leafValues>
        -3.8024997711181641e-01 7.7202089130878448e-02</leafValues></_>
    <_>
      <internalNodes>
        0 -1 76622 4.9183228984475136e-03</internalNodes>
      <leafValues>
        3.3625807613134384e-02 -7.3169124126434326e-01</leafValues></_>
    <_>
      <internalNodes>
        0 -1 73694 7.0667900145053864e-03</internalNodes>
      <leafValues>
        -5.2390847355127335e-02 5.7719856500625610e-01</leafValues></_>
    <_>
      <internalNodes>
        0 -1 51553 -5.6216875091195107e-03</internalNodes>
      <leafValues>
        -2.7009630203247070e-01 1.0679906606674194e-01</leafValues></_>
    <_>
      <internalNodes>
        0 -1 73427 -9.5722463447600603e-04</internalNodes>
      <leafValues>
        3.0972078442573547e-01 -9.2300437390804291e-02</leafValues></_>
    <_>
      <internalNodes>
        0 -1 55788 1.5884179621934891e-02</internalNodes>
      <leafValues>
        3.7660349160432816e-02 -7.4351334571838379e-01</leafValues></_>
    <_>
      <internalNodes>
        0 -1 75022 -3.9046653546392918e-03</internalNodes>
      <leafValues>
        4.9785816669464111e-01 -5.9630960226058960e-02</leafValues></_>
    <_>
      <internalNodes>
        0 -1 74565 1.5433602966368198e-02</internalNodes>
      <leafValues>
        4.8382580280303955e-02 -6.5617126226425171e-01</leafValues></_>
    <_>
      <internalNodes>
        0 -1 54641 1.4441973529756069e-02</internalNodes>
      <leafValues>
        -4.8388943076133728e-02 6.3460379838943481e-01</leafValues></_>
    <_>
      <internalNodes>
        0 -1 48337 -7.9444451257586479e-03</internalNodes>
      <leafValues>
        -5.3145396709442139e-01 5.8445163071155548e-02</leafValues></_>
    <_>
      <internalNodes>
        0 -1 32259 -1.1876533180475235e-01</internalNodes>
      <leafValues>
        8.5147857666015625e-01 -3.5235926508903503e-02</leafValues></_>
    <_>
      <internalNodes>
        0 -1 2068 -2.0397763699293137e-02</internalNodes>
      <leafValues>
        -5.4238063097000122e-01 5.5128674954175949e-02</leafValues></_>
    <_>
      <internalNodes>
        0 -1 71 -1.0235924273729324e-02</internalNodes>
      <leafValues>
        6.1488735675811768e-01 -5.3637430071830750e-02</leafValues></_>
    <_>
      <internalNodes>
        0 -1 63704 -1.0244580917060375e-02</internalNodes>
      <leafValues>
        -5.3172010183334351e-01 5.1035828888416290e-02</leafValues></_>
    <_>
      <internalNodes>
        0 -1 58245 1.0983577929437160e-02</internalNodes>
      <leafValues>
        -7.0892870426177979e-02 4.0232926607131958e-01</leafValues></_>
    <_>
      <internalNodes>
        0 -1 58355 -2.5658486410975456e-03</internalNodes>
      <leafValues>
        3.2037374377250671e-01 -8.3935052156448364e-02</leafValues></_>
    <_>
      <internalNodes>
        0 -1 57411 -2.5685522705316544e-03</internalNodes>
      <leafValues>
        -2.6252299547195435e-01 1.1129705607891083e-01</leafValues></_>
    <_>
      <internalNodes>
        0 -1 45043 1.4492845162749290e-02</internalNodes>
      <leafValues>
        2.7954202145338058e-02 -8.9950907230377197e-01</leafValues></_>
    <_>
      <internalNodes>
        0 -1 73741 -2.1145375445485115e-02</internalNodes>
      <leafValues>
        5.8534020185470581e-01 -5.3773827850818634e-02</leafValues></_>
    <_>
      <internalNodes>
        0 -1 14483 -3.9640879258513451e-03</internalNodes>
      <leafValues>
        -3.8414427638053894e-01 7.2410903871059418e-02</leafValues></_>
    <_>
      <internalNodes>
        0 -1 75069 -1.0591252939775586e-03</internalNodes>
      <leafValues>
        2.9783552885055542e-01 -8.7674245238304138e-02</leafValues></_>
    <_>
      <internalNodes>
        0 -1 49160 2.7328974101692438e-03</internalNodes>
      <leafValues>
        1.2027729302644730e-01 -2.2911085188388824e-01</leafValues></_>
    <_>
      <internalNodes>
        0 -1 38949 -7.3749851435422897e-03</internalNodes>
      <leafValues>
        4.6485599875450134e-01 -5.7079430669546127e-02</leafValues></_>
    <_>
      <internalNodes>
        0 -1 66804 -1.0054805316030979e-02</internalNodes>
      <leafValues>
        -1. 2.9571287333965302e-02</leafValues></_>
    <_>
      <internalNodes>
        0 -1 73709 1.3017548248171806e-02</internalNodes>
      <leafValues>
        -5.9936314821243286e-02 5.2345281839370728e-01</leafValues></_>
    <_>
      <internalNodes>
        0 -1 9879 1.3831457123160362e-02</internalNodes>
      <leafValues>
        5.0407376140356064e-02 -5.2845579385757446e-01</leafValues></_>
    <_>
      <internalNodes>
        0 -1 32942 -7.3373885825276375e-03</internalNodes>
      <leafValues>
        -5.4288464784622192e-01 4.2642384767532349e-02</leafValues></_>
    <_>
      <internalNodes>
        0 -1 19630 -5.1541877910494804e-03</internalNodes>
      <leafValues>
        6.5730541944503784e-01 -4.3278265744447708e-02</leafValues></_>
    <_>
      <internalNodes>
        0 -1 67813 -8.3609316498041153e-03</internalNodes>
      <leafValues>
        -5.4739350080490112e-01 5.6341044604778290e-02</leafValues></_>
    <_>
      <internalNodes>
        0 -1 62317 1.6132330056279898e-03</internalNodes>
      <leafValues>
        -7.1806594729423523e-02 3.6136561632156372e-01</leafValues></_>
    <_>
      <internalNodes>
        0 -1 70052 3.5764470696449280e-02</internalNodes>
      <leafValues>
        -3.3452104777097702e-02 7.2931021451950073e-01</leafValues></_>
    <_>
      <internalNodes>
        0 -1 61522 2.7388636022806168e-02</internalNodes>
      <leafValues>
        4.6616706997156143e-02 -5.8377104997634888e-01</leafValues></_>
    <_>
      <internalNodes>
        0 -1 40975 6.5367831848561764e-03</internalNodes>
      <leafValues>
        -5.8377850800752640e-02 4.3717321753501892e-01</leafValues></_>
    <_>
      <internalNodes>
        0 -1 11875 -1.2999655678868294e-02</internalNodes>
      <leafValues>
        -2.6913881301879883e-01 9.5194578170776367e-02</leafValues></_>
    <_>
      <internalNodes>
        0 -1 1474 1.7463985830545425e-02</internalNodes>
      <leafValues>
        -5.0860676914453506e-02 5.5913525819778442e-01</leafValues></_>
    <_>
      <internalNodes>
        0 -1 76750 3.3263321965932846e-03</internalNodes>
      <leafValues>
        4.4022683054208755e-02 -6.2513107061386108e-01</leafValues></_>
    <_>
      <internalNodes>
        0 -1 18342 1.0565964505076408e-02</internalNodes>
      <leafValues>
        -6.8064801394939423e-02 4.3926346302032471e-01</leafValues></_>
    <_>
      <internalNodes>
        0 -1 19215 6.2520941719412804e-03</internalNodes>
      <leafValues>
        4.7800846397876740e-02 -5.9208977222442627e-01</leafValues></_>
    <_>
      <internalNodes>
        0 -1 3323 1.6055778833106160e-03</internalNodes>
      <leafValues>
        -7.6973505318164825e-02 3.2241526246070862e-01</leafValues></_>
    <_>
      <internalNodes>
        0 -1 70797 2.7886745519936085e-03</internalNodes>
      <leafValues>
        6.6993109881877899e-02 -3.7958768010139465e-01</leafValues></_>
    <_>
      <internalNodes>
        0 -1 56646 -8.9226309210062027e-03</internalNodes>
      <leafValues>
        1. -2.5647945702075958e-02</leafValues></_>
    <_>
      <internalNodes>
        0 -1 56909 5.7592306984588504e-04</internalNodes>
      <leafValues>
        -8.3360031247138977e-02 2.5693944096565247e-01</leafValues></_>
    <_>
      <internalNodes>
        0 -1 23521 -4.2858878150582314e-03</internalNodes>
      <leafValues>
        -2.9847380518913269e-01 1.0423938184976578e-01</leafValues></_>
    <_>
      <internalNodes>
        0 -1 25094 -1.0764915496110916e-02</internalNodes>
      <leafValues>
        5.6566184759140015e-01 -3.8990709930658340e-02</leafValues></_>
    <_>
      <internalNodes>
        0 -1 62321 -1.0578718502074480e-03</internalNodes>
      <leafValues>
        -3.1698969006538391e-01 7.9311192035675049e-02</leafValues></_>
    <_>
      <internalNodes>
        0 -1 13043 -6.9357305765151978e-02</internalNodes>
      <leafValues>
        -7.2453737258911133e-01 3.2780207693576813e-02</leafValues></_>
    <_>
      <internalNodes>
        0 -1 7614 2.9424544423818588e-02</internalNodes>
      <leafValues>
        -3.2248657196760178e-02 8.4432113170623779e-01</leafValues></_>
    <_>
      <internalNodes>
        0 -1 39332 -2.4855476804077625e-03</internalNodes>
      <leafValues>
        3.6005440354347229e-01 -5.8724503964185715e-02</leafValues></_></weakClassifiers></stage15>
</opencv_storage>
